-0.184101014363, 0.184101014363, 1.14153719617, -0.220404035001, 0.096122072862, 0.564136333852, -0.050987255836, 0.0509327160308, -0.430087886382, 0.412309984674, 0.181558348096, 0.2581343235, -0.0455859804108, -0.245107505254, -0.270748130842, 0, -0.496288673451, -0.147059255278, 0.147343202954, -0.222255944689, 0.00737062106962, -0.221736757545, -0.20908174857, -0.157411622705, -0.153913470377, 0.584935165997, 0.0221181493678, 0, 0.0784392422364, 0.120930640964, 0.0828535838678, 0.000712331699662, 0.31462528491, -0.46816325334, 0.309565047089, 0.139077167351, 0.0179524114485, 0.00156862745098, 0.100240779004, 0.0222222222222, 0.0478167631652, -0.382943100782, 0.0222222222222, -0.0402702702703, -0.100043290043, 0, -0.269626438329, 0.0185557299843, 0, 0, 0.0309913043478, 0.0588461538462, 0.0309913043478, 0.034, 0.0104828541472, 0.0975824175824, 0, 0, -0.155981544503, 0.0818181818182, 0.0818181818182, -0.156132108696, 0.0818181818182, 0.0222222222222, 0.0321305546897, -0.0261212121212, -0.160880297016, 0, -0.00877027027027, 0, -0.00877027027027, 0.045, 0.0449933743695, 0.0384, -0.04, 0, 0.185585958883, -0.0297258297258, -0.0552540165332, 0, 0.042, 0.0693333333333, 0, 0.0818181818182, 0.0315, -0.0714442700157, 0, 0, 0.0153504880213, 0.0975824175824, -0.03, 0, 0.0315238978804, 0.0377551020408, -0.11582901516, 0, 0.0818181818182, 0, 0.103900909863, -0.0659861660079, 0.0834, 0, -0.04, 0, -0.0297258297258, 0.0588461538462, 0.0818181818182, -0.0629711524379, 0.0420588235294, 0.00954483611626, -0.0665, -0.150874920635, -0.109486166008, 0, 0, -0.04, -0.0411971361971, -0.109486166008, 0.0293575775501, 0.0315, 0.0683243243243, -0.0936124794745, 0, 0.263073482908, 0.045, 0.0620731593889, -0.04, 0.0642761432281, -0.09, -0.241126477406, -0.03, 0, 0, -0.186779739691, 0.045, 0, 0.317581233372, 0, 0, -0.109486166008, 0.0818181818182, 0.0834, 0.180535114681, 0, -0.0412796758797, 0.0085, 0, 0.0818181818182, -0.0303174603175, -0.180952380952, 0.0309913043478, 0.0309913043478, 0, 0.00172972972973, 0.075, 0.171428571429, 0, 0, 0, 0.0377551020408, -0.184874920635, -0.180952380952, 0, 0.0774698858026, -0.21927656366, -0.0104761021196, 0.0185557299843, -0.0169535071051, 0, 0.0309913043478, 0, -0.0954545454545, 0.0469722222222, 0.0367483870968, -0.0108796758797, 0.0313725490196, 0.0377551020408, 0, 0, -0.108, -0.109486166008, 0.0282085209868, -0.04, 0.120865900383, -0.04, -0.0974861660079, -0.0297258297258, 0.0309913043478, 0, -0.04, -0.0776623376623, 0.0621235580408, 0.0818181818182, -0.03, -0.0663341549326, 0, 0.221215704969, 0.0503125, 0.130439414203, 0, 0.0393333333333, 0, 0.284494738257, -0.0603174603175, -0.0138494983278, -0.0303174603175, 0.0377551020408, 0.0293575775501, -0.04, -0.180952380952, -0.186779739691, -0.0461538461538, 0, -0.0235607176706, 0.0818181818182, -0.186779739691, -0.0370588235294, 0, 0.0975824175824, 0.0975824175824, 0.143324324324, 0.0384, 0.0775498204855, -0.0303174603175, -0.0932144072927, -0.133333333333, 0, 0, -0.0297258297258, 0.35440917165, 0.0276172996506, -0.00877027027027, 0, -0.04, 0, -0.04, 0.0903461538462, 0.0818181818182, 0, 0.0309913043478, -0.0603174603175, 0.153374594074, 0.0707689952899, 0.0834, 0.0309913043478, 0.0377551020408, 0.0371892931092, 0, 0.0185557299843, 0.0188470293803, -0.100240779004, -0.0222222222222, -0.0478167631652, 0.382943100782, -0.0222222222222, 0.0402702702703, 0.100043290043, 0, 0.269626438329, -0.0185557299843, 0, 0, -0.0309913043478, -0.0588461538462, -0.0309913043478, -0.034, -0.0104828541472, -0.0975824175824, 0, 0, 0.155981544503, -0.0818181818182, -0.0818181818182, 0.156132108696, -0.0818181818182, -0.0222222222222, -0.0321305546897, 0.0261212121212, 0.160880297016, 0, 0.00877027027027, 0, 0.00877027027027, -0.045, -0.0449933743695, -0.0384, 0.04, 0, -0.185585958883, 0.0297258297258, 0.0552540165332, 0, -0.042, -0.0693333333333, 0, -0.0818181818182, -0.0315, 0.0714442700157, 0, 0, -0.0153504880213, -0.0975824175824, 0.03, 0, -0.0315238978804, -0.0377551020408, 0.11582901516, 0, -0.0818181818182, 0, -0.103900909863, 0.0659861660079, -0.0834, 0, 0.04, 0, 0.0297258297258, -0.0588461538462, -0.0818181818182, 0.0629711524379, -0.0420588235294, -0.00954483611626, 0.0665, 0.150874920635, 0.109486166008, 0, 0, 0.04, 0.0411971361971, 0.109486166008, -0.0293575775501, -0.0315, -0.0683243243243, 0.0936124794745, 0, -0.263073482908, -0.045, -0.0620731593889, 0.04, -0.0642761432281, 0.09, 0.241126477406, 0.03, 0, 0, 0.186779739691, -0.045, 0, -0.317581233372, 0, 0, 0.109486166008, -0.0818181818182, -0.0834, -0.180535114681, 0, 0.0412796758797, -0.0085, 0, -0.0818181818182, 0.0303174603175, 0.180952380952, -0.0309913043478, -0.0309913043478, 0, -0.00172972972973, -0.075, -0.171428571429, 0, 0, 0, -0.0377551020408, 0.184874920635, 0.180952380952, 0, -0.0774698858026, 0.21927656366, 0.0104761021196, -0.0185557299843, 0.0169535071051, 0, -0.0309913043478, 0, 0.0954545454545, -0.0469722222222, -0.0367483870968, 0.0108796758797, -0.0313725490196, -0.0377551020408, 0, 0, 0.108, 0.109486166008, -0.0282085209868, 0.04, -0.120865900383, 0.04, 0.0974861660079, 0.0297258297258, -0.0309913043478, 0, 0.04, 0.0776623376623, -0.0621235580408, -0.0818181818182, 0.03, 0.0663341549326, 0, -0.221215704969, -0.0503125, -0.130439414203, 0, -0.0393333333333, 0, -0.284494738257, 0.0603174603175, 0.0138494983278, 0.0303174603175, -0.0377551020408, -0.0293575775501, 0.04, 0.180952380952, 0.186779739691, 0.0461538461538, 0, 0.0235607176706, -0.0818181818182, 0.186779739691, 0.0370588235294, 0, -0.0975824175824, -0.0975824175824, -0.143324324324, -0.0384, -0.0775498204855, 0.0303174603175, 0.0932144072927, 0.133333333333, 0, 0, 0.0297258297258, -0.35440917165, -0.0276172996506, 0.00877027027027, 0, 0.04, 0, 0.04, -0.0903461538462, -0.0818181818182, 0, -0.0309913043478, 0.0603174603175, -0.153374594074, -0.0707689952899, -0.0834, -0.0309913043478, -0.0377551020408, -0.0371892931092, 0, -0.0185557299843, -0.0188470293803, -0.0374621290824, 0.0111111111111, 0.00205503170664, 0.255125958798, 0.0111111111111, 0, 0.00297258297258, 0, 0.201723340197, 0.0742229199372, 0, 0, 0.0281739130435, 0.0276923076923, 0.0281739130435, 0.0113333333333, 0.44534572875, 0.0569230769231, 0, 0, -0.17220528264, 0, 0, 0.0606521199661, 0, 0.0111111111111, 0.454246067963, 0.0468484848485, 0.215392744421, 0, 0.0105, 0, 0.0105, 0.0375, 0.128327688023, 0.0128, 0, 0, 0.0564216801381, 0.00297258297258, 0.187402686515, 0, 0, 0.00866666666667, 0, 0, 0.0105, 0.104222919937, 0, 0, 0.012280390417, 0.0569230769231, 0, 0, 0.0588388037084, 0.045306122449, 0.0557752696542, 0, 0, 0, 0.168106729158, -0.164677865613, 0.0503, 0, 0, 0, 0.00297258297258, 0.0276923076923, 0, -0.0203052930057, 0.0420588235294, 0.246042053185, 0.076, 0.0757320634921, -0.175177865613, 0, 0, 0, 0.0306648906649, -0.175177865613, 0.172564010179, 0.0105, -0.0683243243243, 0, 0, 0.262407306979, 0.0375, 0.312793562823, 0, 0.0911300094184, 0.09, 0.067294905407, 0, 0, 0, 0.154384723377, 0.0375, 0, 0.0457934340659, 0, 0, -0.175177865613, 0, 0.0503, -0.171727775943, 0, -0.110135109335, 0.108142857143, 0, 0, 0, 0.105555555556, 0.0281739130435, 0.0281739130435, 0, 0, 0.0321428571429, 0, 0, 0, 0, 0.045306122449, 0.0643987301587, 0.105555555556, 0, 0.26949521781, -0.17220528264, 0.0588388037084, 0.0742229199372, 0.0780550317066, 0, 0.0281739130435, 0, 0.0381818181818, 0.0786111111111, -0.0367483870968, 0.0306648906649, 0.082368947579, 0.045306122449, 0, 0, -0.226666666667, -0.175177865613, 0.0274926421405, 0, 0.0215019157088, 0, -0.175177865613, 0.00297258297258, 0.0281739130435, 0, 0, 0.0465974025974, -0.124289075282, 0, 0, 0.381087134838, 0, 0.382486218518, -0.0803125, -0.138360902653, 0, 0.00866666666667, 0, 0.372843053427, 0, 0.100387959866, 0, 0.045306122449, 0.172564010179, 0, 0.105555555556, 0.154384723377, 0.114192307692, 0, 0.228900581169, 0, 0.154384723377, 0.0123529411765, 0, 0.0569230769231, 0.0569230769231, -0.0361814671815, 0.0128, 0.399334921292, 0, 0.00272898550725, 0.133333333333, 0, 0, 0.00297258297258, 0.254588264737, -0.0308052930057, 0.0105, 0, 0, 0, 0, 0.0381923076923, 0, 0, 0.0281739130435, 0, 0.138106729158, 0.246215312653, 0.0503, 0.0281739130435, 0.045306122449, 0.57086601447, 0, 0.0742229199372, -0.0203052930057, -0.0203677819259, -0.0296296296296, -0.106752270416, 0.0902594171187, -0.0296296296296, 0, 0.0391479367995, 0, -0.0899589038195, -0.0318098228302, 0, 0, -0.019842484472, -0.023627430262, -0.019842484472, -0.0118055555556, -0.213988045701, -0.115201465201, 0, 0, 0.104239109395, -0.0818181818182, -0.0818181818182, 0.213826089613, -0.0818181818182, -0.0296296296296, -0.349265741434, 0.0443709825528, 0.0191234445052, 0, -0.00204166666667, 0, -0.00204166666667, -0.0484375, -0.0635215199809, -0.0147911111111, 0.0114285714286, 0, -0.0835531037027, 0.0201400002915, 0.00716972643896, 0, 0.0168, -0.0420202020202, 0, -0.0818181818182, -0.00204166666667, 0.036285415265, 0, 0, -0.0273677272151, -0.115201465201, 0.00748484848485, 0, 0.00104945063679, -0.0471219630709, 0.0716991066244, 0, -0.0818181818182, 0, -0.094995144607, 0.144867687747, -0.0632286111111, 0, 0.0114285714286, 0, 0.0201400002915, -0.023627430262, -0.0818181818182, 0.0452710083416, -0.0245343137255, -0.156936698772, 0.0758593559219, -0.062266963777, 0.122624505929, 0, 0, 0.0114285714286, 0.0155205065374, 0.122624505929, -0.105549790089, -0.00204166666667, -0.0384324324324, 0.00155126801679, 0, -0.0734355448707, -0.0484375, -0.237947661581, 0.0114285714286, -0.0931493591215, 0.0200274725275, 0.0965465810658, 0.00748484848485, 0, 0, 0.195113137816, -0.0484375, 0, -0.179582820093, 0, 0, 0.122624505929, -0.0818181818182, -0.0632286111111, -0.210432545995, 0, 0.0809925700295, 0.0446093559219, 0, -0.0818181818182, 0.00757936507937, 0.00955026455026, -0.019842484472, -0.019842484472, 0, 0.0168, -0.03125, 0.0215510204082, 0, 0, 0, -0.0471219630709, -0.0504614082214, 0.00955026455026, 0, -0.0641934112867, 0.0982110123324, -0.0157505493632, -0.0318098228302, -0.0140929144941, 0, -0.019842484472, 0, 0.086391184573, -0.250620014245, -0.030772988302, 0.00794114145804, 0.0303030995948, -0.0471219630709, 0, 0, 0.183825396825, 0.122624505929, -0.0977661722094, 0.0114285714286, -0.0887817418852, 0.0114285714286, 0.146909354414, 0.0201400002915, -0.019842484472, 0, 0.0114285714286, 0.0465974025974, -0.0100000473335, -0.0818181818182, 0.00748484848485, -0.274912434409, 0, -0.264482405822, 0.0298852969947, -0.0178073198366, 0, -0.0345353535354, 0, -0.116201883816, 0.0150642135642, 0.00545083060752, 0.00757936507937, -0.0471219630709, -0.105549790089, 0.0114285714286, 0.00955026455026, 0.195113137816, 0.0274680367709, 0, -0.0213987829573, -0.0818181818182, 0.195113137816, 0.02, 0, -0.115201465201, -0.115201465201, -0.0696824324324, -0.0147911111111, -0.119009421495, 0.00757936507937, -0.0724506677019, 0.0242424242424, 0, 0, 0.0201400002915, -0.190597024907, -0.0345055068099, -0.00204166666667, 0, 0.0114285714286, 0, 0.0114285714286, -0.0499190969287, -0.0818181818182, 0, -0.019842484472, 0.0150642135642, -0.127225721048, -0.129938991925, -0.0632286111111, -0.019842484472, -0.0471219630709, -0.277095883469, 0, -0.0318098228302, -0.0365471734766, 0.0248932572425, -0.0037037037037, 0.00805477566501, 0.0972758768416, -0.0037037037037, 0.0100675675676, 0.0199919432419, 0, 0.0911766315216, 0.0508073559094, 0, 0, 0.00414559006211, 0.00768966610313, 0.00414559006211, 0.00377777777778, 0.0632710823076, -0.027557997558, 0, 0, 0.0110426088709, -0.0175324675325, -0.0175324675325, -0.0855336715125, -0.0175324675325, -0.0037037037037, -0.0426530655693, 0.00554055708601, 0.104108973396, 0, 0.00948423423423, 0, 0.00948423423423, -0.0091796875, 0.0712311138259, 0.00918349206349, 0.0104761904762, 0, 0.0431318115476, 0.00277853936187, -0.0239155897165, 0, -0.0126, 0.00621548821549, 0, -0.0175324675325, -0.000583333333333, 0.038981959084, 0, 0, -0.00700274644019, -0.027557997558, 0.00548484848485, 0, 0.0188185764986, 0.00535762876579, -0.00584926327179, 0, -0.0175324675325, 0, 0.0690459102145, -0.00206776773951, 3.80456349207e-06, 0, 0.0104761904762, 0, 0.00277853936187, 0.00768966610313, -0.0175324675325, 0.0154397681857, 0.0105147058824, -0.0670725167775, 0.0110122863248, 0.103828123728, 0.00563071710898, 0, 0, 0.0104761904762, 0.0276816093451, 0.00563071710898, -0.0317902611005, -0.000583333333333, 0.0213513513514, 0.0225609681932, 0, -0.0258318919135, -0.0091796875, 0.0186712079699, 0.0104761904762, 0.0340053654314, -0.0246615884116, 0.0553299931838, 0.00548484848485, 0, 0, -0.0158841798702, -0.0091796875, 0, -0.0114567055131, 0, 0, 0.00563071710898, -0.0175324675325, 3.80456349207e-06, 0.0503730723689, 0, 0.003428205465, 0.0360122863248, 0, -0.0175324675325, 0.00673721340388, 0.0564638447972, 0.00414559006211, 0.00414559006211, 0, -0.00253243243243, 0.025, -0.0377142857143, 0, 0, 0, 0.00535762876579, 0.10005034595, 0.0564638447972, 0, 0.0953743281913, 0.0268663636601, 0.0314185764986, 0.0508073559094, 0.0165346295574, 0, 0.00414559006211, 0, -0.000674931129477, -0.0199229688136, 0.00601325771003, 0.0209443959412, 0.00791992321404, 0.00535762876579, 0, 0, -0.0155873015873, 0.00563071710898, -0.0499373404337, 0.0104761904762, 0.00553787719305, 0.0104761904762, -0.00148443440617, 0.00277853936187, 0.00414559006211, 0, 0.0104761904762, 0.00443784786642, 0.0378293872746, -0.0175324675325, 0.00548484848485, 0.0912319125086, 0, 0.0954126043693, -0.0338340218809, 0.0650293633292, 0, 0.0117003367003, 0, -0.0668293512709, 0.0122220618887, -0.0104842469404, 0.00673721340388, 0.00535762876579, -0.0317902611005, 0.0104761904762, 0.0564638447972, -0.0158841798702, 0.0161741746501, 0, 0.0180440853145, -0.0175324675325, -0.0158841798702, -0.005, 0, -0.027557997558, -0.027557997558, 0.0463513513514, 0.00918349206349, 0.116703649694, 0.00673721340388, -0.0203419059918, 0.00606060606061, 0, 0, 0.00277853936187, -0.106289099252, -0.011576933581, 0.00948423423423, 0, 0.0104761904762, 0, 0.0104761904762, 0.0313563327698, -0.0175324675325, 0, 0.00414559006211, 0.0122220618887, 0.0569740639321, 0.061048813094, 3.80456349207e-06, 0.00414559006211, 0.00535762876579, 0.194927946838, 0, 0.0508073559094, -0.00209269934678, -0.0330805501209, 0.0111111111111, 0.132405180923, 0.115267545215, 0.0111111111111, 0.0302027027027, 0.0278407013862, 0, 0.301158418656, 0.0159049114151, 0, 0, -0.00350161490683, -0.00286348267117, -0.00350161490683, -0.017, 0.259569715528, 0.0501465201465, 0, 0, 0.0711804264868, 0.0467532467532, 0.0467532467532, -0.0651242495927, 0.0467532467532, 0.0111111111111, 0.301726928302, -0.00866789103153, 0.220822782807, 0, 0.0112443693694, 0, 0.0112443693694, 0.006484375, 0.0145938408736, -0.011906031746, 0.0171428571429, 0, -0.0095588469941, -0.00193443088898, -0.0102156468312, 0, -0.042, -0.0077037037037, 0, 0.0467532467532, -0.0189583333333, 0.0225715780818, 0, 0, 0.0135961465331, 0.0501465201465, 0.0183939393939, 0, -0.00746455063201, 0.0124951409135, -0.00214618398084, 0, 0.0467532467532, 0, 0.0394266145419, -0.0525745576887, -0.00542165674603, 0, 0.0171428571429, 0, -0.00193443088898, -0.00286348267117, 0.0467532467532, 0.0192265363811, -0.0245343137255, 0.143192080441, -0.00201686507937, 0.170253951974, -0.0100101637493, 0, 0, 0.0171428571429, 0.024977218715, -0.0100101637493, 0.0869919580885, -0.0189583333333, -0.0128108108108, 0.0608570516329, 0, -0.0683759129241, 0.006484375, 0.161969760047, 0.0171428571429, 0.037033045809, -0.0100924075924, 0.111942550791, 0.0183939393939, 0, 0, -0.0948361994141, 0.006484375, 0, -0.0419424926061, 0, 0, -0.0100101637493, 0.0467532467532, -0.00542165674603, 0.31593651388, 0, -0.0188779135602, -0.0207668650794, 0, 0.0467532467532, 0.0126322751323, 0.141243386243, -0.00350161490683, -0.00350161490683, 0, -0.0117972972973, -0.01875, -0.110693877551, 0, 0, 0, 0.0124951409135, 0.187253951974, 0.141243386243, 0, 0.0899000134276, 0.119405202987, 0.034535449368, 0.0159049114151, 0.118591018547, 0, -0.00350161490683, 0, -0.000964187327824, 0.132594284188, 0.0197686635945, 0.0123449435827, -0.0426619825419, 0.0124951409135, 0, 0, 0.0382063492063, -0.0100101637493, 0.114099144321, 0.0171428571429, 0.00275671710154, 0.0171428571429, -0.0336162243554, -0.00193443088898, -0.00350161490683, 0, 0.0171428571429, -0.00221892393321, -0.0154396492648, 0.0467532467532, 0.0183939393939, 0.351032661692, 0, 0.0588015850366, -0.0550698346792, -0.0319393163178, 0, 0.0106902356902, 0, -0.0636940578275, 0.0310262145262, 0.00804086515491, 0.0126322751323, 0.0124951409135, 0.0869919580885, 0.0171428571429, 0.141243386243, -0.0948361994141, 0.080550207805, 0, 0.0191715421381, 0.0467532467532, -0.0948361994141, -0.00411764705882, 0, 0.0501465201465, 0.0501465201465, -0.0315608108108, -0.011906031746, 0.199055743724, 0.0126322751323, 0.157134802152, 0.0606060606061, 0, 0, -0.00193443088898, 0.023195545323, 0.054735413765, 0.0112443693694, 0, 0.0171428571429, 0, 0.0171428571429, 0.00242818399549, 0.0467532467532, 0, -0.00350161490683, 0.0310262145262, 0.0258426546422, 0.0723948213566, -0.00542165674603, -0.00350161490683, 0.0124951409135, 0.465331050684, 0, 0.0159049114151, 0.0659797831343, 0.0161099671994, 0.0207631874299, 0.0792077520051, -0.261558606918, 0.0207631874299, 0.00503378378378, -0.0195415034701, 0, -0.0813403917252, -0.0484590025359, 0, 0, -0.012247826087, 0.0227472527473, -0.012247826087, 0.0273439153439, 0.365191866605, 0.043641025641, 0, 0, 0.0349997901951, 0.03, 0.03, 0.195038552902, 0.03, 0.0207631874299, -0.0063060058099, 0.0677804713805, 0.176202464489, 0, 0.0124337837838, 0, 0.0124337837838, 0.0318948412698, -0.0319139441942, -0.00170666666667, 0.0228571428571, 0, 0.123420089397, -0.0095547309833, -0.105182449001, 0, -2.33146835171e-18, 0.0469925925926, 0, 0.03, 0.0074, -0.081570113647, 0, 0, -0.00327477077788, 0.043641025641, -0.0169878787879, 0, -0.0268654358831, -0.00665070643642, -0.0238386352966, 0, 0.03, 0, 0.058851119662, 0.0269075098814, 0.0301881746032, 0, 0.0228571428571, 0, -0.0095547309833, 0.0227472527473, 0.03, -0.0107361174975, 0.00525735294118, 0.0756398594603, 0.0203571428571, 0.0179373544974, 0.0364953886693, 0, 0, 0.0228571428571, 0.00320574927718, 0.0364953886693, 0.0582420064408, 0.0074, 0.0512432432432, -0.0239524721766, 0, 0.281051187416, 0.0318948412698, 0.19955641904, 0.0228571428571, 0.0348041387571, -0.0692857142857, 0.0421952843764, -0.0169878787879, 0, 0, 0.00681727503411, 0.0318948412698, 0, 0.183788673865, 0, 0, 0.0364953886693, 0.03, 0.0301881746032, 0.14238133687, 0, -0.064247478236, 0.036887755102, 0, 0.03, -0.0328439153439, 0.0557936507937, -0.012247826087, -0.012247826087, 0, 0.00503378378378, 0.0165306122449, 0.0685714285714, 0, 0, 0, -0.00665070643642, -0.00940656084656, 0.0557936507937, 0, 0.339586094637, 0.0438912333624, -0.0268654358831, -0.0484590025359, 0.104598678646, 0, -0.012247826087, 0, 0.0207878787879, 0.014414286331, 0.0137806451613, 0.0360496646211, -0.117415786828, -0.00665070643642, 0, 0, 0.0109523809524, 0.0364953886693, -0.0546308450495, 0.0228571428571, 0.0727008349675, 0.0228571428571, 0.0195075098814, -0.0095547309833, -0.012247826087, 0, 0.0228571428571, -0.0824700061843, 0.0300596337663, 0.03, -0.0169878787879, 0.205361519733, 0, 0.0873140290281, 0.0523486149267, 0.120365790468, 0, 0.0300047138047, 0, 0.384557297189, -0.0498317941318, 0.00457333970377, -0.0328439153439, -0.00665070643642, 0.0582420064408, 0.0228571428571, 0.0557936507937, 0.00681727503411, 0.0724210622711, 0, 0.0413531562833, 0.03, 0.00681727503411, -0.0255294117647, 0, 0.043641025641, 0.043641025641, 0.0677738554881, -0.00170666666667, 0.236206306905, -0.0328439153439, 0.0653506427461, -0.106666666667, 0, 0, -0.0095547309833, 0.494693711499, 0.00683009871876, 0.0124337837838, 0, 0.0228571428571, 0, 0.0228571428571, 0.0301472527473, 0.03, 0, -0.012247826087, -0.0498317941318, -0.00992999980336, 0.0213329673332, 0.0301881746032, -0.012247826087, -0.00665070643642, 0.524184635193, 0, -0.0484590025359, 0.0192638825025, -0.00822570386328, -0.00763187429854, -0.0378973002704, 0.0189456907151, -0.00763187429854, -0.00503378378378, -0.0126623949243, 0, -0.0186376253211, -0.00835007849294, 0, 0, 0.00958695652174, -0.00519230769231, 0.00958695652174, -0.0172698412698, -0.222322799887, -0.0134175824176, 0, 0, -0.0315754935961, 0.0136363636364, 0.0136363636364, -0.108231955781, 0.0136363636364, -0.00763187429854, -0.0225568228405, -0.000712457912458, -0.130845650287, 0, -0.00293378378378, 0, -0.00293378378378, 0.00199404761905, -0.0014493288278, 0.00342349206349, -0.0180952380952, 0, -0.0338904086614, 0.0138543599258, -0.0268301633074, 0, 0.0126, 0.0171057239057, 0, 0.0136363636364, 0.0021, -0.0126516657945, 0, 0, 0.00591977794462, -0.0134175824176, 0.00367878787879, 0, 0.0173937082166, -0.00426923076923, -0.004369566247, 0, 0.0136363636364, 0, -0.034014783291, -0.0254156785244, 0.00541753968254, 0, -0.0180952380952, 0, 0.0138543599258, -0.00519230769231, 0.0136363636364, 0.00578850845174, -0.00350490196078, -0.0401734687082, -0.02375, -0.0387059259259, -0.0437944664032, 0, 0, -0.0180952380952, -0.0178547026166, -0.0437944664032, -0.0169309903347, 0.0021, 0, -0.0289170467676, 0, -0.0758803233923, 0.00199404761905, -0.00591085920223, -0.0180952380952, -0.02217263351, 0.0272448979592, -0.107574231409, 0.00367878787879, 0, 0, -0.0465838376183, 0.00199404761905, 0, -0.0036474674567, 0, 0, -0.0437944664032, 0.0136363636364, 0.00541753968254, 0.0898184674716, 0, 0.0227420522335, -0.0173214285714, 0, 0.0136363636364, -0.00842151675485, -0.0952513227513, 0.00958695652174, 0.00958695652174, 0, 0.00756621621622, 0.00642857142857, 0.0308571428571, 0, 0, 0, -0.00426923076923, -0.0214360846561, -0.0952513227513, 0, -0.124802855081, -0.0520710236089, 0.00479370821659, -0.00835007849294, -0.0540810840542, 0, 0.00958695652174, 0, -0.0178181818182, 0.0812554883388, 0.0045935483871, -0.00943318586176, 0.0109508418752, -0.00426923076923, 0, 0, 0.0820952380952, -0.0437944664032, 0.0125304372019, -0.0180952380952, 0.00744656654542, -0.0180952380952, -0.0275156785244, 0.0138543599258, 0.00958695652174, 0, -0.0180952380952, -0.0347631416203, 0.0088916459105, 0.0136363636364, 0.00367878787879, -0.145622954784, 0, -0.0679885373004, 0.00273501888736, -0.0468274334361, 0, 0.0207845117845, 0, -0.109066569178, -0.00474272887606, -0.00519230769231, -0.00842151675485, -0.00426923076923, -0.0169309903347, -0.0180952380952, -0.0952513227513, -0.0465838376183, -0.056508974359, 0, -0.0266454831808, 0.0136363636364, -0.0465838376183, -0.00123529411765, 0, -0.0134175824176, -0.0134175824176, 0.00642857142857, 0.00342349206349, -0.180964812757, -0.00842151675485, -0.0219064894115, -0.0133333333333, 0, 0, 0.0138543599258, -0.152642254363, 0.0223586558719, -0.00293378378378, 0, -0.0180952380952, 0, -0.0180952380952, -0.00309230769231, 0.0136363636364, 0, 0.00958695652174, -0.00474272887606, -0.0118309904757, -0.0116892706169, 0.00541753968254, 0.00958695652174, -0.00426923076923, -0.3045846915, 0, -0.00835007849294, 0.0194248720881, 0.00157717638954, -0.00258136924804, -0.0522445796935, -0.0736102500874, -0.00258136924804, -0.0352364864865, -0.0530222290937, 0, -0.185222834337, 0.0123466972588, 0, 0, 0.0240652173913, 0.0192857142857, 0.0240652173913, -0.00971428571429, -0.510548288571, 0.00921611721612, 0, 0, -0.134475228536, 0.0190909090909, 0.0190909090909, -0.319591844433, 0.0190909090909, -0.00258136924804, -0.0895529530818, -0.0778875420875, -0.406995507924, 0, -0.0276364864865, 0, -0.0276364864865, 0.0136607142857, -0.00924750082827, 0.0142628571429, -0.0514285714286, 0, -0.0611602824295, -0.0142259327974, 0.0224297824726, 0, 0.0252, 0.0114154882155, 0, 0.0190909090909, 0.0076, -0.0319707630587, 0, 0, 0.00438472914249, 0.00921611721612, -0.00535151515152, 0, 0.0317207875254, 0.00357221350078, -0.0879900359745, 0, 0.0190909090909, 0, -0.0503907615602, -0.0577074220466, 0.0279235714286, 0, -0.0514285714286, 0, -0.0142259327974, 0.0192857142857, 0.0190909090909, -0.0528116247628, 0.0157720588235, -0.0980659979476, -0.0678571428571, -0.14837047619, -0.085155906895, 0, 0, -0.0514285714286, -0.0337365148079, -0.085155906895, -0.087289682712, 0.0076, 0, -0.0444839445357, 0, -0.122891871058, 0.0136607142857, -0.172615050414, -0.0514285714286, 0.00574360789058, 0.0107142857143, -0.248084417613, -0.00535151515152, 0, 0, -0.150243341761, 0.0136607142857, 0, 0.00709552553258, 0, 0, -0.085155906895, 0.0190909090909, 0.0279235714286, -0.0877524065955, 0, 0.0402597814884, -0.0507142857143, 0, 0.0190909090909, 0.0126322751323, -0.199047619048, 0.0240652173913, 0.0240652173913, 0, -0.0100364864865, 0.0171428571429, 0.0342857142857, 0, 0, 0, 0.00357221350078, -0.138656190476, -0.199047619048, 0, -0.350178908267, -0.191591448204, 0.00652078752545, 0.0123466972588, -0.130138209037, 0, 0.0240652173913, 0, -0.089303030303, 0.0457400593234, 0.0229677419355, -0.0463687899402, 0.0566251936672, 0.00357221350078, 0, 0, -0.0915238095238, -0.085155906895, 0.0180462932137, -0.0514285714286, 0.0150296475768, -0.0514285714286, -0.0653074220466, -0.0142259327974, 0.0240652173913, 0, -0.0514285714286, 0.0343933209647, 0.0142455205926, 0.0190909090909, -0.00535151515152, -0.349344786571, 0, -0.0206481240224, -0.0130029475733, -0.0451551219657, 0, 0.00606397306397, 0, -0.207362943227, 0.00728075998076, -0.0352360248447, 0.0126322751323, 0.00357221350078, -0.087289682712, -0.0514285714286, -0.199047619048, -0.150243341761, -0.132888095238, 0, -0.120639538829, 0.0190909090909, -0.150243341761, -0.00329411764706, 0, 0.00921611721612, 0.00921611721612, 0.0171428571429, 0.0142628571429, -0.36658252227, 0.0126322751323, -0.141753355487, 0.0133333333333, 0, 0, -0.0142259327974, -0.264211823815, -0.00608422918536, -0.0276364864865, 0, -0.0514285714286, 0, -0.0514285714286, 0.0268857142857, 0.0190909090909, 0, 0.0240652173913, 0.00728075998076, 0.0476986285818, -0.0460874582691, 0.0279235714286, 0.0240652173913, 0.00357221350078, -0.740646353688, 0, 0.0123466972588, -0.0337207156718, 0.0278335949765, 0, 0.127279569892, 0.277914987975, 0, 0, 0.0150529100529, 0, 0.165044801989, 0.0278335949765, 0, 0, 0, 0, 0, 0, 0.357918755034, 0.0243956043956, 0, 0, -0.0206743626744, 0.0272727272727, 0.0272727272727, 0.0913452380952, 0.0272727272727, 0, 0.311599297784, 0, 0.266927750821, 0, 0.00525, 0, 0.00525, 0, 0.0324387413828, 0, 0.01, 0, 0.069280846646, 0, 0.103627206127, 0, -0.063, 0, 0, 0.0272727272727, 0.00525, 0.0278335949765, 0, 0, 0.00460514640639, 0.0243956043956, 0, 0, -0.0579470899471, 0.0113265306122, 0, 0, 0.0272727272727, 0, 0.069280846646, -0.05775, 0, 0, 0.01, 0, 0, 0, 0.0272727272727, 0.00525, 0, 0.10612244898, 0, 0.144716190476, 0, 0, 0, 0.01, 0.0150529100529, 0, 0.039000750802, 0.00525, 0, 0.0186161284437, 0, -0.00600216811053, 0, 0.0953333333333, 0.01, 0.0320414746544, 0, 0.0773333333333, 0, 0, 0, 0, 0, 0, 0.0915491382302, 0, 0, 0, 0.0272727272727, 0, 0.107209336959, 0, 0, 0.0160714285714, 0, 0.0272727272727, 0.00505291005291, 0.0452380952381, 0, 0, 0, -0.063, 0.0160714285714, -0.171428571429, 0, 0, 0, 0.0113265306122, 0.144716190476, 0.0452380952381, 0, 0.252726627408, -0.00711114428356, 0.00505291005291, 0.0278335949765, 0.0642795698925, 0, 0, 0, 0, 0.054, 0.00861290322581, 0.01, 0.0568707482993, 0.0113265306122, 0, 0, 0, 0, 0.0619712417212, 0.01, 0, 0.01, -0.063, 0, 0, 0, 0.01, 0.0310649350649, 0, 0.0272727272727, 0, 0.266573516939, 0, 0.178481386107, 0, 0.0273979591837, 0, 0, 0, -0.0349766222278, 0.00505291005291, 0, 0.00505291005291, 0.0113265306122, 0.039000750802, 0.01, 0.0452380952381, 0, 0.123916666667, 0, -0.0123104309357, 0.0272727272727, 0, 0.0123529411765, 0, 0.0243956043956, 0.0243956043956, 0.0160714285714, 0, 0.278348901099, 0.00505291005291, 0.132606060606, 0, 0, 0, 0, 0.0166917094405, 0.0272727272727, 0.00525, 0, 0.01, 0, 0.01, 0.00525, 0.0272727272727, 0, 0, 0.00505291005291, 0.0324387413828, 0.0575430574131, 0, 0, 0.0113265306122, 0.373167254434, 0, 0.0278335949765, 0.0325227272727, 0.0556671899529, 0.0111111111111, 0.0344444444444, 0.0873952991068, 0.0111111111111, 0.0201351351351, 0.00505291005291, 0, 0.218486706356, 0.0556671899529, 0, 0, 0.00422608695652, 0, 0.00422608695652, 0.0226666666667, 0.11939060752, 0.0162637362637, 0, 0, 0.025188045188, 0, 0, 0.0490686830498, 0, 0.0111111111111, -0.161159400572, 0, 0.144894603161, 0, 0.0201351351351, 0, 0.0201351351351, 0.005, 0.113946165815, 0, 0, 0, 0.0759885938768, 0, 0.0357807284923, 0, 0, 0, 0, 0, 0, 0.0556671899529, 0, 0, 0.00921029281278, 0.0162637362637, 0, 0, 0.0294141321446, 0.0226530612245, -0.0267679182574, 0, 0, 0, 0.0759885938768, 0, 0.005, 0, 0, 0, 0, 0, 0, 0.0396521273637, -0.0420588235294, 0, 0, 0.0628253968254, 0, 0, 0, 0, 0.00505291005291, 0, 0.0254740290765, 0, 0.0512432432432, 0.0140950556468, 0, -0.0257950872657, 0.005, 0.0182038181849, 0, 0.00922608695652, 0, 0.0496757223873, 0, 0, 0, 0.0276666666667, 0.005, 0, 0.0162637362637, 0, 0, 0, 0, 0.005, 0.153481858193, 0, 0, 0, 0, 0, 0.00505291005291, 0.0301587301587, 0.00422608695652, 0.00422608695652, 0, 0.0201351351351, 0, 0, 0, 0, 0, 0.0226530612245, 0.0401587301587, 0.0301587301587, 0, 0.0143636428931, 0.0342301907819, 0.0294141321446, 0.0556671899529, 0.0545795795796, 0, 0.00422608695652, 0, 0, 0.0561111111111, 0, 0, -0.227482993197, 0.0226530612245, 0, 0, 0, 0, 0.0456778684083, 0, 0.0111111111111, 0, 0, 0, 0.00422608695652, 0, 0, 0, 0.029021021021, 0, 0, 0.119265772154, 0, 0.139435989036, 0, 0.0738963044677, 0, 0, 0, -0.0378327365729, 0.00505291005291, 0, 0.00505291005291, 0.0226530612245, 0.0254740290765, 0, 0.0301587301587, 0.0276666666667, 0.0233333333333, 0, -0.00536571552229, 0, 0.0276666666667, 0, 0, 0.0162637362637, 0.0162637362637, 0.0512432432432, 0, 0.144894603161, 0.00505291005291, -0.0081981981982, 0, 0, 0, 0, -0.0215690003092, 0.0195169922285, 0.0201351351351, 0, 0, 0, 0, 0, 0, 0, 0.00422608695652, 0.00505291005291, 0.0759885938768, -0.0425509007075, 0.005, 0.00422608695652, 0.0226530612245, 0.234125914255, 0, 0.0556671899529, 0.0396521273637, -0.084685444851, 0.0222222222222, -0.0497777777778, -0.0961272703376, 0.0222222222222, 0.0201351351351, 0.0150529100529, 0, 0.134354730902, 0.0556671899529, 0, 0, 0.00422608695652, 0, 0.00422608695652, 0.0226666666667, 0.0880817453852, 0.0189743589744, 0, 0, 0.041188045188, 0, 0, -0.0840931360339, 0, 0.0222222222222, 0.182173552003, 0.0277575757576, -0.013425946081, 0, -0.0358648648649, 0, -0.0358648648649, 0.005, 0.138523943593, 0.0048, 0.01, 0, -0.00555819297391, 0, -0.104872488083, 0, 0, 0.00866666666667, 0, 0, -0.056, 0.0706671899529, 0, 0, 0.00921029281278, 0.0189743589744, 0.006, 0, 0.0294141321446, 0.0226530612245, 0.0879865574459, 0, 0, 0, 0.13479444183, -0.05, 0.0098, 0, 0.01, 0, 0, 0, 0, -0.0163478726363, 0, 0.0618051948052, 0, 0.0226666666667, 0, 0, 0, 0.01, 0.0150529100529, 0, 0.110880303961, -0.056, -0.119567567568, 0.0140950556468, 0, 0.0435833815307, 0.005, 0.0534772481366, 0.01, 0.0404658628669, 0, -0.088661661872, 0.006, 0, 0, 0.0276666666667, 0.005, 0, -0.108409029184, 0, 0, 0, 0, 0.0098, 0.0268815550713, 0, 0, 0, 0, 0, 0.00505291005291, 0.0351851851852, 0.00422608695652, 0.00422608695652, 0, 0.0201351351351, 0, 0, 0, 0, 0, 0.0226530612245, 0, 0.0351851851852, 0, -0.101694743469, 0.0502301907819, 0.0294141321446, 0.0556671899529, -0.0296426426426, 0, 0.00422608695652, 0, 0.0190909090909, 0.103222222222, 0, 0.01, 0.123466986795, 0.0226530612245, 0, 0, 0, 0, 0.0650841432928, 0.01, 0.0308888888889, 0.01, 0.006, 0, 0.00422608695652, 0, 0.01, 0, -0.0736786786787, 0, 0.006, 0.209261925776, 0, 0.201333412081, -0.150078125, -0.0969145063431, 0, 0.0146666666667, 0, 0.0939260186038, 0.0110529100529, 0.0726956521739, 0.00505291005291, 0.0226530612245, 0.110880303961, 0.01, 0.0351851851852, 0.0276666666667, -0.128, 0, 0.136449451124, 0, 0.0276666666667, 0.00617647058824, 0, 0.0189743589744, 0.0189743589744, -0.119567567568, 0.0048, -0.013425946081, 0.00505291005291, 0.0184974539757, 0, 0, 0, 0, 0.112900377578, 0.0195169922285, -0.0358648648649, 0, 0.01, 0, 0.01, -0.056, 0, 0, 0.00422608695652, 0.0110529100529, 0.0918997049879, 0.180197599272, 0.0098, 0.00422608695652, 0.0226530612245, 0.0287494719353, 0, 0.0556671899529, -0.0163478726363, -0.185557299843, 0.0222222222222, 0.0222222222222, -0.23808994709, 0.0222222222222, 0, 0.0139706589707, 0, 0.0505205460516, -0.185557299843, 0, 0, 0, 0, 0, -0.136, -0.0849534561367, 0.0189743589744, 0, 0, 0.0349706589707, 0, 0, -0.0804642341785, 0, 0.0222222222222, 0.0782028653886, 0, -0.236021534022, 0, 0.014, 0, 0.014, 0.0075, -0.255379453948, 0.0096, 0, 0, -0.114524784808, 0.00891774891775, -0.0881684981685, 0, 0.021, 0, 0, 0, 0.014, -0.155557299843, 0, 0, 0.00921029281278, 0.0189743589744, 0, 0, 0.0349706589707, 0.0226530612245, 0, 0, 0, 0, -0.114524784808, 0.035, 0.0171, 0, 0, 0, 0.00891774891775, 0, 0, 0.014, 0, 0.0162275819419, 0, -0.136, 0, 0, 0, 0, 0.0139706589707, 0, 0.0371024007049, 0.014, 0, 0.0140950556468, 0, 0.0382879025736, 0.0075, 0.147549804164, 0, 0.0333275819419, 0, 0.0351851851852, 0, 0, 0, -0.0840411255411, 0.0075, 0, -0.0785684981685, 0, 0, 0, 0, 0.0171, 0.165834676435, 0, 0.0793177489177, -0.107142857143, 0, 0, 0.00505291005291, 0.0351851851852, 0, 0, 0, 0.021, -0.107142857143, 0, 0, 0, 0, 0.0226530612245, 0, 0.0351851851852, 0, -0.0592549545692, 0.0440128045645, 0.0139706589707, -0.185557299843, 0.0432222222222, 0, 0, 0, 0, 0.0222222222222, 0, 0.00891774891775, 0, 0.0226530612245, 0, 0, 0.054, 0, 0.108427269027, 0, 0.0222222222222, 0, 0.021, 0.00891774891775, 0, 0, 0, 0, 0.122622222222, 0, 0, 0.0177330002641, 0, -0.336047952117, 0, -0.0844897959184, 0, 0, 0, 0.0355411255411, 0.00505291005291, 0, 0.00505291005291, 0.0226530612245, 0.0371024007049, 0, 0.0351851851852, -0.0840411255411, 0.014, 0, 0.0879031740057, 0, -0.0840411255411, 0, 0, 0.0189743589744, 0.0189743589744, -0.107142857143, 0.0096, -0.236021534022, 0.00505291005291, 0.0779, 0, 0, 0, 0.00891774891775, 0.0545154845155, 0, 0.014, 0, 0, 0, 0, 0.014, 0, 0, 0, 0.00505291005291, -0.144524784808, 0.0153183000561, 0.0171, 0, 0.0226530612245, 0.0580465438633, 0, -0.185557299843, 0.014, 0, -0.0777777777778, -0.069164874552, 0.0233769416189, -0.0777777777778, 0, 0.0209980759981, 0, -0.0625842894436, 0, 0, 0, -0.056347826087, 0, -0.056347826087, 0.034, -0.123262153913, 0.0189743589744, 0, 0, 0.0299980759981, 0, 0, 0.035075898057, 0, -0.0777777777778, -0.250570152711, 0.0555151515152, 0.035075898057, 0, 0, 0, 0, 0.0075, -0.0550842894436, -0.0672, 0.01, 0, -0.277872748123, 0.00594516594517, 0.00329839054036, 0, 0, 0.0173333333333, 0, 0, 0, 0, 0, 0, 0.00921029281278, 0.0189743589744, 0.009, 0, -0.0453497500889, -0.128367346939, 0.015290905272, 0, 0, 0, -0.277872748123, 0.009, -0.0597, 0, 0.01, 0, 0.00594516594517, 0, 0, -0.041056920815, 0, 0.053009894867, 0, 0.034, 0, 0, 0, 0.01, 0.0209980759981, 0, 0.0441298177323, 0, 0, 0.0140950556468, 0, -0.126416618469, 0.0075, -0.0538826053444, 0.01, -0.0826068461759, 0, 0.0195092167512, 0.009, 0, 0, 0.0555589569161, 0.0075, 0, -0.200330904184, 0, 0, 0, 0, -0.0597, -0.0422889110469, 0, 0.00594516594517, 0, 0, 0, 0.00505291005291, 0.0351851851852, -0.056347826087, -0.056347826087, 0, 0, 0, 0, 0, 0, 0, -0.128367346939, 0, 0.0351851851852, 0, -0.193616618469, 0.0390402215919, -0.0453497500889, 0, -0.069164874552, 0, -0.056347826087, 0, 0.0381818181818, -0.280277777778, 0.00861290322581, 0.0159451659452, 0, -0.128367346939, 0, 0, 0, 0, -0.0323205570597, 0.01, -0.0604444444444, 0.01, 0.009, 0.00594516594517, -0.056347826087, 0, 0.01, 0, -0.0604444444444, 0, 0.009, -0.141586185479, 0, -0.220348734, 0, -0.128367346939, 0, 0.0263333333333, 0, -0.145443194378, 0.0140529100529, 0, 0.00505291005291, -0.128367346939, 0.0441298177323, 0.01, 0.0351851851852, 0.0555589569161, 0, 0, -0.0592355734794, 0, 0.0555589569161, 0.00617647058824, 0, 0.0189743589744, 0.0189743589744, 0, -0.0672, 0.035075898057, 0.00505291005291, 0.0265, 0.133333333333, 0, 0, 0.00594516594517, -0.126468835403, -0.041056920815, 0, 0, 0.01, 0, 0.01, 0, 0, 0, -0.056347826087, 0.0140529100529, -0.135767484965, -0.117822670254, -0.0597, -0.056347826087, -0.128367346939, -0.126752349992, 0, 0, -0.041056920815, 0.0396473651961, 0, 0.00807692307692, 0.149936698817, 0, 0, 0.00505291005291, 0, 0.000594441691174, 0, 0, 0, 0.0169043478261, 0.00807692307692, 0.0169043478261, 0.0226666666667, -0.111326318066, -0.195164835165, 0, 0, 0.114539076061, 0, 0, 0.121824679033, 0, 0, 0.0593067610991, 0, 0.125234935443, 0, 0.00525, 0, 0.00525, 0.005, 0.0282611083578, 0.0096, 0, 0, 0.0259223361878, 0, -0.0729477130679, 0, 0, 0, 0, 0, 0.00525, 0.03, 0, 0, -0.0614019520852, -0.195164835165, 0, 0, 0.0300341809559, 0, 0.0393194706994, 0, 0, 0, -0.0137250290083, 0.114736166008, 0.0146, 0, 0, 0, 0, 0.00807692307692, 0, 0.0614738185255, 0, 0.01, 0.0221666666667, 0.0226666666667, 0.109486166008, 0, 0, 0, 0.0131298331298, 0.109486166008, -0.248489864173, 0.00525, 0, 0.0186161284437, 0, -0.195164835165, 0.005, 0.0573677465615, 0, 0.0593067610991, 0.03, 0.0761456935255, 0, 0, 0, 0.0591149425287, 0.005, 0, -0.139571531593, 0, 0, 0.109486166008, 0, 0.0146, -0.287547690256, 0, 0.00807692307692, 0.0382380952381, 0, 0, 0.00505291005291, 0, 0.0169043478261, 0.0169043478261, 0, 0, 0.0160714285714, 0, 0, 0, 0, 0, 0, 0, 0, -0.117404864927, 0.128102294452, 0.0300341809559, 0, 0.0302435897436, 0, 0.0169043478261, 0, 0, 0.045, 0, 0.00807692307692, 0.00972549019608, 0, 0, 0, 0.054, 0.109486166008, -0.167957577286, 0, 0.00344827586207, 0, 0.109486166008, 0, 0.0169043478261, 0, 0, 0, 0.0334482758621, 0, 0, -0.215388678258, 0, -0.125479674547, 0.029921875, 0.133634517656, 0, 0, 0, -0.0530956521739, 0.00505291005291, 0.00807692307692, 0.00505291005291, 0, -0.248489864173, 0, 0, 0.0591149425287, 0.0354935897436, 0, 0.0313754656283, 0, 0.0591149425287, 0, 0, -0.195164835165, -0.195164835165, 0.0160714285714, 0.0096, -0.166431731224, 0.00505291005291, 0.005, 0, 0, 0, 0, -0.138774321331, 0.0562238185255, 0.00525, 0, 0, 0, 0, 0.0133269230769, 0, 0, 0.0169043478261, 0.00505291005291, -0.0437250290083, 0.0409754656283, 0.0146, 0.0169043478261, 0, -0.253781328529, 0, 0, 0.0614738185255, 0, 0, 0, 0, 0, 0, 0, 0, 0, 0, 0, 0, 0, 0, 0, 0, 0, 0, 0, 0, 0, 0, 0, 0, 0, 0, 0, 0, 0, 0, 0, 0, 0, 0, 0, 0, 0, 0, 0, 0, 0, 0, 0, 0, 0, 0, 0, 0, 0, 0, 0, 0, 0, 0, 0, 0, 0, 0, 0, 0, 0, 0, 0, 0, 0, 0, 0, 0, 0, 0, 0, 0, 0, 0, 0, 0, 0, 0, 0, 0, 0, 0, 0, 0, 0, 0, 0, 0, 0, 0, 0, 0, 0, 0, 0, 0, 0, 0, 0, 0, 0, 0, 0, 0, 0, 0, 0, 0, 0, 0, 0, 0, 0, 0, 0, 0, 0, 0, 0, 0, 0, 0, 0, 0, 0, 0, 0, 0, 0, 0, 0, 0, 0, 0, 0, 0, 0, 0, 0, 0, 0, 0, 0, 0, 0, 0, 0, 0, 0, 0, 0, 0, 0, 0, 0, 0, 0, 0, 0, 0, 0, 0, 0, 0, 0, 0, 0, 0, 0, 0, 0, 0, 0, 0, 0, 0, 0, 0, 0, 0, 0, 0, 0, 0, 0, 0, 0, 0, 0, 0, 0, 0, 0, 0, 0, 0, 0, 0, 0, 0, 0, 0, 0, 0, 0, 0, 0, 0, 0, 0, 0, 0, 0.0278335949765, 0, -0.072, 0.0811503126503, 0, 0, 0.0209980759981, 0, -0.139812753154, 0.0278335949765, 0, 0, 0, 0, 0, 0, -0.461776914376, -0.195164835165, 0, 0, -0.0880928330928, -0.109090909091, -0.109090909091, -0.158694341373, -0.109090909091, 0, -0.334922077922, 0, -0.239951655487, 0, 0.00525, 0, 0.00525, 0, 0.0546114892699, 0, 0.01, 0, 0.069280846646, 0.00594516594517, -0.119067432567, 0, 0, 0, 0, -0.109090909091, 0.00525, 0.0278335949765, 0, 0, 0.00460514640639, -0.195164835165, 0, 0, 0.0109980759981, 0.0113265306122, 0, 0, -0.109090909091, 0, 0.069280846646, 0.00525, 0, 0, 0.01, 0, 0.00594516594517, 0, -0.109090909091, 0.00525, 0, -0.341119356834, 0, 0, 0, 0, 0, 0.01, 0.0209980759981, 0, -0.174614522813, 0.00525, 0, 0.0186161284437, 0, -0.225357980365, 0, -0.0791057513915, 0.01, 0.0396561533704, 0, 0.0134285714286, 0, 0, 0, 0.0607998350855, 0, 0, -0.15225130133, 0, 0, 0, -0.109090909091, 0, -0.293952834203, 0, 0.00594516594517, 0.0160714285714, 0, -0.109090909091, 0.00505291005291, 0, 0, 0, 0, 0, 0.0160714285714, 0, 0, 0, 0, 0.0113265306122, 0, 0, 0, -0.209286551794, -0.074529614702, 0.0109980759981, 0.0278335949765, -0.072, 0, 0, 0, 0, -0.216, 0, 0.0159451659452, 0.0568707482993, 0.0113265306122, 0, 0, 0, 0, -0.293952834203, 0.01, 0, 0.01, 0, 0.00594516594517, 0, 0, 0.01, 0.0465974025974, 0, -0.109090909091, 0, -0.303082573003, 0, -0.0276138380344, 0, 0.0273979591837, 0, 0, 0, -0.345650164372, 0.00505291005291, 0, 0.00505291005291, 0.0113265306122, -0.174614522813, 0.01, 0, 0.0607998350855, -0.06675, 0, 0.0566347350095, -0.109090909091, 0.0607998350855, 0.0123529411765, 0, -0.195164835165, -0.195164835165, 0.0160714285714, 0, -0.285636256601, 0.00505291005291, -0.194424242424, 0, 0, 0, 0.00594516594517, -0.649905908628, -0.109090909091, 0.00525, 0, 0.01, 0, 0.01, 0.00525, -0.109090909091, 0, 0, 0.00505291005291, 0.0324387413828, 0.0767828831577, 0, 0, 0.0113265306122, -0.58086615007, 0, 0.0278335949765, -0.103840909091, 0, -0.0777777777778, -0.0458315412186, 0.0799433952451, -0.0777777777778, 0.0201351351351, 0.0139706589707, 0, -0.000513126502108, 0, 0, 0, 0.0169043478261, 0, 0.0169043478261, 0, -0.0011613941278, 0.0189743589744, 0, 0, 0.164591960114, 0, 0, 0.0188354467868, 0, -0.0777777777778, -0.0876996114507, 0, 0.0188354467868, 0, 0.0201351351351, 0, 0.0201351351351, -0.075, -0.0747149283039, 0, 0, 0, -0.139179729863, 0.00891774891775, 0.0938648441665, 0, 0.021, 0, 0, 0, 0, 0, 0, 0, -0.0614019520852, 0.0189743589744, 0, 0, 0.0720101419319, 0, -0.00273935282998, 0, 0, 0, -0.139179729863, 0.130486166008, -0.075, 0, 0, 0, 0.00891774891775, 0, 0, 0.0763589536607, -0.0420588235294, 0.0162275819419, 0, 0, 0.109486166008, 0, 0, 0, 0.0139706589707, 0.109486166008, -0.0335098441931, 0, -0.119567567568, 0.0140950556468, 0, 0.0155426226435, -0.075, -0.0184289233347, 0, -0.0332551670062, 0, 0.110075670377, 0, 0, 0, -0.0112275819419, -0.075, 0, 0.0189743589744, 0, 0, 0.109486166008, 0, -0.075, -0.161808720081, 0, 0.0793177489177, 0, 0, 0, 0.00505291005291, 0.0351851851852, 0.0169043478261, 0.0169043478261, 0, 0.0411351351351, 0, 0, 0, 0, 0, 0, 0, 0.0351851851852, 0, 0.0155426226435, 0.173634105708, 0.0510101419319, 0, -0.0046964060835, 0, 0.0169043478261, 0, 0, -0.0777777777778, 0.00861290322581, 0.00891774891775, 0, 0, 0, 0, 0, 0.109486166008, 0.131466751988, 0, -0.0777777777778, 0, 0.130486166008, 0.00891774891775, 0.0169043478261, 0, 0, 0, -0.160278678679, 0, 0, -0.0726201429891, 0, -0.113836221503, 0, -0.0100814015597, 0, 0, 0, 0.0297001934371, 0.00505291005291, 0, 0.00505291005291, 0, -0.0335098441931, 0, 0.0351851851852, -0.0112275819419, 0.0233333333333, 0, -0.178242274094, 0, -0.0112275819419, 0, 0, 0.0189743589744, 0.0189743589744, -0.119567567568, 0, 0.0188354467868, 0.00505291005291, -0.0177981981982, 0, 0, 0, 0.00891774891775, 0.158160718419, 0.0562238185255, 0.0201351351351, 0, 0, 0, 0, 0, 0, 0, 0.0169043478261, 0.00505291005291, -0.139179729863, -0.288999430003, -0.075, 0.0169043478261, 0, 0.106423870979, 0, 0, 0.0763589536607, 0.0296473651961, 0.0222222222222, 0.140888888889, -0.0638440405239, 0.0222222222222, 0.0201351351351, 0.0150529100529, 0, 0.416426279688, 0, 0, 0, -0.056347826087, 0, -0.056347826087, 0.0226666666667, 0.224264884813, 0.0189743589744, 0, 0, 0.044188045188, 0, 0, 0.138997773057, 0, 0.0222222222222, 0.0305953099553, 0.0555151515152, 0.153997773057, 0, 0.0341351351351, 0, 0.0341351351351, 0.005, 0.091523420307, 0.0048, 0.01, 0, -0.0612253829268, 0, -0.0725892582692, 0, 0, 0.0173333333333, 0, 0, 0.014, 0.015, 0, 0, 0.00921029281278, 0.0189743589744, 0.009, 0, -0.0311597808989, -0.128367346939, 0.0879865574459, 0, 0, 0, -0.0908727481229, 0.023, 0.0098, 0, 0.01, 0, 0, 0, 0, -0.00692178567982, 0, 0.0448961038961, 0, 0.0226666666667, 0, 0, 0, 0.01, 0.0150529100529, 0, 0.110880303961, 0.014, 0.0512432432432, 0.0140950556468, 0, -0.126416618469, 0.005, 0.0385248671842, 0.01, -0.0201080501766, 0.03, 0.0207644250845, 0.009, 0, 0, 0.0276666666667, 0.005, 0, -0.215551886326, 0, 0, 0, 0, 0.0098, 0.215785119505, 0, 0, -0.107142857143, 0, 0, 0.00505291005291, 0.0351851851852, -0.056347826087, -0.056347826087, 0, 0.0201351351351, -0.107142857143, 0, 0, 0, 0, -0.128367346939, 0, 0.0351851851852, 0, -0.208837600612, 0.0532301907819, -0.0311597808989, 0, 0.161024024024, 0, -0.056347826087, 0, 0.0381818181818, 0.0672222222222, 0, 0.01, 0.00972549019608, -0.128367346939, 0, 0, 0, 0, 0.0745102302494, 0.01, 0.0395555555556, 0.01, 0.009, 0, -0.056347826087, 0, 0.01, 0, 0.105798798799, 0, 0.009, 0.202018978247, 0, -0.183383881392, 0.019921875, -0.184266960838, 0, 0.0263333333333, 0, -0.153556985349, 0.0140529100529, 0.0726956521739, 0.00505291005291, -0.128367346939, 0.110880303961, 0.01, 0.0351851851852, 0.0276666666667, 0.132666666667, 0, 0.148875538081, 0, 0.0276666666667, 0.00617647058824, 0, 0.0189743589744, 0.0189743589744, -0.0558996138996, 0.0048, 0.153997773057, 0.00505291005291, 0.212164120642, 0, 0, 0, 0, -0.134582626374, -0.041056920815, 0.0341351351351, 0, 0.01, 0, 0.01, 0.014, 0, 0, -0.056347826087, 0.0140529100529, 0.036232515035, 0.192623686229, 0.0098, -0.056347826087, -0.128367346939, 0.338743422174, 0, 0, -0.00692178567982, -0.175557299843, 0.0222222222222, -0.040364874552, 0.0390529100529, 0.0222222222222, 0, 0.00505291005291, 0, -0.137024784808, -0.185557299843, 0, 0, 0, 0, 0, 0.034, -0.0863640547335, 0.0189743589744, 0, 0, 0.00505291005291, 0, 0, 0.000222222222222, 0, 0.0222222222222, 0.00938818667252, 0, -0.155335077621, 0, -0.056, 0, -0.056, 0.0075, -0.100524784808, 0.0096, 0, 0, -0.104524784808, 0, 0.0189743589744, 0, 0, 0, 0, 0, -0.056, -0.155557299843, 0, 0, 0.00921029281278, 0.0189743589744, 0, 0, 0.00505291005291, 0.0226530612245, 0, 0, 0, 0, -0.114524784808, -0.056, 0.0171, 0, 0, 0, 0, 0, 0, -0.056, 0, 0.01, 0, 0.034, 0, 0, 0, 0, 0.00505291005291, 0, 0.0281846517871, -0.056, 0, 0.0140950556468, 0, 0.0189743589744, 0.0075, 0.0427704980843, 0, -0.0354870967742, 0, 0.0351851851852, 0, 0, 0, 0.0684482758621, 0.0075, 0, 0.0385743589744, 0, 0, 0, 0, 0.0171, 0.0288829522967, 0, 0, 0, 0, 0, 0.00505291005291, 0.0351851851852, 0, 0, 0, 0, 0, 0, 0, 0, 0, 0.0226530612245, 0, 0.0351851851852, 0, 0.0385743589744, 0.0140950556468, 0.00505291005291, -0.185557299843, -0.040364874552, 0, 0, 0, 0, -0.180277777778, -0.0625870967742, 0, 0, 0.0226530612245, 0, 0, 0.054, 0, -0.0319727309727, 0, 0.0256704980843, 0, 0, 0, 0, 0, 0, 0, 0.0556704980843, 0, 0, -0.0643640547335, 0, -0.0706021499716, 0.01, 0.0226530612245, 0, 0, 0, 0.01, 0.00505291005291, 0, 0.00505291005291, 0.0226530612245, 0.0281846517871, 0, 0.0351851851852, 0.0684482758621, -0.056, 0, -0.00856629905002, 0, 0.0684482758621, 0, 0, 0.0189743589744, 0.0189743589744, 0, 0.0096, -0.155335077621, 0.00505291005291, 0.0075, 0, 0, 0, 0, 0.0289743589744, 0, -0.056, 0, 0, 0, 0, -0.056, 0, 0, 0, 0.00505291005291, -0.144524784808, -0.0615533958242, 0.0171, 0, 0.0226530612245, -0.0563640547335, 0, -0.185557299843, -0.056, 0.0606671899529, 0.0111111111111, 0.0111111111111, -0.0645570818456, 0.0111111111111, 0, 0.0150529100529, 0, -0.0650871675179, 0.0556671899529, 0, 0, 0.00422608695652, 0, 0.00422608695652, -0.136, -0.0840525435985, 0.0162637362637, 0, 0, -0.0419470899471, 0, 0, -0.0668836979026, 0, 0.0111111111111, 0.149746041605, -0.112666666667, 0.028942222209, 0, 0, 0, 0, 0.0075, -0.219587167518, -0.0672, 0.01, 0, 0.0416833307189, 0, 0.0424950142065, 0, -0.063, -0.112666666667, 0, 0, 0, 0.0556671899529, 0, 0, 0.00921029281278, 0.0162637362637, 0.006, 0, -0.0537210029906, 0.0226530612245, 0.015290905272, 0, 0, 0, 0.0366833307189, -0.057, -0.0597, 0, 0.01, 0, 0, 0, 0, 0.0195169922285, 0, 0.0477142857143, 0, -0.0958412698413, 0, 0, 0, 0.01, 0.0150529100529, 0, 0.0354740290765, 0, 0, 0.0140950556468, 0, -0.0570684176505, 0.0075, -0.144240512353, 0.01, -0.0337596273292, 0, 0.0563900081015, 0.006, 0, 0, -0.108275862069, 0.0075, 0, -0.0280415268942, 0, 0, 0, 0, -0.0597, -0.0288390489206, 0, 0, 0, 0, 0, 0.00505291005291, 0.0301587301587, 0.00422608695652, 0.00422608695652, 0, -0.063, 0, 0, 0, 0, 0, 0.0226530612245, 0.0401587301587, 0.0301587301587, 0, 0.0188314889789, -0.0329049443532, 0.00927899700943, 0.0556671899529, -0.0518888888889, 0, 0.00422608695652, 0, 0, 0.0471111111111, 0, 0.01, 0.113741496599, 0.0226530612245, 0, 0, 0, 0, 0.0255427332732, 0.01, -0.0998314176245, 0.01, -0.057, 0, 0.00422608695652, 0, 0.01, 0, -0.0998314176245, 0, 0.006, -0.0102838215414, 0, -0.15526418381, 0.005, 0.0226530612245, 0, -0.106666666667, 0, -0.0181060669577, 0.0110529100529, 0, 0.00505291005291, 0.0226530612245, 0.0354740290765, 0.01, 0.0301587301587, -0.108275862069, 0, 0, 0.0200062004389, 0, -0.108275862069, 0.00617647058824, 0, 0.0162637362637, 0.0162637362637, 0, -0.0672, 0.028942222209, 0.00505291005291, 0.0235, 0, 0, 0, 0, -0.00184233069394, 0.0195169922285, 0, 0, 0.01, 0, 0.01, 0, 0, 0, 0.00422608695652, 0.0110529100529, 0.00878859387679, -0.00610136258633, -0.0597, 0.00422608695652, 0.0226530612245, -0.192658519322, 0, 0.0556671899529, 0.0195169922285, 0, 0, -0.0258129032258, 0.203237728368, 0, 0, -0.0560293410293, 0, -0.0793977989844, 0, 0, 0, 0.00657391304348, 0, 0.00657391304348, 0, -0.478395779656, 0.0243956043956, 0, 0, -0.122618273836, 0, 0, -0.240300931463, 0, 0, -0.132040474412, 0, -0.240300931463, 0, 0, 0, 0, 0, 0.0485500271026, 0, -0.07, 0, -0.07, 0.00891774891775, 0.00311756556823, 0, 0.021, 0, 0, 0, 0, 0, 0, 0, 0, 0.0243956043956, 0, 0, 0.0415445720141, 0, -0.021056920815, 0, 0, 0, -0.07, -0.0665889328063, 0, 0, -0.07, 0, 0.00891774891775, 0, 0, 0.0218648183155, 0, -0.0428014842301, 0, 0.07272, -0.0875889328063, 0, 0, -0.07, -0.0560293410293, -0.0875889328063, -0.0730344727736, 0, 0, 0.0186161284437, 0, -0.255196232339, 0, -0.0887155479022, -0.07, -0.0970404744124, 0, -0.292706610256, 0, 0, 0, -0.179189857761, 0, 0, 0.0971156043956, 0, 0, -0.0875889328063, 0, 0, -0.0156282821428, 0, 0.0793177489177, 0, 0, 0, 0.00505291005291, -0.271428571429, 0.00657391304348, 0.00657391304348, 0, 0.021, 0, 0, 0, 0, 0, 0, 0.07272, -0.271428571429, 0, -0.182476232339, -0.109055055445, 0.0205445720141, 0, -0.00481290322581, 0, 0.00657391304348, 0, 0, 0, 0.00918709677419, -0.0610822510823, 0, 0, 0, 0, 0, -0.0875889328063, 0.070074601405, -0.07, 0, -0.07, -0.0665889328063, 0.00891774891775, 0.00657391304348, 0, -0.07, 0, 0.0704, 0, 0, -0.244668761236, 0, 0.0150966873988, 0, -0.0875889328063, 0, 0, 0, -0.318676550778, 0.00505291005291, -0.036347826087, 0.00505291005291, 0, -0.0730344727736, -0.07, -0.271428571429, -0.179189857761, -0.035, 0, -0.116655205944, 0, -0.179189857761, 0, 0, 0.0243956043956, 0.0243956043956, 0, 0, -0.240300931463, 0.00505291005291, -0.035947826087, 0, 0, 0, 0.00891774891775, -0.381869879189, 0.0218648183155, 0, 0, -0.07, 0, -0.07, 0, 0, 0, 0.00657391304348, 0.00505291005291, 0, -0.0698681091695, 0, 0.00657391304348, 0, -0.695984712462, 0, 0, 0.0218648183155, 0.0595299946902, 0, 0.0195717121588, -0.0193426287745, 0, -0.0604054054054, 0.00505291005291, 0, -0.00367345230959, 0.0185557299843, 0, 0, 0.00657391304348, 0.0103846153846, 0.00657391304348, 0, 0.0984935584136, 0, 0, 0, -0.142941428159, 0, 0, 0.0936867386053, 0, 0, 0.0650344307245, 0, 0.105293750641, 0, -0.0499054054054, 0, -0.0499054054054, 0.009375, 0.0553714458494, 0, 0, 0, 0.0760548052833, 0, 0.145284461173, 0, 0, 0, 0, 0, 0.0105, 0.0185557299843, 0, 0, 0.00614019520852, 0, 0, 0, -0.0383939669244, 0.0151020408163, -2.7509050249e-05, 0, 0, 0, 0.0350805405774, -0.0770889328063, 0.009375, 0, 0, 0, 0, 0.0103846153846, 0, -0.0280405870899, 0.0210294117647, 0.005, -0.171, -0.16968, -0.0875889328063, 0, 0, 0, 0.0154375254375, -0.0875889328063, -0.0198230154938, 0.0105, 0, -0.112494982667, 0, 0.07, 0.009375, -0.035305717025, 0, 0.0499323899082, 0.0514285714286, 0.0724273183155, 0, 0, 0, 0.0268232758621, 0.009375, 0, -0.116688928571, 0, 0, -0.0875889328063, 0, 0.009375, -0.0455026118773, 0, 0.0103846153846, -0.149571428571, 0, 0, 0.00505291005291, 0, 0.00657391304348, 0.00657391304348, 0, -0.0604054054054, 0.0214285714286, 0, 0, 0, 0, 0.0151020408163, -0.16968, 0, 0, -0.266659516807, -0.260489320879, -0.0383939669244, 0.0185557299843, -0.211833693247, 0, 0.00657391304348, 0, 0, 0, 0.00918709677419, 0.0103846153846, 0.00941176470588, 0.0151020408163, 0, 0, 0, -0.0875889328063, -0.074626408396, 0, 0.00344827586207, 0, -0.0875889328063, 0, 0.00657391304348, 0, 0, 0, 0.0367816091954, 0, 0, -0.00546317166661, 0, -0.0734827938164, 0.0315625, -0.0406737051768, 0, 0, 0, 0.121573913043, 0.00505291005291, -0.0259632107023, 0.00505291005291, 0.0151020408163, -0.0198230154938, 0, 0, 0.0268232758621, -0.150115384615, 0, 0.0337870931352, 0, 0.0268232758621, 0, 0, 0, 0, 0.0214285714286, 0, 0.134460417308, 0.00505291005291, -0.054044898159, 0, 0, 0, 0, 0.0339849802372, 0.0218648183155, -0.0499054054054, 0, 0, 0, 0, 0.0208846153846, 0, 0, 0.00657391304348, 0.00505291005291, 0.0350805405774, 0.0301870750634, 0.009375, 0.00657391304348, 0.0151020408163, 0.0744536452151, 0, 0.0185557299843, -0.0280405870899, 0.015, 0, 0.0264947890819, -0.514000906427, 0, 0, 0.0150529100529, 0, -0.034508615859, 0, 0, 0, 0.00657391304348, 0.0173076923077, 0.00657391304348, 0, -0.00966328556021, 0.0243956043956, 0, 0, 0.061962000962, 0.0409090909091, 0.0409090909091, -0.188537628513, 0.0409090909091, 0, 0.108880622348, -0.154484848485, -0.503590686566, 0, 0, 0, 0, 0.009375, -0.0857927067681, 0, 0.01, 0, 0.0691497975709, 0, -0.0504512279571, 0, 0, 0.0173333333333, 0, 0.0409090909091, 0, 0, 0, 0, 0, 0.0243956043956, 0.006, 0, 0.0289345154041, 0, -0.114404320644, 0, 0.0409090909091, 0, 0.0541497975709, 0.006, 0.009375, 0, 0.01, 0, 0, 0.0173076923077, 0.0409090909091, -0.128859819366, 0.0210294117647, -0.0560630797774, 0.038, -0.24854984127, 0, 0, 0, 0.01, 0.0323606023606, 0, 0.0517032967033, 0, 0, 0.0186161284437, 0, 0.119890498047, 0.009375, -0.101828847352, 0.01, 0.0741579878396, 0, -0.0679868034927, 0.006, 0, 0, 0.0582715517241, 0.009375, 0, 0.138957709659, 0, 0, 0, 0.0409090909091, 0.009375, -0.213472573151, 0, 0.0173076923077, 0.038, 0, 0.0409090909091, 0.00505291005291, 0.0301587301587, 0.00657391304348, 0.00657391304348, 0, 0, 0, 0.0685714285714, 0, 0, 0, 0, -0.24854984127, 0.0301587301587, 0, -0.075659343223, 0.0755252193528, 0.0289345154041, 0, 0.0644947890819, 0, 0.00657391304348, 0, -0.171818181818, 0.1485, 0.00918709677419, 0.0273076923077, 0, 0, 0, 0, -0.226666666667, 0, 0.0769315184011, 0.01, 0.0242298850575, 0.01, 0.006, 0, 0.00657391304348, 0, 0.01, 0.0232987012987, 0.0242298850575, 0.0409090909091, 0.006, 0.0314528363265, 0, 0.101023454671, 0.015, 0.0173076923077, 0, 0.0233333333333, 0, 0.00838235029398, 0.0110529100529, 0.0173076923077, 0.00505291005291, 0, 0.0517032967033, 0.01, 0.0301587301587, 0.0582715517241, 0.0553076923077, 0, -0.0341310266255, 0.0409090909091, 0.0582715517241, 0.0123529411765, 0, 0.0243956043956, 0.0243956043956, 0, 0, -0.398958961149, 0.00505291005291, 0.0662840909091, 0, 0, 0, 0, 0.0736870455987, -0.0879507284566, 0, 0, 0.01, 0, 0.01, 0.0173076923077, 0.0409090909091, 0, 0.00657391304348, 0.0110529100529, 0.0173076923077, -0.00983281874017, 0.009375, 0.00657391304348, 0, -0.191039369327, 0, 0, -0.0879507284566, 0.0440931372549, 0, -0.00850521091811, 0.0695496709375, 0, 0.0201351351351, 0.00505291005291, 0, -0.209502842613, 0, 0, 0, 0.0112695652174, 0.0173076923077, 0.0112695652174, 0, -0.0792982135897, 0.0243956043956, 0, 0, 0.111879744793, 0, 0, -0.28459026465, 0, 0, 0.0352074915542, 0, -0.128965112025, 0, 0.0306351351351, 0, 0.0306351351351, 0, 0.0615674276574, 0.0096, 0, 0, -0.0789991704374, 0, 0.00857490496271, 0, 0.021, 0, 0, 0, 0.0105, -0.15, 0, 0, 0, 0.0243956043956, 0, 0, 0.0747653027131, 0, 0.0196597353497, 0, 0, 0, -0.123092307692, 0.0971916996047, 0.0096, 0, 0, 0, 0, 0.0173076923077, 0, 0.0615644357022, 0, 0.015, 0.038, 0.0803174603175, 0.0656916996047, 0, 0, 0, 0.0223606023606, 0.0656916996047, 0.0417032967033, 0.0105, 0.0683243243243, 0.0186161284437, 0, 0.0733661926309, 0, 0.054567284278, 0, 0.0702074915542, 0.0385714285714, -0.0456619692742, 0, 0, 0, 0.0471724137931, 0, 0, 0.0916741758242, 0, 0, 0.0656916996047, 0, 0.0096, 0.0711761107346, 0, -0.123492307692, 0.0594285714286, 0, 0, 0.00505291005291, 0.0301587301587, 0.0112695652174, 0.0112695652174, 0, 0.0411351351351, 0.0214285714286, 0, 0, 0, 0, 0, 0.0803174603175, 0.0301587301587, 0, 0.209991636142, 0.125442963184, 0.0537653027131, 0, 0.070629924217, 0, 0.0112695652174, 0, 0, 0, 0.00918709677419, 0.0173076923077, 0.0078431372549, 0, 0, 0, 0, 0.0656916996047, -0.069446785199, 0, 0.0051724137931, 0, 0.0866916996047, 0, 0.0112695652174, 0, 0, 0, -0.217303261883, 0, 0, -0.0139775141568, 0, 0.123833582492, 0.03625, 0.172752287665, 0, 0, 0, 0.115240153453, 0.00505291005291, 0.0173076923077, 0.00505291005291, 0, 0.0417032967033, 0, 0.0301587301587, 0.0471724137931, 0.0308076923077, 0, 0.0561758832285, 0, 0.0471724137931, -0.0617647058824, 0, 0.0243956043956, 0.0243956043956, 0.0897528957529, 0.0096, -0.128965112025, 0.00505291005291, -0.120664864865, 0, 0, 0, 0, 0.205327457453, 0.0309293005671, 0.0306351351351, 0, 0, 0, 0, 0.0278076923077, 0, 0, 0.0112695652174, 0.00505291005291, 0.0269076923077, 0.110620309601, 0.0096, 0.0112695652174, 0, 0.0940842902647, 0, 0, 0.0615644357022, -0.086237745098, 0, 0.0103846153846, -0.0956106902357, 0, 0, -0.0562890812891, 0, 0.036785048285, 0, 0, 0, 0, 0.0103846153846, 0, 0.0226666666667, 0.115779535489, 0.0243956043956, 0, 0, -0.00937999037999, 0.0409090909091, 0.0409090909091, 0.0950968614719, 0.0409090909091, 0, 0.0668678814183, 0.0364242424242, 0.266708028083, 0, 0, 0, 0, 0.0075, -0.104957375957, 0.016, 0.01, 0, 0.0169889755497, -0.071341991342, -0.179252122877, 0, 0, 0.0173333333333, 0, 0.0409090909091, 0, 0.04, 0, 0, 0, 0.0243956043956, 0.006, 0, -0.0559044659045, 0, 0, 0, 0.0409090909091, 0, 0.103226720648, 0.006, 0.0235, 0, 0.01, 0, -0.071341991342, 0.0103846153846, 0.0409090909091, 0, 0, 0.0198460111317, 0.019, 0.102984126984, 0, 0, 0, 0.01, -0.0459044659045, 0, -0.0265617715618, 0, 0, 0.0186161284437, 0, 0.0988610862821, 0.0075, 0.0871387520525, 0.01, -0.0462638439991, -0.244285714286, 0.047498015873, 0.006, 0, 0, -0.137727048813, 0.0075, 0, -0.0221372903412, 0, 0, 0, 0.0409090909091, 0.0235, 0.358349226763, 0, -0.0609573759574, 0.019, 0, 0.0409090909091, 0.00505291005291, 0.0301587301587, 0, 0, 0, 0, 0, 0.102857142857, 0, 0, 0, 0, 0.0803174603175, 0.0301587301587, 0, 0.1248035466, 0.00418322801081, -0.0559044659045, 0, 0.0293846153846, 0, 0, 0, 0.0190909090909, 0.06975, 0, -0.0509573759574, 0.00313725490196, 0, 0, 0, 0.334666666667, 0, 0.0703576053576, 0.01, 0.0207816091954, 0.01, 0.006, -0.071341991342, 0, 0, 0.01, 0.0232987012987, 0.0607816091954, 0.0409090909091, 0.006, 0.0397735831084, 0, -0.00275840342356, -0.089375, 0.0103846153846, 0, 0.0233333333333, 0, 0.0566881163949, 0.0110529100529, 0.0103846153846, 0.00505291005291, 0, -0.0265617715618, 0.01, 0.0301587301587, -0.137727048813, 0.0293846153846, 0, -0.00675170824968, 0.0409090909091, -0.137727048813, 0.0123529411765, 0, 0.0243956043956, 0.0243956043956, 0, 0.016, 0.2838397535, 0.00505291005291, 0.0644090909091, 0, 0, 0, -0.071341991342, 0.1219928117, 0.0409090909091, 0, 0, 0.01, 0, 0.01, 0.0103846153846, 0.0409090909091, 0, 0, 0.0110529100529, 0.0263846153846, -0.0471517082497, 0.0235, 0, 0, 0.315628008212, 0, 0, 0.0409090909091, 0.028762254902, 0.0222222222222, 0.0256837606838, 0.0129001322751, 0.0222222222222, 0, -0.0407190957191, 0, 0.100090630401, 0, 0, 0, 0, 0.00346153846154, 0, 0, 0.182373751609, 0, 0, 0, -0.0407190957191, 0, 0, 0.191914940219, 0, 0.0222222222222, -0.17788502956, 0, 0.16337647868, 0, 0.0105, 0, 0.0105, 0.009375, 0.105715630401, 0.0096, 0, 0, 0.0840460155857, 0.0148629148629, 0.0684821428571, 0, 0, 0, 0, 0, 0.0105, 0.02, 0, 0, 0, 0, 0, 0, -0.0372575572576, 0, 0, 0, 0, 0, 0.0552837606838, 0.0105, 0.018975, 0, 0, 0, 0.0148629148629, 0.00346153846154, 0, 0.0105, 0, 0.0555689548547, 0.0095, 0, 0, 0, 0, 0, -0.0372575572576, 0, 0.0183244533245, 0.0105, 0, -0.055582010582, 0, 0.0965677179963, 0.009375, 0.08693859087, 0, 0.0811427482182, 0.0257142857143, 0.010625, 0, 0, 0, 0.208547001507, 0.009375, 0, 0.0673678571429, 0, 0, 0, 0, 0.018975, -0.0142258361051, 0, 0.0183244533245, 0.0416428571429, 0, 0, -0.055582010582, 0, 0, 0, 0, 0, 0.0321428571429, 0, 0, 0, 0, 0, 0, 0, 0, 0.173435575139, -0.0407190957191, -0.0372575572576, 0, 0.0351837606838, 0, 0, 0, 0, -0.259027777778, 0, 0.0183244533245, 0.00313725490196, 0, 0, 0, -0.216, 0, -0.045082010582, 0, 0.0273946360153, 0, 0, 0.0148629148629, 0, 0, 0, 0, 0.0473946360153, 0, 0, 0.0646810336124, 0, 0.152405901337, 0.025625, 0.0356043956044, 0, 0, 0, 0.232136672851, -0.055582010582, 0.00346153846154, -0.055582010582, 0, 0.0183244533245, 0, 0, 0.208547001507, 0.0234615384615, 0, 0.0131493336597, 0, 0.208547001507, 0, 0, 0, 0, 0.0321428571429, 0.0096, 0.25087647868, -0.055582010582, 0.009375, 0, 0, 0, 0.0148629148629, 0.232136672851, 0, 0.0105, 0, 0, 0, 0, 0.0139615384615, 0, 0, 0, -0.055582010582, 0.0352837606838, 0.0227493336597, 0.018975, 0, 0, 0.293011006511, 0, 0, 0.0105, 0, 0, 0, 0, 0, 0, 0, 0, 0, 0, 0, 0, 0, 0, 0, 0, 0, 0, 0, 0, 0, 0, 0, 0, 0, 0, 0, 0, 0, 0, 0, 0, 0, 0, 0, 0, 0, 0, 0, 0, 0, 0, 0, 0, 0, 0, 0, 0, 0, 0, 0, 0, 0, 0, 0, 0, 0, 0, 0, 0, 0, 0, 0, 0, 0, 0, 0, 0, 0, 0, 0, 0, 0, 0, 0, 0, 0, 0, 0, 0, 0, 0, 0, 0, 0, 0, 0, 0, 0, 0, 0, 0, 0, 0, 0, 0, 0, 0, 0, 0, 0, 0, 0, 0, 0, 0, 0, 0, 0, 0, 0, 0, 0, 0, 0, 0, 0, 0, 0, 0, 0, 0, 0, 0, 0, 0, 0, 0, 0, 0, 0, 0, 0, 0, 0, 0, 0, 0, 0, 0, 0, 0, 0, 0, 0, 0, 0, 0, 0, 0, 0, 0, 0, 0, 0, 0, 0, 0, 0, 0, 0, 0, 0, 0, 0, 0, 0, 0, 0, 0, 0, 0, 0, 0, 0, 0, 0, 0, 0, 0, 0, 0, 0, 0, 0, 0, 0, 0, 0, 0, 0, 0, 0, 0, 0, 0, 0, 0, 0, 0, 0, 0, 0, 0, 0, 0, 0, 0, 0, 0, 0, 0, 0.0290931372549, 0, -0.0258129032258, -0.234591750842, 0, 0.0201351351351, -0.0426094276094, 0, -0.0896226315046, 0, 0, 0, 0, 0, 0, 0, -0.00296501639024, 0, 0, 0, 0.0184347984348, 0.0409090909091, 0.0409090909091, -0.0200078849722, 0.0409090909091, 0, 0.0675725964286, 0, 0.0209012059369, 0, 0.0201351351351, 0, 0.0201351351351, 0, 0.0110863739435, 0, 0.01, 0, 0.0659352425181, 0.00297258297258, -0.17900974026, 0, 0, 0, 0, 0.0409090909091, 0, 0, 0, 0, 0, 0, 0, 0, -0.0324742924743, 0, -0.036347826087, 0, 0.0409090909091, 0, 0.0368421052632, 0, 0, 0, 0.01, 0, 0.00297258297258, 0, 0.0409090909091, 0.0201351351351, 0, 0.0755423623995, 0, 0, 0, 0, 0, 0.01, -0.0426094276094, 0, -0.0233752431144, 0, 0.0683243243243, -0.055582010582, 0, 0.1004933112, 0, -0.00809889998089, 0.01, 0.0485725964286, 0.0385714285714, -0.0933214285714, 0, 0, 0, 0.0303999175428, 0, 0, 0.0480921052632, 0, 0, 0, 0.0409090909091, 0, 0.264105380366, 0, 0.00297258297258, 0, 0, 0.0409090909091, -0.055582010582, 0, 0, 0, 0, 0.0201351351351, 0, 0.102857142857, 0, 0, 0, 0, 0, 0, 0, 0.1217433112, 0.0184347984348, -0.0324742924743, 0, -0.00567776809067, 0, 0, 0, 0, 0.054, 0.00918709677419, 0.0129725829726, 0.0078431372549, 0, 0, 0, 0.226666666667, 0, -0.0308856106247, 0.01, 0, 0.01, 0, 0.00297258297258, 0, 0, 0.01, -0.12425974026, 0.0683243243243, 0.0409090909091, 0, 0.0170428685819, 0, -0.0629026896245, 0.02125, 0.0683243243243, 0, 0, 0, 0.131698011262, -0.055582010582, -0.036347826087, -0.055582010582, 0, -0.0233752431144, 0.01, 0, 0.0303999175428, -0.035, 0, -0.0251974687013, 0.0409090909091, 0.0303999175428, 0.0123529411765, 0, 0, 0, 0.0683243243243, 0, -0.0200078849722, -0.055582010582, 0.0346963999573, 0, 0, 0, 0.00297258297258, 0.172607102171, 0.0409090909091, 0.0201351351351, 0, 0.01, 0, 0.01, 0, 0.0409090909091, 0, 0, -0.055582010582, 0, -0.10574370526, 0, 0, 0, 0.178555386365, 0, 0, 0.0610442260442, 0.013762254902, 0, 0.0126486352357, 0.0662487037037, 0, 0, 0.0199158249158, 0, -0.273128833089, 0, 0, 0, 0, 0.00346153846154, 0, 0.0113333333333, -0.0787611161109, 0.0243956043956, 0, 0, 0.0409158249158, 0, 0, 0.113731060606, 0, 0, -0.0360605075123, 0.0572727272727, 0.197510059385, 0, 0.0105, 0, 0.0105, 0.009375, -0.0940226736686, 0, 0, 0, 0.023363988572, 0.0148629148629, 0.116877747253, 0, 0.021, 0, 0, 0, 0.0105, 0, 0, 0, 0.00614019520852, 0.0243956043956, 0, 0, 0.0443773633774, 0.0113265306122, -0.0153184143223, 0, 0, 0, 0.00960173367006, 0.0315, 0.009375, 0, 0, 0, 0.0148629148629, 0.00346153846154, 0, 0.0105, 0.0210294117647, -0.0725479282622, 0.0095, 0.164370793651, 0, 0, 0, 0, 0.0233773633774, 0, 0.0125124268416, 0.0105, 0, 0.0186161284437, 0, 0.0943956043956, 0.009375, -0.0282220530505, 0, -0.104659765397, 0.0257142857143, 0.0647837301587, 0, 0, 0, -0.0942494073387, 0.009375, 0, 0.139883461538, 0, 0, 0, 0, 0.009375, -0.103579043018, 0, -0.122475546676, 0.0416428571429, 0, 0, 0.00505291005291, 0.0301587301587, 0, 0, 0, 0.021, 0.0321428571429, 0, 0, 0, 0, 0.0113265306122, 0.153037460317, 0.0301587301587, 0, 0.250730333621, 0.0544790433066, 0.0233773633774, 0, 0.0431486352357, 0, 0, 0, 0.0572727272727, 0.03375, 0.00918709677419, 0.0183244533245, 0.00313725490196, 0.0113265306122, 0, 0, 0, 0, -0.137199311638, 0, 0, 0, 0.021, 0.0148629148629, 0, 0, 0, 0, -0.1408, 0, 0, -0.156248861209, 0, 0.0446107878698, 0.010625, 0.0469309262166, 0, 0, 0, 0.0774520717378, 0.00505291005291, -0.0328862876254, 0.00505291005291, 0.0113265306122, 0.0125124268416, 0, 0.0301587301587, -0.0942494073387, 0.0234615384615, 0, -0.00355330671676, 0, -0.0942494073387, -0.0617647058824, 0, 0.0243956043956, 0.0243956043956, 0.0321428571429, 0, 0.197510059385, 0.00505291005291, -0.167772826087, -0.133333333333, 0, 0, 0.0148629148629, 0.101847676133, 0, 0.0105, 0, 0, 0, 0, 0.0139615384615, 0, 0, 0, 0.00505291005291, 0.00960173367006, 0.0261800085448, 0.009375, 0, 0.0113265306122, -0.0111005185386, 0, 0, 0.0105, 0.013762254902, 0, 0.0195717121588, -0.263957356902, 0, -0.0604054054054, 0.0299158249158, 0, 0.139520170606, 0, 0, 0, 0, 0.0103846153846, 0, 0, 0.408905935952, 0.0243956043956, 0, 0, 0.0224195104195, 0.0409090909091, 0.0409090909091, 0.173907003711, 0.0409090909091, 0, 0.177233023956, 0.0346666666667, 0.305518170322, 0, -0.0604054054054, 0, -0.0604054054054, 0, 0.103683151769, 0.0032, 0.01, 0, 0.0641889755497, 0.0148629148629, -0.155252122877, 0, 0, 0.0346666666667, 0, 0.0409090909091, 0, 0, 0, 0, 0, 0.0243956043956, 0.012, 0, -0.030104965105, 0, 0.0210294117647, 0, 0.0409090909091, 0, 0.0504267206478, 0.012, 0.0032, 0, 0.01, 0, 0.0148629148629, 0.0103846153846, 0.0409090909091, -0.0604054054054, 0.0210294117647, 0.141324056895, 0.019, -0.0893625396825, 0, 0, 0, 0.01, 0.0403004403004, 0, 0.0596431346431, 0, 0, 0.0186161284437, 0, 0.216458216043, 0, 0.0513635494493, 0.01, 0.0831922076297, -0.244285714286, 0.071498015873, 0.012, 0, 0, 0.151999587714, 0, 0, -0.104617290341, 0, 0, 0, 0.0409090909091, 0.0032, -0.141504454504, 0, 0.0252475302475, 0.019, 0, 0.0409090909091, 0.00505291005291, 0.0301587301587, 0, 0, 0, -0.0604054054054, 0, 0.0685714285714, 0, 0, 0, 0, -0.0893625396825, 0.0301587301587, 0, 0.159920676361, 0.0359827288103, -0.030104965105, 0, -0.0218336932466, 0, 0, 0, 0, 0.036, 0.00918709677419, 0.0352475302475, 0.00313725490196, 0, 0, 0, -0.226666666667, 0, 0.0099521999522, 0.01, 0.0346666666667, 0.01, 0.012, 0.0148629148629, 0, 0, 0.01, 0.0232987012987, 0.068, 0.0409090909091, 0.012, 0.213969520476, 0, 0.0252538484406, 0.010625, 0.0103846153846, 0, 0.0466666666667, 0, 0.29576329192, 0.0170529100529, 0.0103846153846, 0.00505291005291, 0, 0.0596431346431, 0.01, 0.0301587301587, 0.151999587714, 0.0293846153846, 0, 0.0684622617858, 0.0409090909091, 0.151999587714, 0.0123529411765, 0, 0.0243956043956, 0.0243956043956, 0, 0.0032, 0.322649895739, 0.00505291005291, 0.035837018837, 0, 0, 0, 0.0148629148629, 0.361067987224, 0.0409090909091, -0.0604054054054, 0, 0.01, 0, 0.01, 0.0103846153846, 0.0409090909091, 0, 0, 0.0170529100529, 0.0135846153846, 0.0959604696711, 0.0032, 0, 0, 0.550754408674, 0, 0, -0.0194963144963, 0.0290931372549, 0, -0.00850521091811, 0.00849592592593, 0, 0, -0.0662890812891, 0, -0.0350592990343, 0, 0, 0, 0, 0.0173076923077, 0, 0, 0.0802979455729, 0.0243956043956, 0, 0, -0.0662890812891, 0, 0, 0.05575, 0, 0, 0.0183129263368, 0, -0.228212148962, 0, 0.0105, 0, 0.0105, 0.009375, -0.0444342990343, 0.0096, 0, 0, 0.0760008295626, -0.071341991342, 0.129645604396, 0, 0, 0, 0, 0, 0.0105, 0.02, 0, 0, 0, 0.0243956043956, 0, 0, -0.0489813889814, 0, 0, 0, 0, 0, 0.0469076923077, 0.0105, 0.018975, 0, 0, 0, -0.071341991342, 0.0173076923077, 0, 0.0105, 0, 0, 0.038, -0.24854984127, 0, 0, 0, 0, -0.0489813889814, 0, -0.0296386946387, 0.0105, 0, 0.0186161284437, 0, 0.0733661926309, 0.009375, 0.018975, 0, 0.0533129263368, 0.0385714285714, 0.0754087301587, 0, 0, 0, -0.061966991342, 0.009375, 0, 0.149394175824, 0, 0, 0, 0, 0.018975, 0.0874149369149, 0, -0.0540342990343, 0.0594285714286, 0, 0, 0.00505291005291, 0.0301587301587, 0, 0, 0, 0, 0.0214285714286, 0, 0, 0, 0, 0, -0.24854984127, 0.0301587301587, 0, -0.133875665446, -0.0527258628983, -0.0489813889814, 0, 0.0294947890819, 0, 0, 0, 0, 0, 0.00918709677419, -0.0540342990343, 0.0078431372549, 0, 0, 0, -0.216, 0, 0.0399485144485, 0, 0, 0, 0, -0.071341991342, 0, 0, 0, 0, 0.02, 0, 0, 0.0245479455729, 0, 0.0834848767899, 0.02125, 0.0387362637363, 0, 0, 0, 0.0889705882353, 0.00505291005291, 0.0173076923077, 0.00505291005291, 0, -0.0296386946387, 0, 0.0301587301587, -0.061966991342, 0.0308076923077, 0, -0.0212632517265, 0, -0.061966991342, 0, 0, 0.0243956043956, 0.0243956043956, 0.0214285714286, 0.0096, -0.228212148962, 0.00505291005291, 0.009375, 0, 0, 0, -0.071341991342, 0.113366192631, 0, 0.0105, 0, 0, 0, 0, 0.0278076923077, 0, 0, 0, 0.00505291005291, 0.0269076923077, 0.0331811746462, 0.018975, 0, 0, -0.223158170207, 0, 0, 0.0105, 0, 0, 0.0173076923077, 0.0577325637326, 0, 0, 0.0150529100529, 0, -0.0247923076923, 0, 0, 0, 0, 0.0173076923077, 0, 0.0226666666667, 0.218483660005, 0, 0, 0, -0.0179470899471, 0, 0, 0.065380952381, 0, 0, 0.151562794349, 0, 0.122688644689, 0, 0, 0, 0, 0.0075, 0.0559743589744, 0.016, 0.01, 0, 0.110149797571, 0, 0.030012987013, 0, 0.021, 0, 0, 0, 0, 0.04, 0, 0, 0, 0, -0.054, 0, 0.0433606023606, 0, 0, 0, 0, 0, 0.110149797571, -0.033, 0.0235, 0, 0.01, 0, 0, 0.0173076923077, 0, 0, 0, 0.100755102041, 0.038, 0.0226666666667, 0, 0, 0, 0.01, 0.0323606023606, 0, 0.0273076923077, 0, 0, -0.112494982667, 0, 0.0335563909774, 0.0075, -0.0685, 0.01, 0.057521978022, 0, 0.00671428571429, -0.054, 0, 0, 0.0301666666667, 0.0075, 0, 0.0428421052632, 0, 0, 0, 0, 0.0235, 0.0927606023606, 0, 0.0877076923077, 0.038, 0, 0, 0.00505291005291, 0, 0, 0, 0, 0.021, 0, 0, 0, 0, 0, 0, 0, 0, 0, 0.0875563909774, -0.135494982667, 0.0223606023606, 0, 0.0763076923077, 0, 0, 0, 0, 0.06975, 0, 0.0273076923077, 0, 0, 0, 0, 0.108, 0, 0.0754529100529, 0.01, 0, 0.01, -0.033, 0, 0, 0, 0.01, 0.0232987012987, 0.1104, 0, -0.054, 0.153102707624, 0, 0.130329451251, 0, 0.0173076923077, 0, -0.054, 0, 0.137597207304, -0.0489470899471, 0.0173076923077, 0.00505291005291, 0, 0.0273076923077, 0.01, 0, 0.0301666666667, 0.0553076923077, 0, 0.0135748880749, 0, 0.0301666666667, 0, 0, 0, 0, 0, 0.016, 0.180729461015, 0.00505291005291, 0.0339, 0, 0, 0, 0, 0.137597207304, 0, 0, 0, 0.01, 0, 0.01, 0.0173076923077, 0, 0, 0, -0.0489470899471, 0.0333076923077, 0.0671748880749, 0.0235, 0, 0, 0.191524476331, 0, 0, 0, -0.11777754371, 2.22044604925e-17, 0.0108893300248, -0.243578123082, 2.22044604925e-17, 0, -7.5527206743e-17, 0, -0.118597942367, -0.0185557299843, 0, 0, -0.0140869565217, -0.0138461538462, -0.0140869565217, -1.88737914186e-17, -0.398517751902, -0.0325274725275, 0, 0, 0.218972332016, 3.33066907388e-17, 3.33066907388e-17, -0.155315841885, 3.33066907388e-17, 2.22044604925e-17, -0.175344071742, 3.21964677141e-17, -0.197717725715, 0, -0.0035, 0, -0.0035, -0.0275, -0.0910979423673, -0.0032, -3.5527136788e-17, 0, -0.14789379516, -5.34637269521e-17, -0.276105595609, 0, 0, -1.44328993201e-17, 0, 3.33066907388e-17, -0.0035, -0.0285557299843, 0, 0, -0.00307009760426, -0.0325274725275, 1.33226762955e-17, 0, -0.0279331103679, -0.0151020408163, -0.122524000148, 0, 3.33066907388e-17, 0, -0.0486719814347, 0.215472332016, -0.0307, 0, -3.5527136788e-17, 0, -5.34637269521e-17, -0.0138461538462, 3.33066907388e-17, -0.0700129174543, -0.0700980392157, -0.0476462585034, -0.038, -9.03707443975e-17, 0.218972332016, 0, 0, -3.5527136788e-17, -0.0138461538462, 0.218972332016, -0.0494437239779, -0.0035, -0.0341621621622, -4.47613727389e-17, 0, -0.144224951519, -0.0275, -0.198778134846, -3.5527136788e-17, -0.133634321175, -0.0514285714286, -0.226220258724, 1.33226762955e-17, 0, 0, -0.0365, -0.0275, 0, -0.104879258242, 0, 0, 0.218972332016, 3.33066907388e-17, -0.0307, -0.210866166308, 0, -0.0138461538462, -0.0487142857143, 0, 3.33066907388e-17, 1.3463656997e-17, -0.0603174603175, -0.0140869565217, -0.0140869565217, 0, 0, -0.0107142857143, -5.3290705182e-17, 0, 0, 0, -0.0151020408163, -7.14969529788e-17, -0.0603174603175, 0, -0.22192967841, 0.218972332016, -0.0279331103679, -0.0185557299843, -0.0271106699752, 0, -0.0140869565217, 0, 4.66293670343e-17, -0.0225, -0.025264516129, -0.0138461538462, -0.078698145925, -0.0151020408163, 0, 0, -2.99760216649e-17, 0.218972332016, -0.0501144290492, -3.5527136788e-17, -1.44328993201e-17, -3.5527136788e-17, 0.218972332016, -5.34637269521e-17, -0.0140869565217, 0, -3.5527136788e-17, -0.0155324675325, -0.0441621621622, 3.33066907388e-17, 1.33226762955e-17, -0.15901691428, 0, -0.200411505616, -0.0584375, 0.145147689477, 0, -1.11022302463e-18, 0, 0.0221883536023, 2.67863332925e-17, -0.0138461538462, 1.3463656997e-17, -0.0151020408163, -0.0494437239779, -3.5527136788e-17, -0.0603174603175, -0.0365, -0.00534615384615, 0, -0.238381549857, 3.33066907388e-17, -0.0365, -0.00411764705882, 0, -0.0325274725275, -0.0325274725275, -0.0448764478764, -0.0032, -0.236411603266, 1.3463656997e-17, -0.0275, 0, 0, 0, -5.34637269521e-17, 0.208633213091, -0.0665129174543, -0.0035, 0, -3.5527136788e-17, 0, -3.5527136788e-17, -0.0173461538462, 3.33066907388e-17, 0, -0.0140869565217, 2.67863332925e-17, -0.0386719814347, -0.290617619052, -0.0307, -0.0140869565217, -0.0151020408163, -0.257950479207, 0, -0.0185557299843, -0.0700129174543, 0.0661170044941, 0, -0.0358347394541, 0.180234598687, 0, 0, 0, 0, 0.0895299136726, 0.0185557299843, 0, 0, 0.0112695652174, 0.0103846153846, 0.0112695652174, 0, 0.308858598692, 0.0243956043956, 0, 0, -0.218972332016, 0, 0, 0.107646851652, 0, 0, 0.109983231792, 0, 0.146587197021, 0, 0.0035, 0, 0.0035, 0.015, 0.0745299136726, 0.0032, 0, 0, 0.092771717483, 0, 0.204630203083, 0, 0, 0, 0, 0, 0.0035, 0.0285557299843, 0, 0, 0.00307009760426, 0.0243956043956, 0, 0, 0.021654180602, 0.0151020408163, 0.109417509915, 0, 0, 0, 0.0452104429732, -0.215472332016, 0.0182, 0, 0, 0, 0, 0.0103846153846, 0, 0.0540890359168, 0.0700980392157, 0.0476462585034, 0.0285, 0, -0.218972332016, 0, 0, 0, 0.0103846153846, -0.218972332016, 0.0378503173845, 0.0035, 0.0341621621622, 0, 0, 0.136093083387, 0.015, 0.173171644612, 0, 0.0782734812255, 0.0385714285714, 0.160654512107, 0, 0, 0, 0.024, 0.015, 0, 0.0701848901099, 0, 0, -0.218972332016, 0, 0.0182, 0.168269513097, 0, 0.0103846153846, 0.0392142857143, 0, 0, 0, 0.0452380952381, 0.0112695652174, 0.0112695652174, 0, 0, 0.0107142857143, 0, 0, 0, 0, 0.0151020408163, 0, 0.0452380952381, 0, 0.177735310278, -0.218972332016, 0.021654180602, 0.0185557299843, -0.00733473945409, 0, 0.0112695652174, 0, 0, 0.0225, 0.0137806451613, 0.0103846153846, 0.0536001067094, 0.0151020408163, 0, 0, 0, -0.218972332016, 0.039165169613, 0, 0, 0, -0.218972332016, 0, 0.0112695652174, 0, 0, 0.0155324675325, 0.0441621621622, 0, 0, 0.119844142607, 0, 0.160394217485, 0.031875, -0.148609227938, 0, 0, 0, -0.0250057449067, 0, 0.0103846153846, 0, 0.0151020408163, 0.0378503173845, 0, 0.0452380952381, 0.024, -0.0176153846154, 0, 0.181398090642, 0, 0.024, 0.00411764705882, 0, 0.0243956043956, 0.0243956043956, 0.0448764478764, 0.0032, 0.185281074572, 0, 0.015, 0, 0, 0, 0, -0.219582472527, 0.0505890359168, 0.0035, 0, 0, 0, 0, 0.0138846153846, 0, 0, 0.0112695652174, 0, 0.0352104429732, 0.222150288869, 0.0182, 0.0112695652174, 0.0151020408163, 0.141193286781, 0, 0.0185557299843, 0.0540890359168, 0.0369362745098, 0, 0.0226486352357, 0.0580310243946, 0, 0, 0, 0, 0.0265680286947, 0, 0, 0, 0.00281739130435, 0.00346153846154, 0.00281739130435, 0, 0.0818466532103, 0.00813186813187, 0, 0, 0, 0, 0, 0.0423564902331, 0, 0, 0.0511523010499, 0, 0.0458180286947, 0, 0, 0, 0, 0.01, 0.0165680286947, 0, 0, 0, 0.0403978129713, 0, 0.0661628925265, 0, 0, 0, 0, 0, 0, 0, 0, 0, 0, 0.00813186813187, 0, 0, 0.00627892976589, 0, 0.0131064902331, 0, 0, 0, 0.00346153846154, 0, 0.01, 0, 0, 0, 0, 0.00346153846154, 0, 0.0159238815375, 0, 0, 0.0095, 0, 0, 0, 0, 0, 0.00346153846154, 0, 0.0115934065934, 0, 0, 0, 0, 0.00813186813187, 0.01, 0.0231064902331, 0, 0.0411523010499, 0.0128571428571, 0.0602532466169, 0, 0, 0, 0.01, 0.01, 0, 0.0293818681319, 0, 0, 0, 0, 0.01, 0.0425966532103, 0, 0.00346153846154, 0.0095, 0, 0, 0, 0.0150793650794, 0.00281739130435, 0.00281739130435, 0, 0, 0, 0, 0, 0, 0, 0, 0, 0.0150793650794, 0, 0.0388818681319, 0, 0.00627892976589, 0, 0.0321486352357, 0, 0.00281739130435, 0, 0, 0, 0.00918709677419, 0.00346153846154, 0.0156862745098, 0, 0, 0, 0, 0, 0.0109492594362, 0, 0, 0, 0, 0, 0.00281739130435, 0, 0, 0, 0, 0, 0, 0.0366727716728, 0, 0.0375172881309, 0.02125, 0.00346153846154, 0, 0, 0, 0.00281739130435, 0, 0.00346153846154, 0, 0, 0.0115934065934, 0, 0.0150793650794, 0.01, 0.0229615384615, 0, 0.0450716945088, 0, 0.01, 0, 0, 0.00813186813187, 0.00813186813187, 0, 0, 0.0458180286947, 0, 0.01, 0, 0, 0, 0, 0.0109492594362, 0.0159238815375, 0, 0, 0, 0, 0, 0.00346153846154, 0, 0, 0.00281739130435, 0, 0.00346153846154, 0.054258791283, 0.01, 0.00281739130435, 0, 0.0995329277201, 0, 0, 0.0159238815375, 0.0131556372549, 0, 0.00229677419355, 0.0053125, 0, 0, 0, 0, 0.0025, 0, 0, 0, 0, 0, 0, 0, 0.0078125, 0, 0, 0, 0, 0, 0, 0.0053125, 0, 0, 0.0126399114485, 0, 0.0053125, 0, 0, 0, 0, 0.0025, 0, 0, 0, 0, 0.0131556372549, 0, 0.0053125, 0, 0, 0, 0, 0, 0, 0, 0, 0, 0, 0, 0, 0, 0, 0, 0, 0, 0, 0, 0, 0, 0.0025, 0, 0, 0, 0, 0, 0, 0, 0, 0, 0, 0, 0, 0, 0, 0, 0, 0, 0, 0, 0, 0, 0, 0, 0.0025, 0.0025, 0, 0.0126399114485, 0, 0.0053125, 0, 0, 0, 0.0025, 0.0025, 0, 0.0053125, 0, 0, 0, 0, 0.0025, 0, 0, 0, 0, 0, 0, 0, 0, 0, 0, 0, 0, 0, 0, 0, 0, 0, 0, 0, 0, 0, 0.0053125, 0, 0, 0, 0.00229677419355, 0, 0, 0, 0, 0, 0.00229677419355, 0, 0.0078431372549, 0, 0, 0, 0, 0, 0, 0, 0, 0, 0, 0, 0, 0, 0, 0, 0, 0, 0, 0.0025, 0, 0.0025, 0.0053125, 0, 0, 0, 0, 0, 0, 0, 0, 0, 0, 0, 0, 0.0025, 0, 0, 0.0103431372549, 0, 0.0025, 0, 0, 0, 0, 0, 0, 0.0053125, 0, 0.0025, 0, 0, 0, 0, 0, 0, 0, 0, 0, 0, 0, 0, 0, 0, 0, 0, 0, 0.0126399114485, 0.0025, 0, 0, 0.0156556372549, 0, 0, 0, 0.00156862745098, 0, 0, 0, 0, 0, 0, 0, 0, 0, 0, 0, 0, 0, 0, 0, 0, 0, 0, 0, 0, 0, 0, 0, 0, 0, 0.00156862745098, 0, 0, 0, 0, 0, 0, 0, 0, 0, 0, 0, 0.00156862745098, 0, 0, 0, 0, 0, 0, 0, 0, 0, 0, 0, 0, 0, 0, 0, 0, 0, 0, 0, 0, 0, 0, 0, 0, 0, 0, 0, 0, 0, 0, 0, 0, 0, 0, 0, 0, 0, 0, 0, 0, 0, 0, 0, 0, 0, 0, 0, 0, 0, 0, 0.00156862745098, 0, 0, 0, 0, 0, 0, 0, 0, 0, 0, 0, 0, 0, 0, 0, 0, 0, 0, 0, 0, 0, 0, 0, 0, 0, 0, 0, 0, 0, 0, 0, 0, 0, 0, 0, 0, 0, 0, 0, 0, 0, 0, 0, 0, 0, 0, 0, 0.00156862745098, 0, 0, 0, 0, 0, 0, 0, 0, 0, 0, 0, 0, 0, 0, 0, 0, 0, 0, 0, 0, 0, 0, 0, 0, 0, 0, 0, 0, 0, 0, 0, 0, 0, 0, 0, 0, 0, 0.00156862745098, 0, 0, 0, 0, 0, 0, 0, 0, 0, 0, 0, 0, 0, 0, 0, 0, 0, 0, 0, 0, 0, 0, 0, 0, 0, 0, 0, 0, 0.00156862745098, 0, 0, 0, 0.00156862745098, 0, 0, 0
0.500529559528, -0.500529559528, 0.586337836988, -0.352936991029, -0.145861292941, 0.154902628045, 0.504296634251, 0.129089948011, -0.337545485526, 0.446063356302, -0.131415949448, -0.132077340189, -0.323461466869, -0.714865534899, 0.66178124016, 0, -0.609885008427, -0.733487692611, 0.706126840339, -0.0624241260061, -0.764268047053, 0.202820667758, -0.485146035213, -0.0432581120518, 0.455090833258, 0.0735722372344, -0.0770761998028, 0, 0.211562855593, 0.506360814653, -0.315027724502, 0.135678873413, 0.352160988688, -0.602186197106, 0.362154517159, 0.206175756734, 0.0307551646019, 0.00310075861194, -0.0671777511032, 0.0650596694527, -0.0574287823892, -0.625500375787, 0.0650596694527, -0.0402702702703, -0.00884750926467, 0, 0.0262493098911, 0.0860708487615, 0, 0, -0.0410109683423, 0.0588461538462, -0.0410109683423, 0.034, 0.257140826716, 0.125219943427, 0, 0, -0.054011504215, 0.12228430514, 0.12228430514, -0.351615446634, 0.12228430514, 0.0650596694527, -0.0322665684397, -0.338997531918, -0.163369375846, 0, 0.135090640103, 0, 0.135090640103, 0.0886981556831, -0.176854386115, 0.0753323537603, -0.0126240740142, 0, 0.188068450912, -0.054263932709, -0.259227517201, 0, 0.146380578581, -0.243542986463, 0, 0.193412044526, 0.0723300695638, -0.153096407362, 0, 0, -0.0293119545828, 0.125219943427, -0.03, -0.0245381029832, 0.000694079159253, -0.00690734056324, -0.0842388758947, 0, 0.12228430514, 0, 0.204631960852, 0.00722220944687, 0.103695521343, 0, -0.0126240740142, 0, -0.0297258297258, 0.0588461538462, 0.12228430514, 0.00888748524545, 0.103203529128, 0.344532981222, -0.0388624741552, -0.1928422747, -0.181488438698, 0, 0, -0.0126240740142, 0.0499986445815, -0.181488438698, 0.16051264926, 0.000327796873723, -0.00367794836579, -0.0659749536297, 0, 0.338942714906, 0.0886981556831, 0.245166687671, -0.0126240740142, -0.372709467587, -0.09, -0.431346017344, -0.03, 0, -0.0446624426041, -0.26603097738, 0.0886981556831, 0, 0.362212662062, 0.0404661233213, 0, -0.181488438698, 0.12228430514, 0.103695521343, 0.256409632877, 0, -0.0658177788629, 0.0493300695638, 0.111593862708, 0.12228430514, -0.00267993447262, -0.153314855108, -0.0410109683423, -0.0410109683423, 0, 0.20914114912, 0.115830069564, 0.283022434137, 0, 0, 0, -0.00690734056324, -0.15723739479, -0.153314855108, 0, 0.294839882799, -0.012925944791, -0.0413059208407, 0.0860708487615, 0.126042436295, 0, -0.0410109683423, 0, -0.0954545454545, 0.294088744684, 0.0367483870968, 0.0526785790541, -0.0175997461574, -0.00690734056324, 0, 0, -0.623694288472, -0.181488438698, 0.210618514193, -0.0126240740142, 0.112103217679, -0.0126240740142, -0.065107860117, 0.0486305264003, -0.0410109683423, 0, -0.0126240740142, -0.132246367956, 0.178613384265, 0.193412044526, -0.03, 0.0857664031574, 0, -0.305833790129, -0.0458364075264, 0.0546047684731, 0, -0.273542986463, 0, 0.672189161017, -0.0326799344726, 0.0285982080293, -0.00267993447262, -0.00690734056324, 0.16051264926, -0.0126240740142, -0.153314855108, 0.095055149157, -0.0409644422344, 0, 0.0732160221676, 0.12228430514, -0.107540393829, 0.00340729979193, 0, 0.125219943427, 0.125219943427, 0.184154393888, 0.0753323537603, 0.334875761028, -0.00267993447262, 0.137673901207, -0.0795704627784, -0.0810342721236, 0, -0.054263932709, 0.909822379621, -0.0039188497182, 0.135090640103, 0, -0.0126240740142, 0, -0.0126240740142, 0.21257661981, 0.193412044526, 0.111593862708, -0.0410109683423, -0.0326799344726, 0.228970709279, 0.360944269815, 0.103695521343, -0.0410109683423, -0.00690734056324, 0.666525485523, 0, 0.0860708487615, 0.0907056670636, 0.0671777511032, -0.0650596694527, 0.0574287823892, 0.625500375787, -0.0650596694527, 0.0402702702703, 0.00884750926467, 0, -0.0262493098911, -0.0860708487615, 0, 0, 0.0410109683423, -0.0588461538462, 0.0410109683423, -0.034, -0.257140826716, -0.125219943427, 0, 0, 0.054011504215, -0.12228430514, -0.12228430514, 0.351615446634, -0.12228430514, -0.0650596694527, 0.0322665684397, 0.338997531918, 0.163369375846, 0, -0.135090640103, 0, -0.135090640103, -0.0886981556831, 0.176854386115, -0.0753323537603, 0.0126240740142, 0, -0.188068450912, 0.054263932709, 0.259227517201, 0, -0.146380578581, 0.243542986463, 0, -0.193412044526, -0.0723300695638, 0.153096407362, 0, 0, 0.0293119545828, -0.125219943427, 0.03, 0.0245381029832, -0.000694079159253, 0.00690734056324, 0.0842388758947, 0, -0.12228430514, 0, -0.204631960852, -0.00722220944687, -0.103695521343, 0, 0.0126240740142, 0, 0.0297258297258, -0.0588461538462, -0.12228430514, -0.00888748524545, -0.103203529128, -0.344532981222, 0.0388624741552, 0.1928422747, 0.181488438698, 0, 0, 0.0126240740142, -0.0499986445815, 0.181488438698, -0.16051264926, -0.000327796873723, 0.00367794836579, 0.0659749536297, 0, -0.338942714906, -0.0886981556831, -0.245166687671, 0.0126240740142, 0.372709467587, 0.09, 0.431346017344, 0.03, 0, 0.0446624426041, 0.26603097738, -0.0886981556831, 0, -0.362212662062, -0.0404661233213, 0, 0.181488438698, -0.12228430514, -0.103695521343, -0.256409632877, 0, 0.0658177788629, -0.0493300695638, -0.111593862708, -0.12228430514, 0.00267993447262, 0.153314855108, 0.0410109683423, 0.0410109683423, 0, -0.20914114912, -0.115830069564, -0.283022434137, 0, 0, 0, 0.00690734056324, 0.15723739479, 0.153314855108, 0, -0.294839882799, 0.012925944791, 0.0413059208407, -0.0860708487615, -0.126042436295, 0, 0.0410109683423, 0, 0.0954545454545, -0.294088744684, -0.0367483870968, -0.0526785790541, 0.0175997461574, 0.00690734056324, 0, 0, 0.623694288472, 0.181488438698, -0.210618514193, 0.0126240740142, -0.112103217679, 0.0126240740142, 0.065107860117, -0.0486305264003, 0.0410109683423, 0, 0.0126240740142, 0.132246367956, -0.178613384265, -0.193412044526, 0.03, -0.0857664031574, 0, 0.305833790129, 0.0458364075264, -0.0546047684731, 0, 0.273542986463, 0, -0.672189161017, 0.0326799344726, -0.0285982080293, 0.00267993447262, 0.00690734056324, -0.16051264926, 0.0126240740142, 0.153314855108, -0.095055149157, 0.0409644422344, 0, -0.0732160221676, -0.12228430514, 0.107540393829, -0.00340729979193, 0, -0.125219943427, -0.125219943427, -0.184154393888, -0.0753323537603, -0.334875761028, 0.00267993447262, -0.137673901207, 0.0795704627784, 0.0810342721236, 0, 0.054263932709, -0.909822379621, 0.0039188497182, -0.135090640103, 0, 0.0126240740142, 0, 0.0126240740142, -0.21257661981, -0.193412044526, -0.111593862708, 0.0410109683423, 0.0326799344726, -0.228970709279, -0.360944269815, -0.103695521343, 0.0410109683423, 0.00690734056324, -0.666525485523, 0, -0.0860708487615, -0.0907056670636, 0.0791000826678, 0.0901737957553, -0.0420718924805, 0.15083095164, 0.0901737957553, 0, 0.00637594610758, 0, 0.435491351141, 0.141738038714, 0, 0, 0.106807244886, 0.0276923076923, 0.106807244886, 0.0113333333333, 0.528916501876, 0.0569230769231, 0, 0, -0.137878320135, 0.0141539299959, 0.0141539299959, 0.226028191144, 0.0141539299959, 0.0901737957553, 0.136592956131, 0.164637401096, 0.19251725848, 0, 0.0706109234538, 0, 0.0706109234538, 0.076426720608, 0.664431184426, 0.0264440853364, 0, 0, 0.0321431830592, -0.0927773548766, 0.352052518068, 0, 0.104380578581, 0.126455582914, 0, -0.134488686564, 0.0333212849374, 0.161052725628, 0, 0, 0.0299857613531, 0.0569230769231, 0, -0.0957499378491, 0.0417221977016, 0.063011493385, 0.153105600738, 0, 0.0141539299959, 0, 0.143396570118, 0.0411573297482, 0.131576142182, 0, 0, 0, 0.00297258297258, 0.0276923076923, 0.0141539299959, 0.11843896229, 0.103203529128, -0.399404510538, 0.076, 0.145336943402, -0.0965445337703, 0, 0, 0, 0.0340682537999, -0.0965445337703, 0.154477705979, 0.11195461678, 0.010309007518, 0, 0, 0.0550239769039, 0.076426720608, 0.512826275647, 0, 0.107835103523, 0.09, 0.304633103635, 0, 0, 0.017705370936, 0.253397779706, 0.076426720608, 0, -0.187767814586, 0.0141539299959, 0, -0.0965445337703, 0.0141539299959, 0.131576142182, -0.028900726622, 0, -0.205885047184, 0.13096414208, -0.134488686564, 0.0141539299959, 0, 0.105555555556, 0.106807244886, 0.106807244886, 0, 0.141670217097, 0.0549641420803, -0.134488686564, 0, 0, 0, 0.063011493385, 0.0643987301587, 0.105555555556, 0, -0.0374100118079, -0.0334977415535, 0.0417221977016, 0.141738038714, 0.350410125497, 0, 0.106807244886, 0, 0.0381818181818, 0.140857622925, -0.0367483870968, 0.0340682537999, 0.131341242756, 0.063011493385, 0, 0, -0.481021752718, -0.0965445337703, 0.137943121075, 0, 0.0375582484761, 0, 0.00783604481074, 0.00962861419355, 0.106807244886, 0, 0, -0.0489122490149, -0.0327727371602, -0.134488686564, 0, 0.200562040039, 0, 0.821530689597, -0.0250011310238, -0.019200914937, 0, 0.126455582914, 0, -0.133541309913, 0, 0.0579402535092, 0, 0.063011493385, 0.154477705979, 0, 0.105555555556, 0.0138517386376, 0.175272304475, 0, 0.559607594455, 0.0141539299959, 0.173273318985, 0.0265068711724, 0, 0.0569230769231, 0.0569230769231, -0.013360182244, 0.0264440853364, 0.31328181659, 0, 0.0245211246136, 0.0795704627784, 0.0189744855606, 0, -0.0927773548766, -0.390121850451, 0.0619819688326, 0.0706109234538, 0, 0, 0, 0, 0.00725072207482, -0.134488686564, -0.134488686564, 0.106807244886, 0, -0.0109483543496, 0.570039990054, 0.131576142182, 0.106807244886, 0.063011493385, 0.82783108884, 0, 0.141738038714, 0.11843896229, 0.163250890082, -0.0829048185769, -0.0547604865746, 0.185277532375, -0.0829048185769, 0, 0.0477651751088, 0, -0.201321565776, -0.116438227101, 0, 0, -0.00154585988606, -0.023627430262, -0.00154585988606, -0.0118055555556, -0.232210715122, -0.114849484789, 0, 0, 0.127393748853, -0.0672295313019, -0.0672295313019, 0.356893635891, -0.0672295313019, -0.0829048185769, -0.245408205979, 0.266084224741, 0.0557189528144, 0, -0.0537093401066, 0, -0.0537093401066, -0.053204858322, -0.0144634247417, -0.0368202464406, 0.0258037449323, 0, -0.00608481887314, 0.0398966239116, 0.0977507923874, 0, -0.0719234917939, 0.179693040168, 0, -0.119823093313, -0.00949492692547, 0.0352334390297, 0, 0, -0.0136316051001, -0.114849484789, 0.00748484848485, 0.0197566236201, 0.0395437510197, -0.033385840956, 0.0333578154943, 0, -0.0672295313019, 0, -0.208824101771, 0.0669875602803, -0.042819211957, 0, 0.0258037449323, 0, 0.0201400002915, -0.023627430262, -0.0672295313019, 0.0118999594876, -0.0605523522812, -0.429780558874, 0.0762113363347, -0.0768676821915, 0.140921130515, 0, 0, 0.0258037449323, 0.0241377448468, 0.140921130515, -0.0993662294037, 0.00880169766051, -0.0201358078464, 0.00190324842965, 0, -0.0925564997008, -0.053204858322, -0.290073548677, 0.0258037449323, 0.182433390622, 0.0193873834641, 0.178828687795, 0.00748484848485, 0, 0.013736122115, 0.261293658029, -0.053204858322, 0, -0.162005991404, 0.0145886505163, 0, 0.140921130515, -0.0672295313019, -0.042819211957, -0.118119589719, 0, 0.10074919365, 0.037156095663, -0.038004911495, -0.0672295313019, 0.00793134549223, 0.00990224496313, -0.00154585988606, -0.00154585988606, 0, -0.116137904975, -0.0387032602588, -0.0164538910868, 0, 0, 0, -0.033385840956, -0.0664834395177, 0.00990224496313, 0, -0.120639532648, 0.0326421599963, 0.0227437510197, -0.116438227101, -0.153155801201, 0, -0.00154585988606, 0, 0.086391184573, -0.317144120224, -0.030772988302, 0.0162063993546, 0.163144733807, -0.033385840956, 0, 0, 0.482754354244, 0.140921130515, -0.136816467294, 0.0258037449323, -0.0763055311894, 0.0258037449323, 0.0764824872058, 0.0184801621055, -0.00154585988606, 0, 0.0258037449323, 0.0623496220751, 0.0920494016134, -0.119823093313, 0.00748484848485, -0.46056402995, 0, 0.0440819679796, 0.049003812868, 0.00677216660559, 0, 0.187177888653, 0, -0.452221899935, 0.0154161939771, -0.0151690465527, 0.00793134549223, -0.033385840956, -0.0993662294037, 0.0258037449323, 0.00990224496313, -0.0284689149415, -0.0220002290889, 0, 0.0294984062836, -0.0672295313019, 0.237732845431, 0.0345886505163, 0, -0.114849484789, -0.114849484789, -0.0771356926912, -0.0368202464406, -0.225485139659, 0.00793134549223, -0.147519402119, 0.01446966117, 0.0232000296902, 0, 0.0398966239116, -0.57782372525, -0.00162023170762, -0.0537093401066, 0, 0.0258037449323, 0, 0.0258037449323, -0.0675435007055, -0.119823093313, -0.038004911495, -0.00154585988606, 0.0154161939771, -0.163601901832, -0.167598511161, -0.042819211957, -0.00154585988606, -0.033385840956, -0.616089017453, 0, -0.116438227101, -0.0699182223306, -0.0458171576554, -0.00427043622149, -0.0704052141932, 0.0349955525376, -0.00427043622149, 0.0100675675676, 0.0072104144335, 0, 0.0477134478314, 0.0526386317992, 0, 0, -0.00306353003966, 0.00768966610313, -0.00306353003966, 0.00377777777778, -0.103896888062, -0.0317507183282, 0, 0, -0.0160493556647, -0.0292931873405, -0.0292931873405, -0.173970363077, -0.0292931873405, -0.00427043622149, -0.190249964557, -0.0476481108224, 0.0107367594457, 0, 0.031337765345, 0, 0.031337765345, -0.02405149731, 0.0182961365362, 0.0102731242778, -0.00360036762751, 0, -0.0586361744904, -0.00553100936874, -0.0472299749669, 0, -0.00738097107095, -0.0469731796929, 0, -0.00112783271251, 0.00281349479874, 0.103572400762, 0, 0, -0.00436128974517, -0.0317507183282, 0.00548484848485, -0.00830954873061, -0.0105001426448, 0.00799908546081, 0.0134414131531, 0, -0.0292931873405, 0, 0.0291711486769, -0.000661030780156, -0.0236323255915, 0, -0.00360036762751, 0, 0.00277853936187, 0.00768966610313, -0.0292931873405, 0.0300841791947, 0.0258008822819, -0.173490069994, 0.0068195655546, 0.0581780620328, -0.00157840299279, 0, 0, -0.00360036762751, 0.0149000805366, -0.00157840299279, -0.0328174898203, -0.00439562530303, 0.0141422312496, 0.018368247423, 0, 0.00368561643418, -0.02405149731, 0.0116582692966, -0.00360036762751, -0.0372925951587, -0.0018220956582, 0.0264951640404, 0.00548484848485, 0, 0.00264145669502, -0.0517578908779, -0.02405149731, 0, 0.0286727143586, -0.011760719808, 0, -0.00157840299279, -0.0292931873405, -0.0236323255915, 0.0214915413394, 0, -0.00488134326561, 0.0394091144569, 0.01640463482, -0.0292931873405, 0.00254449263369, 0.052271124027, -0.00306353003966, -0.00306353003966, 0, 0.0211432994754, 0.0283968281321, -0.0213096508943, 0, 0, 0, 0.00799908546081, 0.0962824264141, 0.052271124027, 0, 0.167194559282, 0.00499342805366, 0.00209985735523, 0.0526386317992, 0.0158107050532, 0, -0.00306353003966, 0, -0.000674931129477, -0.0361364297848, 0.00601325771003, 0.0123555879029, -0.0196078470029, 0.00799908546081, 0, 0, -0.0380655228228, -0.00157840299279, -0.0400327498758, -0.00360036762751, 0.0012481567694, -0.00360036762751, -0.00347452557889, 0.0061655126939, -0.00306353003966, 0, -0.00360036762751, 0.00656146362739, -0.00712325492062, -0.00112783271251, 0.00548484848485, -0.0105380306984, 0, 0.00316367320504, 0.00162601987272, 0.0638585280546, 0, -0.041488331208, 0, -0.138325248762, 0.00802934111854, 0.000729373186716, 0.00254449263369, 0.00799908546081, -0.0328174898203, -0.00360036762751, 0.052271124027, -0.114390502717, 0.00631165965522, 0, -0.0404931806535, -0.0292931873405, -0.0368373472548, -0.016760719808, 0, -0.0317507183282, -0.0317507183282, 0.0497481794834, 0.0102731242778, -0.0340887585669, 0.00254449263369, -0.0535864817445, 0.015833369133, -0.0192783204908, 0, -0.00553100936874, -0.163276907279, -0.0305467734908, 0.031337765345, 0, -0.00360036762751, 0, -0.00360036762751, 0.0403332032041, -0.00112783271251, 0.01640463482, -0.00306353003966, 0.00802934111854, 0.0567475217038, 0.00447982015128, -0.0236323255915, -0.00306353003966, 0.00799908546081, -0.0473858467264, 0, 0.0526386317992, 0.0125517116622, -0.171042076816, 0.0286884273663, 0.148943493342, 0.108450352997, 0.0286884273663, 0.0302027027027, -0.0401962506948, 0, 0.116037273844, 0.030767692949, 0, 0, 0.0128484611514, -0.00286348267117, 0.0128484611514, -0.017, 0.0358621643586, 0.0313695225038, 0, 0, -0.0457291401337, 0.0148219719564, 0.0148219719564, -0.179337323763, 0.0148219719564, 0.0286884273663, 0.265883472019, 0.0187528594659, 0.104095533043, 0, -0.0415811341738, 0, -0.0415811341738, -0.0298935824459, 0.0112783238037, -0.0160693885663, -0.0167865492079, 0, -0.177117308307, -0.0174976773512, -0.0352296632393, 0, -0.0367809710709, 0.0197170467937, 0, 0.0300388756188, -0.0387251194504, 0.0581611279492, 0, 0, 0.0371908686783, 0.0313695225038, 0.0183939393939, -0.0155632464622, -0.0540985637732, 0.0360898630586, -0.0238399205676, 0, 0.0148219719564, 0, 0.0349181196524, -0.0507722388185, -0.0408001895171, 0, -0.0167865492079, 0, -0.00193443088898, -0.00286348267117, 0.0148219719564, -0.0172488911038, -0.0598517650344, 0.244310393293, -0.0207938627221, 0.187002520859, 0.00633991230894, 0, 0, -0.0167865492079, -0.043059733366, 0.00633991230894, 0.0100466614581, -0.0223750433922, 0.00353926524742, 0.0420800539902, 0, -0.105430530011, -0.0298935824459, 0.0404439734883, -0.0167865492079, 0.083092198599, 0.000199596118821, 0.0912566655247, 0.0183939393939, 0, 0.0235947221451, -0.197928493323, -0.0298935824459, 0, -0.145911098405, -0.0319312747969, 0, 0.00633991230894, 0.0148219719564, -0.0408001895171, 0.236533047855, 0, -0.0344411600224, -0.0405336511965, -0.0167143711344, 0.0148219719564, -0.00614472251048, 0.122466388601, 0.0128484611514, 0.0128484611514, 0, -0.0396369857943, -0.0385167861171, -0.127408248685, 0, 0, 0, 0.0360898630586, 0.162554173891, 0.122466388601, 0, -0.0661004148144, 0.00771466529597, -0.0120985637732, 0.030767692949, 0.138186361665, 0, 0.0128484611514, 0, -0.000964187327824, 0.0382327987077, 0.0197686635945, -0.0369150108555, -0.157260105515, 0.0360898630586, 0, 0, 0.0513872827019, 0.00633991230894, 0.02418908306, -0.0167865492079, -0.0110381683647, -0.0167865492079, -0.0120471193681, -0.0470416843349, 0.0128484611514, 0, -0.0167865492079, 0.0132197310424, -0.132783827418, 0.0300388756188, 0.0183939393939, 0.432395126477, 0, -0.0464660812872, -0.025417870155, -0.0117613042315, 0, 0.0381109861877, 0, -0.02703087845, 0.0122492168835, 0.00531450381879, -0.00614472251048, 0.0360898630586, 0.0100466614581, -0.0167865492079, 0.122466388601, -0.1271680581, 0.150755655848, 0, -0.116383004613, 0.0148219719564, -0.248520976239, -0.0360489218557, 0, 0.0313695225038, 0.0313695225038, -0.0513275969279, -0.0160693885663, 0.0327722789255, -0.00614472251048, 0.0796724382272, 0.0345369099752, 0.00160504853677, 0, -0.0174976773512, 0.0228025222077, 0.0391542150263, -0.0415811341738, 0, -0.0167865492079, 0, -0.0167865492079, -0.0614343895368, 0.0300388756188, -0.0167143711344, 0.0128484611514, 0.0122492168835, 0.0147036074617, -0.136176165324, -0.0408001895171, 0.0128484611514, 0.0360898630586, 0.27009231142, 0, 0.030767692949, 0.0295043556494, -0.101163851136, 0.0530393863673, 0.132238403253, -0.57407514175, 0.0530393863673, 0.00503378378378, 0.00616926722482, 0, 0.17373264874, -0.0158294464657, 0, 0, -0.0358537181815, 0.0227472527473, -0.0358537181815, 0.0273439153439, 0.730198592199, 0.0421672910612, 0, 0, 0.0662965457353, 0.0519325275833, 0.0519325275833, 0.112542751825, 0.0519325275833, 0.0530393863673, 0.222074013175, -0.124645785142, 0.295932687441, 0, 0.0494415490032, 0, 0.0494415490032, 0.0600185186862, -0.107483194128, 0.0132845079872, 0.0260286708732, 0, 0.307176808374, -0.00370321345657, -0.181452257039, 0, 0.00608465124288, -0.14543366393, 0, 0.195915795875, 0.018986956131, -0.121739237005, 0, 0, -0.00471671176389, 0.0421672910612, -0.0169878787879, 0.00585151752674, -0.0212592218282, -0.00809264742244, 0.000409759716667, 0, 0.0519325275833, 0, 0.285264557282, 0.0209732251607, 0.0237533829619, 0, 0.0260286708732, 0, -0.0095547309833, 0.0227472527473, 0.0519325275833, 0.00266575562742, 0.0364215113005, 0.499901570037, 0.0188834082773, 0.0262766461309, 0.0128894965747, 0, 0, 0.0260286708732, 0.0289165199721, 0.0128894965747, 0.126812631925, -0.00461893596357, 0.0276373511487, -0.0254262067564, 0, 0.411855830757, 0.0600185186862, 0.333118535564, 0.0260286708732, 0.136932565484, -0.156152946116, -0.0226342597217, -0.0169878787879, 0, -0.00144194098602, 0.0360096270705, 0.0600185186862, 0, 0.198122045317, 0.0219325275833, 0, 0.0128894965747, 0.0519325275833, 0.0237533829619, 0.0688038431884, 0, -0.0583959607093, 0.048474711233, 0.165915795875, 0.0519325275833, -0.0343176499237, 0.0543199162139, -0.0358537181815, -0.0358537181815, 0, 0.0365392441151, 0.0281175683759, 0.234487224446, 0, 0, 0, -0.00809264742244, -0.0840431049571, 0.0543199162139, 0, 0.550999420323, 0.0812726401455, -0.0212592218282, -0.0158294464657, 0.17690962792, 0, -0.0358537181815, 0, 0.0207878787879, 0.0718134848062, 0.0137806451613, 0.0632341698958, -0.159315125857, -0.00809264742244, 0, 0, -0.278193127713, 0.0128894965747, -0.00408005017261, 0.0260286708732, 0.0721442257909, 0.0260286708732, 0.00198626902974, 0.0420699133017, -0.0358537181815, 0, 0.0260286708732, -0.105497226255, 0.067576913146, 0.195915795875, -0.0169878787879, 0.448318927751, 0, 0.0962612254789, 0.0863999893072, 0.106904913519, 0, -0.162421542718, 0, 0.810808964432, -0.0513055287116, 0.0212634684523, -0.0343176499237, -0.00809264742244, 0.126812631925, 0.0260286708732, 0.0543199162139, 0.271263207893, 0.116717207204, 0, 0.105116857056, 0.0519325275833, 0.141695315932, -0.0035968841814, 0, 0.0421672910612, 0.0421672910612, 0.0793608116191, 0.0132845079872,