0.036329854187, 0.003125, 0.0470799344375, 0.0754976904991, 0.003125, 0.00223723723724, 0.00317688894769, 0, -0.0356771164048, 0.0162414965986, 0, 0, 0.0010358056266, 0.00195652173913, 0.0010358056266, 0.0134385964912, -0.00200028469908, 0.0102128218257, 0, 0, -0.0883274931861, 0.00603571428571, 0.00603571428571, 0.148372930817, 0.00603571428571, 0.003125, 0.367506126979, 0.0127878787879, -0.064601771787, 0, 0.0039039039039, 0, 0.00557057057057, 0.00210526315789, 0.0463768408544, 0.00173913043478, 0.00114285714286, 0, -0.122633398571, 0.00105604921394, -0.137203201707, 0, 0.00247058823529, 0.0127878787879, 0, 0.00603571428571, 0.00166666666667, 0.0368695159223, 0, 0, 0.00147108843537, 0.0102128218257, 0.000833333333333, -0.0792036910458, 0.00973418464309, 0.00619047619048, -0.00835198209719, 0, 0.00603571428571, 0, 0.061086633863, 0.0275177810255, 0.00558352402746, 0, 0.00114285714286, 0, 0.00105604921394, 0.00195652173913, 0.00603571428571, 0.0102819333766, -0.00525735294118, -0.037465988152, -0.505260032669, 0.103498103658, 0.0225471927902, 0, 0, 0.00228571428571, 0.00513341068682, 0.0225471927902, 0.0128517607173, -0.216655705761, -0.124166197619, 0.00195596518177, 0, 0.0908239981763, 0.00210526315789, -0.0379893937478, 0.00114285714286, -0.112906293641, -0.0292819004525, 0.0439453654117, 0.000833333333333, -0.237548459384, -0.0691411564626, 0.0441506027056, 0.00210526315789, 0, 0.0101396791071, -0.06825, 0, 0.0225471927902, 0.00603571428571, 0.00732265446224, 0.122549962658, 0, 0.00548315918837, 0.0416231884058, -0.143964285714, 0.00175, 0.000977982590886, 0.0279532513309, 0.0010358056266, 0.0010358056266, 0, 0.00470782547253, 0.0116666666667, 0.00603571428571, 0, 0, 0, 0.00619047619048, 0.1169928405, 0.0279532513309, 0, 0.082308239087, 0.042783617925, -0.0742658153569, 0.0162414965986, 0.0234109483159, 0.0548692427802, 0.0010358056266, 0, 0.0155499108734, -0.0239061977359, 0.00296666666667, 0.00415542809593, 0.0193184196756, 0.00619047619048, 0, 0, 0.0967742530345, 0.0225471927902, 0.0288873340665, 0.00114285714286, 0.0104804778555, 0.00228571428571, 0.0258511143588, 0.00105604921394, 0.0010358056266, 0, 0.00114285714286, 0.0166078431373, 0.116939081755, 0.0260199579832, 0.000833333333333, 0.0123225548364, 0, -0.480564957546, 0.0170114345114, 0.0463721046585, 0, -0.116378787879, 0, 0.231288136682, 0.00181131592422, -0.00217391304348, 0.000977982590886, 0.00147108843537, 0.0139946178601, 0.00114285714286, 0.0279532513309, 0.0813134398685, 0.0446114561767, 0, -0.329895978477, 0.00603571428571, 0.0823694890824, 0.00175, 0, 0.0102128218257, 0.0102128218257, 0.0328828828829, 0.00173913043478, 0.410418069483, 0.000977982590886, 0.0497739236891, -0.0522624667215, -0.222558995059, 0, 0.00105604921394, 0.318083865584, 0.0124137437584, 0.00557057057057, 0, 0.00114285714286, 0, 0.00114285714286, -0.238796576136, 0.00603571428571, -0.173964285714, 0.0010358056266, 0.00181131592422, -0.20689399317, -0.00404556387773, 0.00558352402746, 0.0010358056266, 0.00619047619048, 0.136635963162, 0, 0.0162414965986, 0.0173534532889, 0, 0.214306343308, -0.177466358127, 0.246829054766, 0.34370356109, 0.430443056889, -0.384824896779, -0.326831319529, 0.0903523539409, 0.27174124283, -0.189059958371, -0.299196190255, 0.0157044419341, -0.326983912195, 0.152216887005, 0.0872176003342, 0.0764965118989, 0.135761217781, -0.0338323355822, -0.326577300939
0.176173980622, 0.0138926301144, 0.0919859526034, 0.133259983163, 0.0140709752015, -0.0764599923592, 0.0066592009441, 0, -0.581510549097, 0.0341868938055, 0, 0, 0.002491080763, 0.00195652173913, 0.00260556511821, -0.231170969206, 0.140794570736, 0.0118075419135, 0, 0, -0.236464555158, 0.00800173666325, 0.00800720738899, 0.162194974625, 0.00800181660556, 0.0137982036915, -0.0954517697564, 0.0888354692762, -0.402848352223, 0, 0.0139775078175, 0, 0.0178836977359, 0.00380519126005, 0.15702769489, 0.00311975963431, 0.00213723284625, 0, -0.350101989994, 0.00762857277919, -0.488570578787, 0, 0.010950555339, 0.0892349418019, 0, 0.00800181660556, 0.00386421626848, 0.103060103312, 0, 0, 0.00280380612305, 0.0118075419135, 0.000833333333333, -0.0729039505631, 0.0419259903231, 0.00742661188049, 0.00356727493296, 0, 0.00809485119086, 0, 0.202303598759, 0.0394142929984, 0.014276556112, 0, 0.00213723284625, 0, -0.120071262806, 0.00195652173913, 0.00806022401366, 0.0235477514934, 0.000184598155574, 0.0324487428045, -0.446974044228, 0.172340395368, 0.0240056388415, 0, 0, 0.0042746677298, 0.00867251031729, 0.0240056388415, 0.0232799122768, -0.213071177408, -0.286650817438, 0.00514273249439, 0, -0.119415228551, 0.00377426301173, 0.160515524821, 0.00213723284625, -0.0925295929879, 0.0615810168531, 0.0718184314793, 0.000833333333333, -0.218227937247, -0.0678624660213, -0.0315224578854, 0.00379050993399, 0, 0.178211808391, -0.0661631566199, 0, 0.0240056388415, 0.00807027766316, 0.0177067181686, 0.11782327202, 0, 0.0319902701959, 0.0437401018056, -0.129060446059, 0.00386981014283, 0.0025711658782, 0.0295508030316, 0.00249111773016, 0.00249111773016, 0, 0.0212119906322, 0.0137772480193, 0.0214057370541, 0, 0, 0, 0.00742661188049, 0.12858795741, 0.0295508030316, 0, 0.318227100809, 0.0705313886067, -0.0428821994925, 0.0336199968939, -0.0772949347704, 0.557531803223, 0.00255998208004, 0, 0.0155499108734, -0.627831137292, -0.0640384260932, 0.00596227830693, 0.129768844616, 0.00748510495592, 0, 0, -0.544140072536, 0.0240056388415, 0.0694873423325, 0.00213723284625, 0.014230767444, 0.00435290075765, 0.0357421180051, 0.00388135821423, 0.00249111773016, 0, 0.00213723284625, 0.0270240828118, 0.429642948851, 0.0654022732587, 0.000833333333333, -0.57299694274, 0, -0.0785599367891, 0.0453875221409, 0.0590621652061, 0, -0.0404886856226, 0, 0.507933411442, 0.00340906560185, 0.00259350807765, 0.00257123066014, 0.00275746008039, 0.0276084802681, 0.00213723284625, 0.0295508030316, 0.233641765609, 0.0708306993786, 0, -0.325079375971, 0.00800181660556, -0.534623999942, 0.00383124262083, 0, 0.0118075419135, 0.0118075419135, 0.0886166488165, 0.00304701410429, 0.889778142691, 0.00269652548838, 0.103612852437, -0.085696279226, -0.205637686963, 0, 0.00744764990186, 0.16118886359, 0.0172950382461, 0.0181595312158, 0, 0.00213723284625, 0, 0.00213723284625, -0.229973150873, 0.0208169462305, -0.159461319542, 0.0025343509877, 0.00346017940492, -0.128011431042, -0.0831809116898, 0.0146296913723, 0.00255260110563, 0.00742661188049, 0.954999447614, 0, 0.0340539531099, -0.0460577555988, 0, -0.015900542845, 0.902257262986, 0.322728516243, -0.408450449978, 0.303113110648, -0.670545007004, -0.706044389223, 0.465617054301, 0.295945669805, -0.0376429210181, -0.336677613879, -0.248078153194, -0.598490560491, -0.0513114242326, -0.0327743264662, 0.196381270162, 0.347112015898, 0.165301665011, 0.107458823278
0.199347111869, 0.0262825913138, 0.0070875518004, 0.0201445386577, 0.0262551424216, -0.0742247434518, 0.0102818007099, 0, -0.507692123319, 0.0360688046121, 0, 0, 0.00370557447051, 0.00543212103697, 0.00394903332823, -0.206477753629, 0.388009641947, 0.0118075419135, 0, 0, -0.22081830802, 0.00987640856454, 0.0099316098311, 0.184004341924, 0.0100136141125, 0.0258965910456, -0.598496788255, 0.124579814226, -0.683984661083, 0, 0.0177243279967, 0, -0.0426790660312, 0.00596751415411, 0.22703730408, 0.00462344870998, 0.00492087145172, 0, -0.335185045528, 0.00841580760905, -0.465733483009, 0, 0.0133340954016, 0.168295938156, 0, 0.0100136141125, 0.00945600588855, 0.144582561135, 0, 0, 0.00471688661743, 0.0118075419135, 0.00251506348223, -0.0721230300744, 0.0593252208406, 0.00930349337302, 0.0198478984054, 0, 0.0101554636054, 0, 0.11503854963, 0.0502157717898, 0.0193882627512, 0, 0.0111945294993, 0, -0.119294017037, 0.00543212103697, 0.010083703868, 0.0342592215249, 0.000184598155574, -0.0127168903346, -0.0639477565884, 0.205520096122, 0.0253258993412, 0, 0, 0.00967939712696, 0.0156906138073, 0.0253258993412, 0.0508376220135, -0.296474049927, -0.275510078906, 0.00514273249439, 0, -0.292993353789, 0.00594082485169, -0.0897404603142, 0.00492087145172, -0.251190459052, -0.0303771471179, 0.0823431505894, 0.00249707275261, -0.209303122835, -0.0660256027075, -0.0898057591059, 0.00580431345628, 0, 0.226936104144, -0.0642666355729, 0, 0.0253258993412, 0.0100118182075, 0.024446100615, -0.0831576437028, 0, 0.0449616743253, 0.0979074740575, -0.113443919533, 0.00592050939292, 0.0025711658782, 0.0295508030316, 0.00380854080598, 0.00380854080598, 0, 0.0254094636647, 0.0194555889768, 0.0370261924019, 0, 0, 0, 0.00930349337302, 0.132901619366, 0.0295508030316, 0, 0.366970001512, 0.00697583666865, -0.0260990789697, 0.0355018010186, -0.09117716335, 0.903030882206, 0.0039093682754, 0, 0.0469396876778, -0.603053455979, -0.059957910747, 0.01294068033, 0.135630435516, 0.00940752106974, 0, 0, -0.644756663887, 0.0253258993412, 0.114606625665, 0.00492087145172, 0.0213698721182, 0.0101092634955, 0.041308540154, 0.0046873851716, 0.00380854080598, 0, 0.00492087145172, 0.0270240828118, 0.673266139337, 0.0849999554778, 0.00267373433052, -0.606409175196, 0, -0.0900776185457, 0.0614455277274, -0.0682932348086, 0, 0.055647930334, 0, 0.1922584841, 0.00513585178268, 0.0241836928543, 0.00257123066014, 0.00465022172175, -0.0247316569033, 0.0111822355261, 0.0295508030316, 0.112307775074, 0.120895978517, 0, -0.242968964976, 0.0100136141125, -0.485970457669, 0.00588596042388, 0, 0.0118075419135, 0.0118075419135, 0.104776452098, 0.0044655924374, 0.704821403975, 0.00269652548838, 0.145370677983, -0.448631565929, -0.0883392219486, 0, 0.00823487048897, 0.419147500289, 0.0219474558757, 0.0276808828997, 0, 0.00492087145172, 0, 0.00492087145172, -0.286217963762, 0.0372868987873, -0.3152909456, 0.00385942222336, 0.0052023416988, -0.0814179237638, -0.0663934097364, 0.0197748084533, 0.00385168646433, 0.00930349337302, 1.67621361191, 0, 0.0359358388984, -0.193073214868, 0, 0.676655344392, 0.79517123228, -0.382130848238, -0.789658635299, 0.649573267776, -0.167284655472, -0.612016189669, 0.505096571855, 0.543113609268, 0.0180737103749, -0.117573646761, -0.127210426992, -0.569791784693, -0.945118267588, 0.150055673208, 0.364042721811, 0.516695659831, 0.0917852285597, -0.599478564644
0.0637249636035, 0.028660593401, 0.109475042317, -0.379434593258, 0.0286331379813, -0.0717949721943, 0.0123932875472, 0, -0.563529935735, 0.0424525848953, 0, 0, 0.00484412183596, -0.0533111411885, 0.00524070403334, -0.181441498135, 0.812854039493, 0.0127374700425, 0, 0, -0.192694472344, 0.0166179070644, 0.0173124432217, 0.316220814852, 0.0172352041252, -0.0517254986565, -0.532153486727, 0.168567387702, -0.63632266355, 0, 0.0215389850593, 0, -0.025312632098, 0.00845117664852, 0.387920725013, 0.0063150068899, 0.00602691384075, 0, -0.235100108018, 0.00841580760905, -0.375312196266, 0, 0.01647276654, 0.268550852114, 0, 0.0172207204181, 0.022157078249, 0.19997527842, 0, 0, 0.00631522910132, 0.0240414479549, 0.00891214346852, -0.0721230300744, 0.0679091332279, 0.0163280197741, 0.0166223326501, 0, 0.0169827679787, 0, -0.0755197575663, 0.0761175332052, 0.0297693487737, 0, 0.0123012659992, 0, -0.119294017037, 0.0120432834585, 0.0174084635217, 0.0484981399203, -0.00790886533907, -0.100267103638, 0.0490861978354, 0.271338315357, 0.0354156584012, 0, 0, 0.0118911482766, 0.0244460072735, 0.0349580079768, 0.0890963870488, -0.27333284752, -0.251182512574, 0.00700018520433, 0, -0.512388850804, 0.00818101601389, -0.298022384787, 0.00602691384075, -0.224390214357, 0.0163771791053, 0.107582193384, 0.00577859431749, -0.20659398457, -0.0645158571429, -0.341547403539, 0.00795501647178, 0, 0.202601329775, -0.0625800151864, 0, 0.0344395868253, 0.0174572897789, 0.0365991783949, -0.0685918820118, 0, 0.0491595467113, 0.151515448985, -0.0778676151401, 0.00788192931352, 0.00350299769359, 0.0414052069388, 0.00494852827263, 0.00494852827263, 0, 0.0303426939131, 0.0612648084605, 0.144317698362, 0, 0, 0, 0.0163949410471, 0.173768562752, 0.0668145322824, 0, 0.315692800243, -0.106859389507, -0.0176497049716, 0.0421100501973, -0.0869224266056, 1.14558500157, 0.00518398404162, 0, 0.0691713166656, -0.162165291036, -0.0564066169465, 0.0201286868003, -0.0290584925033, 0.0109855056448, 0, 0, -1.10172442473, 0.0348436254452, 0.0217467060938, 0.00602691384075, 0.0604408572292, 0.0124697216581, 0.0548366847717, 0.0046873851716, 0.00494852827263, 0, 0.00602691384075, 0.161424535908, 0.813286030128, 0.10248463781, -0.0639718047383, -0.455319089304, 0, -0.413539304321, 0.065088282239, -0.0334072649291, 0, 0.1681260757, 0, 0.537804789729, 0.013416805345, 0.0704326703072, 0.00350030027503, 0.00620356167876, 0.0363577182409, 0.0122889706654, -0.168287541827, 0.141778961814, 0.171433609898, 0, -0.217548830567, 0.0168842240706, -0.543179108484, 0.00765510261928, 0, -0.0472625299575, 0.0127374700425, 0.200027129703, -0.0646794036885, 0.533671487475, 0.00374921265895, -0.0443078328912, -0.36593347548, -0.0883392219486, 0, 0.00823487048897, 0.507753939729, 0.0403144751773, 0.0445954415113, 0, 0.00602691384075, 0, 0.00602691384075, -0.198107336217, 0.0439338438864, -0.551043323092, 0.00508100666115, 0.0128529896621, -0.0976994690835, -0.0856557648923, 0.029802149699, 0.0050804089579, 0.0107148065782, 0.871958521201, 0, 0.0421365051578, -0.170181607247, 0, 0.697130908895, 0.503021960942, -0.360826511139, -1.05748133776, 0.483392739852, 0.108159593357, -0.396067523175, 0.493579226856, 0.81785297857, -0.0822564949576, -0.54007579283, 0.25933568558, -0.572997712225, -0.760304160009, 0.32206737392, -0.0801218668803, 0.494385245927, -0.196242453814, -0.132551861108
-0.0366940969854, 0.0448407107752, 0.263333854698, -0.34698874849, 0.0460489428181, -0.0693861660188, 0.0163341165023, 0, -0.837053547542, 0.0439040821345, 0, 0, 0.00570323093131, -0.0478916570584, 0.00617882753121, -0.099835058571, 0.807175628673, -0.115103928209, 0, 0, -0.123665903082, 0.0180577150431, 0.018757099469, 0.105482331277, 0.0236641271091, -0.036611399978, -0.683487751146, 0.178573115356, -0.495781597305, 0, 0.0488271947389, 0, -0.00459341416824, 0.0103129531655, 0.392890494827, 0.0063150068899, 0.00715301958969, 0, -0.160269533386, 0.013736939057, -0.272620222226, 0, 0.0189925765689, 0.279221983672, 0, 0.0232400304459, 0.0289901314402, 0.201449821067, 0, 0, 0.00785337284313, 0.0340294816756, 0.0098356118213, -0.0671792844697, 0.0821857908841, 0.0177757299887, 0.0363918729995, 0, 0.0229671037187, 0, -0.0507147597107, 0.128703832455, 0.0369447085111, 0, 0.0134280785283, 0, -0.117358685383, 0.0170631155376, 0.024016229999, 0.102611859746, -0.00790886533907, -0.367058555055, -0.0354914492768, 0.37028984405, 0.077582783602, 0, 0, 0.0141153766564, -0.0807773745634, 0.075270276054, 0.139817191302, -0.226695781469, -0.794823087785, 0.0138592341647, 0, -0.43383587715, 0.00989202322142, -0.355613524593, 0.00715301958969, -0.424767166275, -0.0356851704256, 0.140309341082, 0.0067182525195, -0.188218322551, -0.0630130110859, -0.466074433632, 0.00955084670747, 0, 0.175420133347, -0.0612191215061, 0, 0.0796751682547, -0.0419534119798, 0.0383635260565, 0.313665949342, 0, 0.00247175171627, 0.27560696512, -0.251745955129, 0.0094807642575, 0.00666828202105, 0.0508007669829, 0.00823921186773, 0.0123247009943, 0, 0.0408123733369, 0.0822860406063, 0.180782092723, 0, 0, 0, 0.01784266095, -0.0524271852932, 0.0762339961669, 0, 0.027432491839, -0.0351071228058, -0.0824297035978, 0.0435614977184, -0.680924497577, 2.89942359257, 0.00826679627607, 0, 0.0931074648076, 0.212703256932, -0.0528583431461, 0.028662661102, 0.063859117091, 0.0125260604354, 0, 0, -1.52789705933, 0.079433785849, 0.0891537229695, 0.00715301958969, 0.067326014707, 0.0147949733599, 0.103809435447, 0.00677364010344, 0.0129263631952, 0, 0.00715301958969, 0.161424535908, 0.933266461098, 0.130197683717, -0.0629528962939, -0.3700146265, 0, -0.611981714664, 0.0837266457885, 0.0269829038762, 0, 0.179450382502, 0, 0.568192965525, 0.0177216605291, 0.104129286608, 0.00687413356657, 0.00765740948259, 0.0859432246544, 0.013415781809, -0.159086948564, -0.0321005802263, 0.331240744948, 0, -0.190024849489, 0.0235064073837, -0.431491306341, 0.00912446800359, 0, -0.0374254620996, 0.0160071829024, 0.24126719055, -0.0646794036885, 0.0713737301542, -0.0558613159497, -0.134551933876, -0.272008432894, 0.148135862252, 0, -0.0665087026454, 0.459648953897, 0.076530262274, -0.114679574716, 0, 0.00715301958969, 0, 0.00715301958969, -0.165545553443, 0.0502878626169, -0.743303931328, 0.00845823166226, 0.0172214616166, -0.0742805313953, -0.0509974240226, -0.0354481242452, 0.0085091735506, 0.0121617043902, 0.606636843903, 0, 0.0435879565188, -0.108573273965, 0, -0.2973560132, -0.0876030382177, -0.405642521058, -0.740338530245, 0.865362743421, -0.180780329688, -0.178585705694, 0.830281588202, 0.919763872829, 0.173469901317, -0.477561352858, 0.442736998989, -0.738934304112, -0.557017559407, 0.516151715855, -0.0951130020332, 0.333266762445, -0.0368297066996, -0.285271519846
0.0671884908771, 0.0623230787327, -0.0259426804406, -0.445339540568, 0.0629152085891, -0.0669813532175, 0.0212375081138, 0, -0.692181610287, 0.0499032771476, 0, 0, 0.00672879217933, -0.0465984376997, 0.00731729431008, -0.0819269824648, 1.05451392789, -0.11260733825, 0, 0, -0.0915776062102, 0.0180577150431, 0.018757099469, 0.25609880382, 0.0236641271091, -0.0196422565563, -1.18963492036, 0.1016906088, -0.14271625317, 0, 0.0508999187604, 0, -0.00227313208946, 0.0126375873912, 0.348426969708, 0.00934423562966, 0.0127268172928, 0, -0.146576844189, 0.0149123138827, -0.658950162874, 0, 0.0215538993221, 0.267741483603, 0, 0.0232400304459, 0.0289901314402, 0.0170880168209, 0, 0, 0.00900489362717, 0.0365635831469, 0.0110048312523, -0.0660133819583, 0.0927612930147, 0.0188031104272, 0.136736378333, 0, 0.0229671037187, 0, -0.291454323078, -0.0567708606503, -0.127114339899, 0, 0.019336541356, 0, -0.116198618646, 0.0231729840916, 0.024016229999, 0.107023549582, 0.00827945295128, -0.21780753855, 0.0199131339339, 0.407427528967, 0.0786047814598, 0, 0, 0.0166614876129, -0.0619307512714, 0.00629203760128, 0.177842353888, -0.180068194724, -0.791893024833, 0.0189443499479, 0, -0.372020962516, 0.0119391148846, -0.26599156035, 0.012540127612, -0.502301756349, -0.0403502328449, 0.152732345313, 0.00795447395402, -0.185982209062, -0.0619088611518, -0.419631985012, 0.0115304893926, 0, 0.208549892176, -0.0612191215061, 0, 0.0806973799761, -0.0419534119798, 0.0626643333897, 0.772862535322, 0, 0.00720656121019, 0.00566723589965, -0.251745955129, 0.0094807642575, 0.00908337243918, -0.016660877966, 0.00925414734214, 0.0133400512042, 0, 0.0453152594292, 0.0822860406063, 0.180782092723, 0, 0, 0, 0.0188700482649, -0.271193880849, 0.0787788152911, 0, 0.499617258235, -0.153155869596, -0.0719655782515, 0.0490836434309, -0.643250040789, 2.20405431981, 0.00934649454894, 0, 0.00434117967731, 0.546026530922, -0.0576773338723, 0.0453603911948, 0.154250489624, 0.013618421164, 0, 0, -1.64295874272, 0.0804559728963, 0.0977897509278, 0.0127773368226, 0.078838423517, 0.0174820994959, 0.156746821613, 0.00802314150843, 0.0139417744967, 0, 0.0132580500731, 0.214692412171, 0.891503541973, 0.130197683717, -0.0615901701279, -0.317701337864, 0, -0.432591723631, 0.10678727176, -0.174255204939, 0, 0.233351476317, 0, 0.610910311647, 0.0214045781469, 0.131907691253, 0.00940136293205, 0.00870345441253, 0.126875247285, 0.0188825691716, -0.156601315249, -0.215975749204, 0.507743564389, 0, -0.185582143185, 0.0235064073837, -0.385337557303, 0.00912446800359, 0, -0.0349094034967, 0.0185367214533, 0.243478254827, -0.0585851109492, 0.282161498361, -0.0530436370197, -0.0803908188655, -0.153361456826, 0.166837028979, 0, -0.0653427219481, 0.257251479608, 0.0785740428659, -0.11258646615, 0, 0.00841840297245, 0, 0.0128181419981, -0.268491596672, 0.0502878626169, -0.743303931328, 0.00949872100229, 0.021259201434, 0.0565234688438, -0.243747627698, -0.0215499841425, 0.00960882620169, 0.0131885082166, 0.767666000738, 0, -0.0603683751104, -0.103475478976, 0, 0.0369663167146, -0.438841033738, -0.967632449727, -0.222390497963, 1.19542809587, -0.932816021489, 0.0496807769965, 1.15099735595, 0.941531713762, 0.438926247814, -0.254734365914, 0.0116170930063, -0.422256837185, -0.641135982876, 0.41208886993, 0.0770408083665, 0.506944562113, -0.345988040133, -0.595426611497
-0.0946774317582, 0.0705483924309, -0.163512593426, -0.259097277877, 0.071141009347, -0.0642362356139, 0.0244265862711, 0, -0.832399069785, 0.0511232827125, 0, 0, 0.00795261372368, -0.0465984376997, 0.00868976420332, -0.0326446809653, 1.09089792366, -0.108658270245, 0, 0, -0.0577156833323, 0.020248816693, 0.0209853720087, 0.331206979931, 0.0258188198153, -0.0114840863697, -1.38455301165, 0.0610948778732, -0.0234062006856, 0, 0.0741651967615, 0, 0.00979897833689, 0.0153750624036, 0.420736867833, 0.0110662838031, 0.0139754334718, 0, 0.0130728154056, 0.0159448875055, -0.732422518826, 0, 0.0242388763373, 0.308738575385, 0, 0.0253946317742, 0.0308082636006, 0.0639801225221, 0, 0, 0.0104582142931, -0.0897298921202, 0.0120989118309, -0.0649891307889, 0.103316485994, 0.0200193276485, 0.127370190855, 0, 0.0253727426415, 0, -0.286028170514, -0.041331683152, -0.106114621092, 0, 0.0205859831086, 0, -0.115179494829, 0.0231729840916, 0.0262254227661, 0.139346089211, 0.00122905327526, -0.393378940886, 0.0755642257946, 0.417049961001, 0.0897304309666, 0, 0, 0.0192429395642, -0.0585879854331, 0.0171323483348, 0.183953341076, -0.168418477418, -0.763913485951, 0.0235494305346, 0, -0.367402214125, 0.0141439661767, -0.218438522347, 0.0137887204808, -0.803323019856, -0.0259594141733, 0.183821384599, 0.00910107629357, -0.149043671284, -0.0605745358737, -0.404923543569, 0.0139058360742, 0, 0.235915582577, -0.0590014375149, 0, 0.0899495805936, -0.039678842638, 0.0765759214155, 0.326660394627, 0, 0.0105190087361, 0.0157809484249, -0.249649795108, 0.0120543888487, 0.0100333116159, 0.0179785979962, 0.0104018017028, 0.0144881745813, 0, -0.0373767063015, 0.117452985344, 0.182970906875, 0, 0, 0, 0.0200862736272, -0.185963050013, 0.112333500512, 0, 0.631331436817, -0.126232020509, -0.0614931034413, 0.0503035490042, -0.596518389694, 2.29486055168, 0.0106279115851, 0, 0.0158185403341, 0.521797603596, -0.0538939521931, 0.0478738219212, 0.275926863719, 0.0149756758575, 0, 0, -1.91769905406, 0.0908983066136, 0.140684238432, 0.0140259593095, 0.0918905598364, 0.0202255184343, 0.169554488774, 0.00917526015503, 0.0150899669611, 0, 0.0145067325844, 0.243788908804, 0.992205586079, 0.12840776158, -0.0603132853435, -0.151374510891, 0, -0.72322006293, 0.108292461356, -0.109945834201, 0, 0.274287441949, 0, 0.415559703497, 0.0234854768344, 0.12874032528, 0.0132028428161, 0.0100029577974, 0.134097955632, 0.0201319542043, -0.144638821234, -0.201098614269, 0.534992328601, 0, -0.122355510958, 0.0256610661064, -0.369651186883, 0.0111974197747, 0, -0.0310571306872, 0.0223324065953, 0.295956922468, -0.0569514897737, 0.288578555333, -0.0519338163189, -0.0576846327634, -0.059862421767, 0.211209982834, 0, -0.064318402084, 0.336522117129, 0.0830518745669, -0.28259349678, 0, 0.00966648131166, 0, 0.01406676958, -0.140786358859, 0.0524482995632, -0.831552220686, 0.0106753910875, 0.0233962388181, 0.138065823625, -0.253289866036, -0.170778366228, 0.0108781790331, 0.0144040427719, 0.627775562171, 0, -0.059161748845, -0.0686442700537, 0, -0.506693420155, 0.0163999189721, -1.61739476706, 0.174103406347, 1.47728364968, -0.892218781052, 0.254882078505, 1.57312559874, 0.928077451661, -0.406434566653, -0.18386500719, 0.0963165036165, -0.221998704171, -0.743572661006, 0.526799149824, 0.0965056368753, 0.314505228092, -0.477200326561, -0.408620388458
-0.0709378720056, 0.0705483924309, -0.150815261816, -0.459063035373, 0.071141009347, -0.0642362356139, 0.0274340634013, 0, -0.667995864417, 0.0511232827125, 0, 0, 0.00888022246985, -0.0390985344397, 0.00973806296933, -0.025586144818, 1.33860214601, -0.107420530558, 0, 0, 0.00260103894606, 0.0247013037383, 0.0254551996633, 0.415875940465, 0.0301914192059, -0.0114840863697, -0.967386025157, 0.0901606502622, -0.0195975169104, 0, 0.0787050141853, 0, 0.0173709070578, 0.0178599039375, 0.476098027748, 0.0110662838031, 0.0148131135555, 0, 0.0371596039926, 0.0204535119514, -0.54379928075, 0, 0.0269661813735, 0.339239569212, 0, 0.0297670456883, 0.03491859087, 0.0639801225221, 0, 0, 0.0104582142931, -0.0884898073743, 0.0130670061394, -0.0607835741695, 0.119371304837, 0.0200193276485, 0.133196273643, 0, 0.0300730392384, 0, -0.227929708312, 0.0101484024473, -0.099296361846, 0, 0.0312818591629, 0, -0.110755826089, 0.0299421861165, 0.0305683140684, 0.0192079480683, 0.00122905327526, -0.392042508913, 0.243875395048, 0.35538156629, -0.100427210564, 0, 0, 0.0209766783683, -0.178368938705, 0.0336628944033, 0.220023848536, -0.118059027207, -0.748218261395, 0.0261438950696, 0, -0.253500051726, 0.01596721128, -0.0782388448686, 0.0177326384154, -0.741228114941, 0.00517390432802, 0.220324411083, 0.0101161513169, -0.134901750844, -0.0605745358737, -0.347706085828, -0.0639132501733, 0, 0.207261356338, -0.0544056137577, 0, 0.105766002933, -0.0351098096548, 0.0847637850114, -0.142255931183, 0, 0.0246842673854, -0.361380944762, -0.227959893057, 0.0173272420435, 0.0113094239403, 0.0258056869174, 0.011270073422, 0.0153568011812, 0, -0.0349780415235, 0.163605147351, 0.0377285475356, 0, 0, 0, 0.0200862736272, -0.155686821139, 0.11989755166, 0, 0.488126502308, -0.0611969213078, -0.0448939874935, 0.0503035490042, -0.593461696258, 1.6106696909, 0.0115613172279, 0, -0.196241859487, 1.05700535706, -0.050685682878, 0.0571193359711, 0.212826214513, 0.0149756758575, 0, 0, -2.03668518761, 0.136944799758, 0.171157116347, 0.0176434212243, 0.0951984934524, 0.0220758920954, 0.224451773122, 0.0104329795885, 0.0159586458359, 0, 0.0186177565846, 0.24612360877, 0.985710301992, 0.148197861936, -0.0591741594077, -0.0678234231866, 0, -0.78600778907, 0.127072734269, -0.0182772476896, 0, 0.213844121732, 0, -0.160702678031, 0.0257410893294, 0.162482908918, 0.0144557580138, 0.0100029577974, 0.00987920414343, 0.0297907183374, -0.136728801742, -0.143337786419, 0.628496652887, 0, -0.0748366225401, 0.0300335965182, -0.31192043277, 0.0150665049126, 0, -0.0298097486349, 0.0235864661723, 0.367803449578, -0.0569514897737, 0.367014546719, -0.0504306861213, -0.0108699381684, -0.338523935644, 0.00350153405287, 0, -0.0599495601484, 0.378973940423, 0.0929098242956, -0.275682651139, 0, 0.0105038005208, 0, -0.0450955426851, -0.120665284105, 0.056832558476, -0.80512186347, 0.0115377521693, 0.0257159223779, 0.195358929198, -0.308276406708, -0.163231266359, 0.0118316360053, 0.0144040427719, 0.843868041473, 0, -0.059161748845, -0.0540875747469, 0, -0.0706662958259, -0.374665486363, -1.00719859102, 0.0460557161607, 1.3744690227, -0.485989457372, 0.294042416526, 1.57540710022, 1.24111367841, -0.45642421606, -0.0738332089008, -0.396944642665, -0.222412254482, -1.14814599279, 0.256613928739, 0.0300361592476, 0.462370632452, -0.347965820139, -0.695862688841
-0.0400707217981, 0.143400118787, 0.00437872254091, -0.399208913262, 0.193096722163, -0.0533993687463, 0.0295929222834, 0, -0.782919068146, 0.0699745188682, 0, 0, 0.00888022246985, -0.0390985344397, 0.00973806296933, -0.025586144818, 1.69330429264, -0.107420530558, 0, 0, 0.0439485757047, -0.0630492708485, 0.0277384684757, 0.357412490451, 0.0407758137478, -0.24005653235, -1.25160403805, 0.127395825485, -0.154498218061, 0, 0.096007521262, 0, 0.0359900597872, 0.0178599039375, 0.552771872415, 0.0146664827992, 0.018857736422, 0, 0.0701609884973, 0.0241555583936, -0.700616990104, 0, 0.0296927248617, 0.380336277782, 0, 0.0391057043291, 0.03491859087, 0.125056012775, 0, 0, 0.0144189199729, -0.0884898073743, 0.0141896642986, -0.0571114802464, 0.0564852856774, -0.140706598019, 0.151499263683, 0, 0.0391327078557, 0, -0.279337771012, 0.0136846328424, -0.0927091197678, 0, 0.0356393153222, 0, -0.106912987191, 0.0299421861165, 0.0401794346347, 0.0373464801259, 0.0130663043699, -0.325938603078, 0.24766108421, 0.372742458056, -0.100427210564, 0, 0, 0.0262279474774, -0.173509144805, 0.0336628944033, 0.233260899479, -0.118059027207, -0.733606932474, 0.0261438950696, 0, -0.188254862967, 0.01596721128, 0.0985763190563, 0.0223578733627, -0.676860814606, 0.0197441729869, 0.238305761884, 0.0112979642122, -0.107300709868, -0.0570577993805, -0.303225155808, -0.0639132501733, 0, 0.264075552932, -0.0521131871352, 0, 0.105766002933, -0.0329124852039, 0.0147739142002, -0.33136062266, 0, 0.037468792948, -0.361380944762, -0.219182958046, 0.0199641988653, 0.0113094239403, 0.0258056869174, 0.011270073422, 0.0153568011812, 0, -0.0227212841443, 0.163605147351, 0.0467418010173, 0, 0, 0, 0.0283331635485, -0.141426807663, 0.11989755166, 0, 0.599447805365, -0.0996255560475, -0.0280410360526, 0.0685405813266, -0.621942040969, 1.42288545214, 0.0115613172279, 0, -0.190582327892, 0.55688683854, -0.0468759920635, 0.0622090704512, 0.0920183902067, 0.0236701520819, 0, 0, -1.9648278504, 0.136944799758, 0.230339296345, 0.0218185129415, 0.109020824591, -0.0461775526646, 0.227703434979, 0.0141609739569, 0.0159586458359, 0, 0.0226730198555, 0.261032288956, 0.99555134468, 0.182999696188, -0.0578665988376, -0.253027409858, 0, -0.651354745119, 0.138965771911, 0.00551533334662, 0, 0.251829604448, 0, -0.143138831232, 0.0268819974505, 0.167683808271, 0.0144557580138, 0.0186967864403, -0.12286070249, 0.0337774932011, -0.136728801742, -0.0963595211317, 0.661589844917, 0, 0.0302497674363, 0.0397537158304, -0.262859622992, 0.0171441450456, 0, -0.0298097486349, 0.0235864661723, 0.384139908478, -0.0534295470503, 0.418525142951, -0.0504306861213, 0.0324572995505, -0.527644387819, 0.0693018952297, 0, -0.0562771599548, 0.231219792273, 0.102415976603, -0.259109754112, 0, 0.015174698453, 0, -0.040827294703, -0.11163551791, 0.0665503919752, -0.796837158318, 0.0115377521693, 0.0268205528699, 0.289434898499, -0.293498055123, -0.156370823792, 0.0118316360053, 0.022920617146, 0.787172388965, 0, -0.041260707655, -0.0287255410789, 0, -0.341265169182, -0.233716434466, -0.679063910527, 0.536736112205, 1.28283732006, -0.234944414285, 0.151083172017, 1.62412351789, 1.37454230811, -0.54644374333, 0.19119259976, -0.357827956985, -0.173630228908, -1.82322919186, 0.263164231925, 0.0379733607991, 0.536848117812, -0.571526819636, -1.0368528714
-0.207356468825, 0.146312112733, 0.0671082006192, -0.146847048775, 0.19602322375, -0.0506566321842, 0.0322740111193, 0, -0.580881243086, 0.0806303198746, 0, 0, 0.0109630194675, -0.0374588774956, 0.0120706381841, -0.232063351518, 1.73936405475, -0.104278456209, 0, 0, -0.03365534894, -0.0656402798694, 0.0250266798138, 0.449177823192, 0.0383742799217, -0.237254086969, -1.29608800462, 0.13115185207, -0.0196409934596, 0, 0.0278629020923, 0, 0.0478679609878, 0.0228419931359, 0.607696504436, 0.0146664827992, 0.018857736422, 0, 0.151957542253, 0.0250515768023, -0.85060883917, 0, 0.0296927248617, 0.3841885212, 0, 0.0254124853867, 0.0425870695611, 0.134656307107, 0, 0, 0.0166733462466, -0.0854639721027, 0.0152018063484, -0.056222714006, 0.0687539503235, -0.13894642177, 0.18171723791, 0, 0.0363223455323, 0, -0.243636049014, 0.154427487379, -0.158291381123, 0, 0.0356393153222, 0, -0.106028636137, 0.0315932025385, 0.0376636604209, 0.0733663143115, 0.018566744171, -0.238908654713, 0.318926082578, 0.560034019586, -0.0616580601406, 0, 0, 0.0262279474774, -0.16244931064, 0.0714643182497, 0.244264805838, 0.130741444442, -0.688165240709, 0.0314813855583, 0, -0.146156886267, 0.0200609961101, 0.269310129833, 0.0223578733627, -0.631285429988, -0.0956653705168, 0.156628658082, 0.0123432089914, -0.107300709868, -0.0550364192, -0.259236599291, -0.0593270038977, 0, 0.352695835811, -0.0548979915022, 0, -0.0476325635594, -0.0354638828078, 0.0189218574772, -0.0799185258269, 0, 0.0402998570461, -0.517892657657, -0.233527574604, 0.0169419673071, -0.0168511915834, 0.0548522133529, 0.0149937997652, 0.0191948657174, 0, -0.0202645114864, 0.195118383824, -0.0225385431528, 0, 0, 0, 0.0301233466781, -0.164980033585, 0.168673893355, 0, 0.558694258229, -0.0526673746094, -0.0158318977687, 0.0794186870935, -0.59158487134, 0.88401942435, 0.0160546899288, 0, -0.17983617454, 0.604082864337, -0.0431955359377, 0.0717010572033, 0.107602246359, 0.0257644570052, 0, 0, -2.07192759189, -0.00517797769286, 0.252227920527, 0.0218185129415, 0.114555046156, -0.0461775526646, 0.00668490261308, 0.0152086519913, 0.0194594149718, 0, 0.0226730198555, 0.263859670464, 0.787120839144, -0.00803396324351, -0.0567041718444, -0.247167890941, 0, -0.891454798225, 0.202597925098, 0.00654523787802, 0, 0.186251848775, 0, -0.123605088599, 0.0298437814531, 0.170934888879, 0.0176856301529, 0.0206881844455, -0.112340575175, 0.0337774932011, -0.289037382494, -0.0486296575632, 0.720572033654, 0, 0.115052413828, 0.0373524274521, -0.288289846883, 0.014661006366, 0, -0.0265768378812, 0.0265427526942, 0.442272885064, -0.0534295470503, 0.397769344724, -0.0483160056244, -0.0262618091293, -0.763026542385, 0.0693018952297, 0, -0.0553883195597, -0.0388470656893, 0.108826208381, -0.333024593841, 0, 0.015174698453, 0, -0.040827294703, -0.0423055647736, 0.0503651616074, -0.861260936577, 0.0157465559841, 0.0296240947929, 0.320257758755, -0.265960628187, -0.151429680466, 0.0158717046852, 0.024709831593, 1.33960998648, 0, -0.0322538325319, -0.00963276019494, 0, 0.289629571909, -1.26771170112, -0.21004073253, 0.397993842219, 0.981925209078, -0.277129837742, 0.503113438649, 1.83547609105, 1.45663758976, -0.452072125125, 0.0155442724855, -0.197909709091, -0.165953895043, -1.65964109737, 0.172560487924, 0.0931767862013, 0.672122487996, -0.466419028337, -1.7213016509
-0.20059925544, 0.146312112733, 0.0689399864343, -0.125154965521, 0.19602322375, -0.0506566321842, 0.0357687889819, 0, -0.720778324877, 0.0806303198746, 0, 0, 0.0109630194675, -0.0360755221575, 0.0120706381841, -0.232063351518, 1.84898049716, -0.104278456209, 0, 0, -0.019236847654, -0.0656402798694, 0.0250266798138, 0.560727489025, 0.0383742799217, -0.237254086969, -1.65623792807, -0.0728799545019, -0.00331886625741, 0, 0.0298400894166, 0, -0.0187420349786, 0.0228419931359, 0.473255353087, 0.0168748289669, 0.0277058824955, 0, 0.19915392578, 0.0250515768023, -0.830193782121, 0, 0.0386762683539, 0.42322178568, 0, 0.0254124853867, 0.0444132219544, 0.136484174184, 0, 0, 0.0166733462466, -0.0854639721027, 0.0152018063484, -0.056222714006, 0.0793363112808, -0.13894642177, 0.18171723791, 0, 0.0363223455323, 0, -0.210338354598, 0.164890214712, -0.154451592238, 0, 0.0437398887372, 0, -0.106028636137, 0.0329861432895, 0.0376636604209, 0.0752596580802, 0.018566744171, -0.148668089037, 0.55768937316, 0.560034019586, -0.0616580601406, 0, 0, 0.0306181722442, -0.157418000243, 0.0714643182497, 0.258368505257, 0.137756220787, -0.688165240709, 0.0314813855583, 0, -0.107813801452, 0.0200609961101, 0.279912130509, 0.0311713883691, -0.682406379379, -0.0956653705168, 0.156628658082, 0.0123432089914, -0.100205166027, -0.0550364192, -0.23036038788, -0.0593270038977, 0, 0.266125032186, -0.0548979915022, 0, -0.0476325635594, -0.0354638828078, 0.0247235276681, 0.151765799853, 0, 0.0515243009623, -0.702870520852, -0.233527574604, 0.0169419673071, -0.0168511915834, 0.0548522133529, 0.0149937997652, 0.0191948657174, 0, -0.0117558530598, 0.214341788526, -0.0225385431528, 0, 0, 0, 0.0301233466781, -0.164980033585, 0.168673893355, 0, 0.664526477622, -0.258465009969, -0.00451060190805, 0.0794186870935, -0.529598510518, 0.659575106679, 0.0160546899288, 0, -0.17983617454, 0.809841194068, -0.0431955359377, 0.00702180287625, 0.107602246359, 0.0257644570052, 0, 0, -2.26790208298, -0.00517797769286, 0.268594385023, 0.0319499243514, 0.115958834159, -0.0414043136172, -0.0736847739414, 0.0152086519913, 0.0194594149718, 0, 0.0319416514011, 0.263859670464, 0.793144753634, -0.00803396324351, -0.0567041718444, -0.173861609718, 0, -0.818322880877, 0.210718002556, 0.026729029403, 0, 0.220430308079, 0, -0.0468312618067, 0.0298437814531, 0.179201974604, 0.0176856301529, 0.0206881844455, -0.0909291250345, 0.0428127607815, -0.289037382494, -0.021731691325, 0.780216340257, 0, 0.0398941285993, 0.0373524274521, -0.26210820125, 0.014661006366, 0, -0.0265768378812, 0.0265427526942, 0.461628592824, -0.0513338715304, 0.119735337723, -0.0483160056244, -0.0053625983877, -0.772936532987, 0.174198459241, 0, -0.0553883195597, 0.111239120779, 0.108826208381, -0.329631494038, 0, 0.0237576887971, 0, -0.0316802986712, -0.106065199369, 0.0503651616074, -0.861260936577, 0.0157465559841, 0.0296240947929, 0.353950839375, -0.265960628187, -0.147540117921, 0.0158717046852, 0.024709831593, 1.31909523657, 0, -0.0322538325319, -0.0078960020843, 0, 0.692149042975, -1.65306190623, -0.255507955541, 0.801654712148, 0.7335772338, -0.190046006773, 0.0326875848715, 1.90077034719, 1.6041290152, -0.333696503693, 0.137926733144, -0.0692358163163, -0.487178580004, -1.67047813343, 0.0860553383011, 0.156176551989, 0.735003092596, -0.405730518281, -1.81519423195
-0.20059925544, 0.146312112733, 0.0689399864343, -0.125154965521, 0.19602322375, -0.0506566321842, 0.0357687889819, 0, -0.720778324877, 0.0806303198746, 0, 0, 0.0109630194675, -0.0360755221575, 0.0120706381841, -0.232063351518, 1.84898049716, -0.104278456209, 0, 0, -0.019236847654, -0.0656402798694, 0.0250266798138, 0.560727489025, 0.0383742799217, -0.237254086969, -1.65623792807, -0.0728799545019, -0.00331886625741, 0, 0.0298400894166, 0, -0.0187420349786, 0.0228419931359, 0.473255353087, 0.0168748289669, 0.0277058824955, 0, 0.19915392578, 0.0250515768023, -0.830193782121, 0, 0.0386762683539, 0.42322178568, 0, 0.0254124853867, 0.0444132219544, 0.136484174184, 0, 0, 0.0166733462466, -0.0854639721027, 0.0152018063484, -0.056222714006, 0.0793363112808, -0.13894642177, 0.18171723791, 0, 0.0363223455323, 0, -0.210338354598, 0.164890214712, -0.154451592238, 0, 0.0437398887372, 0, -0.106028636137, 0.0329861432895, 0.0376636604209, 0.0752596580802, 0.018566744171, -0.148668089037, 0.55768937316, 0.560034019586, -0.0616580601406, 0, 0, 0.0306181722442, -0.157418000243, 0.0714643182497, 0.258368505257, 0.137756220787, -0.688165240709, 0.0314813855583, 0, -0.107813801452, 0.0200609961101, 0.279912130509, 0.0311713883691, -0.682406379379, -0.0956653705168, 0.156628658082, 0.0123432089914, -0.100205166027, -0.0550364192, -0.23036038788, -0.0593270038977, 0, 0.266125032186, -0.0548979915022, 0, -0.0476325635594, -0.0354638828078, 0.0247235276681, 0.151765799853, 0, 0.0515243009623, -0.702870520852, -0.233527574604, 0.0169419673071, -0.0168511915834, 0.0548522133529, 0.0149937997652, 0.0191948657174, 0, -0.0117558530598, 0.214341788526, -0.0225385431528, 0, 0, 0, 0.0301233466781, -0.164980033585, 0.168673893355, 0, 0.664526477622, -0.258465009969, -0.00451060190805, 0.0794186870935, -0.529598510518, 0.659575106679, 0.0160546899288, 0, -0.17983617454, 0.809841194068, -0.0431955359377, 0.00702180287625, 0.107602246359, 0.0257644570052, 0, 0, -2.26790208298, -0.00517797769286, 0.268594385023, 0.0319499243514, 0.115958834159, -0.0414043136172, -0.0736847739414, 0.0152086519913, 0.0194594149718, 0, 0.0319416514011, 0.263859670464, 0.793144753634, -0.00803396324351, -0.0567041718444, -0.173861609718, 0, -0.818322880877, 0.210718002556, 0.026729029403, 0, 0.220430308079, 0, -0.0468312618067, 0.0298437814531, 0.179201974604, 0.0176856301529, 0.0206881844455, -0.0909291250345, 0.0428127607815, -0.289037382494, -0.021731691325, 0.780216340257, 0, 0.0398941285993, 0.0373524274521, -0.26210820125, 0.014661006366, 0, -0.0265768378812, 0.0265427526942, 0.461628592824, -0.0513338715304, 0.119735337723, -0.0483160056244, -0.0053625983877, -0.772936532987, 0.174198459241, 0, -0.0553883195597, 0.111239120779, 0.108826208381, -0.329631494038, 0, 0.0237576887971, 0, -0.0316802986712, -0.106065199369, 0.0503651616074, -0.861260936577, 0.0157465559841, 0.0296240947929, 0.353950839375, -0.265960628187, -0.147540117921, 0.0158717046852, 0.024709831593, 1.31909523657, 0, -0.0322538325319, -0.0078960020843, 0, 0.692149042975, -1.65306190623, -0.255507955541, 0.801654712148, 0.7335772338, -0.190046006773, 0.0326875848715, 1.90077034719, 1.6041290152, -0.333696503693, 0.137926733144, -0.0692358163163, -0.487178580004, -1.67047813343, 0.0860553383011, 0.156176551989, 0.735003092596, -0.405730518281, -1.81519423195
-0.192283473885, 0.157886598198, 0.047183658278, -0.0849944085534, 0.207084674996, -0.0478176630441, 0.0379022310744, 0, -1.18971289521, 0.0881782248488, 0, 0, 0.0145359813122, -0.024096885843, 0.0133957808376, -0.219609836849, 1.63713431041, -0.104278456209, 0, 0, 0.0212566838589, -0.0592370764154, 0.0305276987094, 0.710594514896, 0.0441230540006, -0.226300068603, -2.06103003818, -0.191574637898, 0.0125701061044, 0, 0.0346004984527, 0, -0.0121390478136, 0.0252773400298, 0.555963771457, 0.0184379794306, 0.0285033427126, 0, 0.108890964374, 0.0260457245392, -0.815458089219, 0, 0.041668139112, 0.435123866984, 0, -0.10229209676, 0.0465039910098, 0.168387991557, 0, 0, 0.0188951718978, -0.0854639721027, 0.0160797464082, -0.0552366133888, 0.107581945329, -0.131438417336, 0.190277604212, 0, 0.0435645834741, 0, -0.106398991647, 0.196539218553, -0.145578084799, 0, 0.0488584009978, 0, -0.105047434674, 0.0448606296668, 0.0445546544025, 0.122208565585, 0.0159601427252, -0.229236329185, 0.395788274883, 0.577805171574, -0.0367745604994, 0, 0, 0.0323754597763, -0.144241653598, 0.0966812876461, 0.27062637029, 0.165392783728, -0.662728533968, 0.0314813855583, 0, -0.0267703636507, 0.0222663821962, 0.344701591386, 0.0319691249945, -0.942054528909, -0.0921102616477, -0.241218374505, 0.0132677330549, -0.0885649897355, -0.0465665451297, -0.195487564805, -0.0568950863606, 0, 0.263424255835, -0.0531145141626, 0, -0.0227141390881, -0.0294610056003, -0.0250588169301, 0.145928647903, 0, 0.0689893124911, -0.651683404529, -0.1742734238, 0.0187261158029, -0.0168511915834, 0.0548522133529, 0.0237861688795, 0.0340817289054, 0, -0.00632341319396, 0.216100180723, 0.136527629459, 0, 0, 0, 0.0378925200922, -0.16042390188, 0.168673893355, 0, 0.498958338209, -0.218211957741, -0.218244843136, 0.0876682340192, -0.428778869067, 0.503060667998, 0.0247621021112, 0, -0.163318566108, 0.738019641328, -0.0386033001833, 0.0217045954053, 0.114404019573, 0.0338592506876, 0, 0, -2.23861086942, 0.0198464617996, 0.305431378062, 0.0357719046176, 0.12658138508, -0.0395904669617, -0.0452607850599, 0.0164903246447, 0.0275453349034, 0, 0.0365629285267, 0.502077256843, 0.676133321923, 0.0209248008268, -0.0557193474889, -0.288219220645, 0, -0.826674901735, 0.212510685332, 0.0757723786538, 0, 0.232657446494, 0, -0.176039721567, 0.0307797230249, 0.185988695661, 0.0176856301529, 0.0278885357359, -0.0742009449284, 0.0470658768153, -0.289037382494, 0.0337278443512, 0.868609333993, 0, 0.0382214473061, 0.0432175275537, -0.203555373105, 0.016276765104, 0, -0.0265768378812, 0.0265427526942, 0.375206355404, -0.0499540561879, 0.145909401778, -0.0483160056244, 0.00354168233815, -0.659520611412, 0.175984607161, 0, -0.0544021366593, 0.734042361067, 0.159862814966, -0.323182093352, 0, 0.0245548342237, 0, -0.0308875602314, -0.51214256746, 0.0744044906946, -0.728257311415, 0.0251518864387, 0.030540826477, 0.304579053171, -0.243019849221, -0.13723945905, 0.0247611041249, 0.0329134453602, 1.68350626714, 0, -0.0255465241379, 0.0514506113604, 0, -0.407080568809, -1.33768471553, -0.0916337928777, 1.38252512683, 1.2260324217, 0.142198567235, 0.330612056647, 1.70574664527, 1.21948544328, -0.743894882254, 0.381009498839, -0.55625272352, -0.674651646611, -1.64490189196, 0.291965476743, -0.00586817236107, 0.719641567121, -0.43910562265, -1.4981427871
-0.143990379493, 0.168770768304, 0.209624625194, 0.180264702102, 0.217667082888, -0.0448967532262, 0.0427129199137, 0, -1.17022535068, 0.0899401868641, 0, 0, 0.0158742781359, -0.024096885843, 0.0148592734728, -0.371066523991, 1.40626328753, -0.162361034452, 0, 0, 0.0538798052428, -0.0572832971012, 0.0327185894649, 0.813212926145, 0.0459410821979, -0.215222052584, -2.39172873579, -0.301515369476, 0.0213668350279, 0, 0.0370357950587, 0, -0.00968623734732, 0.0278058803957, 0.644453574341, 0.0198992301295, 0.0294414318233, 0, 0.0255573532753, 0.0272944386679, -0.714423986173, 0, 0.0444247738955, 0.479018999202, 0, -0.0910751940362, 0.0465039910098, -0.0819083144518, 0, 0, 0.021192891572, -0.07912518688, 0.0160797464082, -0.0539980079619, 0.123188204669, -0.129714729122, 0.202921391572, 0, 0.0458338918256, 0, 0.00196609308782, 0.120518137297, -0.140521355391, 0, 0.0539637508908, 0, -0.103814983503, 0.0448606296668, -0.0334241294525, 0.127168010699, 0.011172088907, -0.412303034417, 0.501111198699, 0.437311415418, -0.0356656353194, 0, 0, 0.0344406790749, -0.139043748773, 0.0978051112742, 0.281158754558, 0.0391512084793, -0.639398429823, 0.0357586641887, 0, 0.0646205812888, 0.0244820957295, 0.450941350138, 0.0329075392827, -0.8932226558, -0.0291042232377, -0.208398008463, 0.0132677330549, -0.0814051566945, -0.0444873843959, -0.292759221815, -0.0543476838068, 0, 0.305303386848, -0.0507130093639, 0, -0.0216036536159, -0.0274780606147, -0.0189293021711, 0.21642715652, 0, 0.0796495755905, -0.651683404529, -0.164609073717, 0.0211073771684, -0.0147509060811, 0.0961219176558, 0.0249018301678, 0.035198539421, 0, 0.00407959373691, 0.216100180723, 0.147109169032, 0, 0, 0, 0.0396456441969, 0.0659628954868, 0.21050076288, 0, 0.903206103564, -0.188054790445, -0.202847368239, 0.0894301061783, -0.397736326852, -0.201222469116, 0.0261549121841, 0, -0.163318566108, 0.764623390837, -0.0344903741308, 0.0243615316766, 0.133135870833, 0.0360467838684, 0, 0, -2.61949545778, 0.0209616836366, 0.326913417288, 0.036710675832, 0.100618130261, -0.0374352657334, -0.122047253435, 0.0180475992106, 0.0286614156661, 0, 0.037501774003, 0.510768366598, 0.732877129044, 0.0252265150936, -0.0557193474889, -0.144353775884, 0, -0.70403046816, 0.239656314382, 0.100914728015, 0, 0.272573936335, 0, -0.179380225149, 0.0331249976242, 0.184601383748, 0.0196265807607, 0.0299217673636, -0.127387969964, 0.0534722270449, -0.266961518148, 0.0729672474283, 0.973683866126, 0, 0.177083176307, 0.0520894650755, -0.329498504971, 0.0183635379426, 0, -0.02086771186, 0.0284854231873, 0.400650585229, -0.0485410826149, -0.243979047444, -0.0457840418061, 0.0195835045262, -0.641281787224, 0.29693605195, 0, -0.0531634278694, 0.806158218906, 0.172239059706, -0.320570771855, 0, 0.0254925530022, 0, -0.0299550260049, -0.677073688413, 0.0837370376891, -0.719430111735, 0.0263923530409, 0.032676223061, 0.375150782929, -0.247538332488, -0.13190669136, 0.0260956027141, 0.0346656967886, 1.70042711634, 0, -0.023804486482, 0.0673811178717, 0, -0.936021720801, -1.03153559262, 0.00969014449502, 1.60727462888, 1.58439865839, -0.125959648497, 0.47432201715, 1.20358432389, 1.52504341128, -0.74118907451, 0.525761995918, -0.561755009612, -0.500274360765, -1.51539224484, 0.376874494157, 0.116206242438, 0.85859482347, -0.528715138989, -2.34090794944
-0.203046098976, 0.170906265135, 0.173456835106, -0.0300549381784, 0.24223142457, -0.0448967532262, 0.0464339108325, 0, -0.955854025725, 0.0366447676958, 0, 0, 0.0169484055908, -0.0133253904352, 0.0160593854008, -0.314487410116, 1.72965941304, -0.156571647694, 0, 0, 0.0736146072972, -0.0572832971012, 0.0327185894649, 1.01856090695, 0.0459410821979, -0.191492349719, -2.02126979172, -0.395208202502, -0.405402704971, 0, 0.0395087869689, 0, -0.0054137440992, 0.0305590950971, 1.29514124585, 0.0219353665801, 0.0329247814712, 0, -0.224673165811, 0.028393956792, -0.517835588808, 0, 0.0400283713195, 0.561734792939, 0, -0.0910751940362, 0.0486977645099, -0.164894281947, 0, 0, 0.0181412656474, -0.0745845033033, 0.0182824820924, -0.0529073918572, 0.120272478788, -0.162264695127, 0.202531083705, 0, 0.0458338918256, 0, -0.0641002566444, 0.313929646993, -0.127097327692, 0, 0.0635517490901, 0, -0.102729787007, 0.0577110409043, -0.0334241294525, 0.134103389125, 0.011172088907, -0.118037217301, 0.499758689941, 0.550548665054, -0.0171914279423, 0, 0, 0.0386790897921, -0.166817360471, 0.119100197985, 0.31316140528, -0.183737502764, -0.765802393644, 0.0381147539359, 0, 0.1249350717, 0.026833390121, 0.339368864717, 0.0414168907669, -0.872460438813, 0.155161291679, -0.172421865166, 0.0156952733419, -0.0908008224535, 0.159707316434, -0.266574741377, -0.0516107412235, 0, -0.10082248355, -0.0507130093639, 0, -0.00442767804559, -0.0274780606147, -0.00416474071517, 0.336512940626, 0, 0.0752703378143, -0.478063896744, -0.164609073717, 0.0211073771684, -0.0135389535452, 0.100457506865, 0.0257131348735, 0.0360106799339, 0, -0.00727024786072, 0.217800480364, 0.147109169032, 0, 0, 0, 0.00510772062004, 0.127906403623, 0.214886226745, 0, 0.677570863247, -0.167990042235, -0.275493703542, 0.0352607480901, -0.398109621539, -1.31379170213, 0.0272722668723, 0, -0.357426857883, 1.56651986127, -0.0313331282589, 0.0536085286108, 0.0506986079652, 0.325220799254, 0, 0, -2.02523085595, 0.0420542501073, 0.320740589677, 0.0453360338135, 0.119565783801, -0.0325913076494, -0.102762487863, 0.0195603014413, 0.0294730254462, 0, 0.0455559759436, 0.510768366598, 1.0724473228, 0.0211517347074, -0.0530254541821, -0.370718476074, 0, -0.638816495982, 0.260958573089, -0.143216778722, 0, 0.300324277242, 0, -0.568524883693, 0.0369192587408, 0.205488916455, 0.0206382554996, 0.0205876761585, -0.0888861147253, 0.062418815845, -0.262780523482, 0.114589309458, 1.13234305998, 0, 0.196526527001, 0.0520894650755, -0.290386385476, 0.0183635379426, 0, -0.0157699040675, 0.0343751895683, 0.419006527631, -0.0464287669439, -0.5055354321, -0.044295798086, -0.0571220735317, -0.652591049889, 0.140339053596, 0, -0.0520727207403, 0.506545493793, 0.177573760322, -0.31659518963, 0, 0.0285092887142, 0, -0.156561355549, -0.646931214511, 0.0837370376891, -0.719430111735, 0.0273649911044, 0.0360793446155, 0.383741954713, -0.246624712714, -0.117270359684, 0.027160401707, 0.00264085658824, 0.995678022781, 0, -0.0752101560656, 0.0751625908297, 0, 0.397670454894, -2.01408980688, 0.112339126101, 2.06421309735, 1.01031947829, -0.370007368844, 0.682950654656, 1.01327764824, 1.70111192584, -1.07198175005, 1.21830618604, -0.0987089551684, -0.446200608969, -1.3234157584, 0.372953291613, -0.208345323088, 0.61636496768, -0.636286990847, -3.02047026845
-0.179002240702, 0.179025369261, 0.210517686519, 0.181252443888, 0.250408645348, -0.0332107926635, 0.0474118513294, 0, -1.22204799108, 0.0366447676958, 0, 0, 0.0169484055908, -0.0118165167808, 0.0160593854008, -0.314487410116, 2.16256701463, -0.153373687771, 0, 0, -0.171326654169, -0.0486047370753, 0.0423213554966, 0.957681871964, 0.0633518698503, -0.183662213106, -1.95489138041, -0.465788911537, -1.04900475525, 0, 0.0560724347792, 0, 0.0149793128359, 0.0305590950971, 1.32745253175, 0.0243585824688, 0.0329247814712, 0, -0.342067068388, 0.028393956792, -0.572694259157, 0, 0.0430432489726, 0.58243185815, 0, -0.020234726928, 0.0530863023802, -0.163204501681, 0, 0, 0.0181412656474, -0.0719316994069, 0.0192454832929, -0.0529073918572, 0.0594208806541, -0.162264695127, 0.217047410144, 0, 0.0656189753642, 0, -0.0286821212253, 0.322899579692, -0.123080935153, 0, 0.0635517490901, 0, -0.102729787007, 0.0592306712191, -0.017124610416, -0.0224904593774, 0.025746670642, 0.044601195118, 0.530034045047, 0.330552755488, -0.0171914279423, 0, 0, 0.0386790897921, -0.164167826726, 0.119100197985, 0.317478040184, -0.179344145211, -0.746431421537, 0.0430200499631, 0, 0.363432492725, 0.026833390121, 0.629103621101, 0.0414168907669, -0.927289414776, -0.0503822867621, -0.19837274925, 0.0167731098351, -0.0634728521494, 0.159707316434, -0.24834451686, -0.0516107412235, 0, 0.0048072222657, -0.0459331762282, 0, -0.00442767804559, -0.0191392229213, 0.00175124317266, 0.282861681752, 0, 0.0879403081319, -0.592573183947, -0.0729607369483, -0.0423647687771, -0.0626196672833, 0.123984354628, 0.0257131348735, 0.0360106799339, 0, -0.0764174321298, 0.249370160067, 0.232525073945, 0, 0, 0, 0.00510772062004, 0.0630525545557, 0.239586878065, 0, 0.247428160866, -0.13052119657, -0.25329992676, 0.0352607480901, -0.724139589205, -1.30955480067, 0.0272722668723, 0, -0.340083632103, 2.19072081764, -0.0270782499732, 0.0551275356233, 0.0544197074893, 0.325220799254, 0, 0, -2.06780907122, 0.0420542501073, 0.252957643847, 0.0453360338135, 0.0373303687753, -0.0325913076494, -0.0990395462031, 0.0195603014413, 0.0294730254462, 0, 0.0455559759436, 0.533987627215, 1.02324524975, 0.127174827213, -0.0519193759946, -0.118679393949, 0, -0.792863301997, 0.281121565334, -0.0627755818919, 0, 0.321486021248, 0, -0.818247896013, 0.0391500526048, 0.207031170295, 0.0241972615286, 0.0205876761585, -0.194739586593, 0.062418815845, -0.237911107999, 0.131824822533, 1.01146722732, 0, 0.248783265939, -0.22672457379, -0.422503023917, 0.022323070173, 0, -0.0123103861121, 0.0374210142676, 0.257914529053, -0.0442168223887, -0.188205211327, -0.0432356393881, 0.0386389229233, -0.482239543685, 0.223118098707, 0, -0.0520727207403, 0.503848575418, 0.249204891594, -0.296915443537, 0, 0.0285092887142, 0, -0.156561355549, -0.627117936185, 0.00563706871461, -0.875703447888, 0.0273649911044, 0.038034700098, 0.416078564153, -0.235176241062, -0.112978415676, 0.027160401707, 0.00264085658824, 1.44522068366, 0, -0.0752101560656, 0.156949738158, 0, 0.721770495992, -1.92654027931, 0.147122520523, 2.03111827331, 0.95198188668, -0.51895808967, 0.239895794732, 0.735649217392, 2.03158191149, -1.2494071964, 1.17827177789, 0.0812714704085, -0.619652979644, -1.11386235028, 0.586731096337, -0.276011901959, 0.786081657637, -0.666683881547, -3.12035942359
-0.16855996157, 0.190275736534, 0.279479877014, 0.182032958015, 0.262898998996, -0.0303560789923, -0.0266289280652, 0, -1.25212746956, 0.047349800444, 0, 0, 0.0196072682914, -0.00995447635144, 0.0189142322037, -0.49044994243, 2.22716258122, -0.152260540208, 0, 0, -0.464059839907, -0.0486047370753, 0.0423213554966, 1.10564602896, 0.0633518698503, -0.173230071878, -1.48416604371, -0.430732687944, -1.09935357625, 0, 0.0585338497695, 0, 0.0176086177412, 0.0360460726302, 1.44089267116, 0.0263588985986, 0.0452081339228, 0, -0.253663019734, 0.0336464344249, -0.527650794877, 0, -0.0451130729128, 0.461554133646, 0, -0.020234726928, 0.0530863023802, -0.281672863373, 0, 0, 0.0222165801046, -0.0708094491324, 0.020508307113, -0.0472867814966, -0.0998699702497, -0.15960110953, 0.224877564405, 0, 0.0656189753642, 0, 0.0669207000563, 0.411949015369, -0.108945044972, 0, 0.0745355462845, 0, -0.0972917511034, 0.0611059880288, -0.017124610416, -0.0849997093742, 0.0318356963162, 0.0896884526687, 0.244943852467, 0.420605024771, 0.0282240921032, 0, 0, 0.0450915086039, -0.155769445796, 0.21181107318, 0.252288830443, -0.265006807216, -0.91773902381, 0.0457438805571, 0, 0.480156672956, 0.0318941621998, 0.472773888823, 0.0539610773484, -0.870843078676, 0.0408830057731, -0.1763147872, 0.0181489409292, -0.0424753267193, 0.163692484306, -0.151296511745, -0.0455485324452, 0, -0.154023537214, -0.0459331762282, 0, 0.0474100562684, -0.0191392229213, 0.0172448542941, 0.162815131811, 0, 0.121201075577, -0.590816202544, -0.0729607369483, -0.0423647687771, -0.0611772250233, 0.131901693622, 0.0276148371619, 0.041021543936, 0, -0.0632264026303, 0.249370160067, 0.232525073945, 0, 0, 0, 0.00781626246529, -0.101043818504, 0.247265891476, 0, 0.301347427263, -0.0191745713573, -0.226584298346, 0.0468744109136, -0.643245254149, -0.692394245569, 0.0300832926092, 0, -0.33456984131, 2.07173879642, -0.0270782499732, 0.0651540219257, -0.0814195034606, 0.329354056773, 0, 0, -2.08795786448, 0.121996437642, 0.296370081645, 0.0558708678884, 0.0498984255145, -0.0257694733414, -0.00990377600231, 0.0262374968542, 0.035382578394, 0, 0.0571899239534, 0.53654664163, 0.899359172897, 0.127174827213, -0.0504521150772, 0.0955213246807, 0, -0.781228380391, 0.32335610257, -0.00270326463771, 0, 0.34831816664, 0, -0.901639216587, 0.0424088446158, 0.207725120537, 0.0253303518973, 0.0241929335739, -0.225838742107, 0.0725704727739, -0.229800888585, 0.226499745588, 1.02768249712, 0, 0.26629765046, -0.22672457379, -0.587689555079, 0.022323070173, 0, -0.0111814248481, 0.0385556039981, 0.292647867568, -0.0424795690155, -0.495880074901, -0.0415444372839, 0.119799498457, -0.666009497411, -0.0198424845306, 0, -0.0470167927979, 0.35076521768, 0.266071854127, -0.294071390752, 0, 0.0332579350522, 0, -0.145922545776, -0.564118953368, 0.00563706871461, -0.875703447888, -0.034262029816, 0.0409545873756, 0.479196916405, -0.228478953147, -0.096561284711, 0.02991591353, 0.00534873035546, 1.2872814179, 0, -0.0657046905513, 0.0435021800755, 0, -0.183476368715, -1.65330462404, 0.453122758771, 1.79330532794, 0.434526504079, -0.516298182276, 0.470531623888, 0.946228104962, 2.4139854874, -0.932683667886, 1.39373934629, 0.197089562574, -0.345330949508, -1.18563457312, 0.357193165872, -0.173064942817, 0.8929981171, -0.755593668231, -3.60733302228
-0.0925336941103, 0.220510838703, 0.0943688356451, 0.221487222373, 0.294904096441, -0.0272571614939, -0.0244898312608, 0, -1.23001999455, 0.054636699971, 0, 0, 0.0196072682914, -0.0204162992277, 0.0189142322037, -0.455391804175, 2.39201586787, -0.152260540208, 0, 0, -0.446687697345, -0.0513074938416, 0.0386813201552, 0.955650479953, 0.0591229380879, -0.145563527897, -1.27132275574, -0.41089911602, -0.747251849183, 0, 0.0664673338671, 0, 0.030670878296, 0.0385668609851, 1.44794020649, 0.0279141121622, 0.0460883751638, 0, -0.0878271990365, 0.0360000380573, -0.575588923621, 0, -0.0451130729128, 0.482743866753, 0, -0.00875906820626, 0.0580862025178, -0.592574757605, 0, 0, 0.0237878520863, -0.0708094491324, 0.022014161105, -0.0441824216687, -0.107746447639, -0.158571151814, 0.22806802321, 0, 0.0608082736525, 0, -0.0247287584621, 0.418803328841, -0.157160251038, 0, 0.0754183728345, 0, -0.0968299241297, 0.0487875834494, -0.0195334581492, -0.0769538798435, 0.0380510867298, 0.186032598816, 0.591904265301, 0.494351916014, 0.0282240921032, 0, 0, 0.0472951545972, -0.162965562423, 0.21181107318, 0.221891883798, -0.259896859748, -0.906877316351, 0.0457438805571, 0, 0.645356858161, 0.0344185942991, 0.462798057621, 0.0548420893969, -0.873480617612, 0.356565321713, -0.163954609941, 0.0197824173129, -0.0424753267193, 0.165273867221, -0.05079069733, -0.0426843294817, 0, 0.027904580751, -0.117049648619, 0, 0.0474100562684, -0.0231822245569, 0.0286873283054, 0.337690280562, 0, 0.109828415903, -0.741806681116, -0.0625536892483, -0.0433397403364, -0.0611772250233, 0.131901693622, 0.0276148371619, 0.041021543936, 0, -0.0601265135322, 0.291997528666, -0.05687260501, 0, 0, 0, 0.008863608613, -0.236038331732, 0.247265891476, 0, -0.0174014584235, -0.0129068734243, -0.234914225306, 0.0538713062124, -1.08853266914, -0.948852343871, 0.0300832926092, 0, -0.333521035543, 1.72474569814, -0.0199823029756, 0.0557349442698, 0.0496177351013, 0.331050351636, 0, 0, -2.15403042957, 0.121996437642, 0.295602004448, 0.0567520482078, 0.0568272266537, -0.0235861102235, -0.00827770880616, 0.0269708125828, 0.035382578394, 0, 0.0580712205131, 0.53654664163, 0.828341732405, 0.22897207105, -0.0488356368048, -0.0871766303446, 0, -1.01008454587, 0.337872724451, 0.0500030568042, 0, 0.291428175009, 0, -0.913133735092, 0.0442046565616, 0.177715045841, 0.0253303518973, 0.0256718711284, -0.251269912307, 0.00345312585906, -0.229800888585, 0.339312288927, 0.986604532864, 0, 0.203940084271, -0.379160880212, -1.00386009902, 0.0213399447441, 0, -0.0111814248481, 0.0385556039981, 0.354370738694, -0.040959822475, -0.236519153794, -0.0415444372839, 0.254966168227, -0.767262508629, 0.011905517306, 0, -0.0442435097842, 0.515170537736, 0.275129701948, -0.281371743228, 0, 0.0341371250158, 0, -0.145058968885, -0.578639557695, 0.0171913142923, -0.910929268371, -0.034262029816, 0.0425476316968, 0.65694350113, -0.226297127094, -0.0846969405308, 0.02991591353, 0.00639581809903, 1.5889202237, 0, -0.0575250092849, 0.0626855478703, 0, 0.145982586151, -2.79031080754, 0.653109904601, 2.27580968181, 0.293063483777, -0.383800107162, 0.659207972012, 0.798506149183, 2.87223702231, -1.47572619206, 1.63571378748, 0.217571026651, -0.242693565532, -1.48890187739, 0.180963053121, -0.0628080901251, 0.879785509243, -0.792906060236, -3.3748034763
-0.0862774174625, 0.240380067946, 0.106402401473, 0.0649191380789, 0.35171956658, -0.0242079067727, -0.0170020350003, 0, -1.44420617723, 0.054636699971, 0, 0, 0.020819991789, -0.0204162992277, 0.0200832745453, -0.683961629792, 2.31118418333, -0.148295831783, 0, 0, -0.866504994814, -0.0460201106586, 0.04070121812, 0.893076174439, 0.0656018435261, -0.42795088893, -0.918067424019, -0.531648937594, -0.331560947716, 0, 0.0777602327376, 0, 0.0465413104733, 0.0468977314393, 1.43857096405, 0.0279141121622, 0.0482330875832, 0, -0.0214776212279, 0.0368274120887, -0.559130611811, 0, -0.0393355092022, 0.492508905147, 0, 0.0281366531348, 0.0603511543099, -0.592574757605, 0, 0, 0.0237878520863, -0.0628742940879, 0.0230069134263, -0.0433616551998, -0.18473945016, -0.158571151814, 0.22688141157, 0, 0.0673528973907, 0, 0.0362987491536, 0.14331084873, -0.147220380539, 0, 0.0844582492996, 0, -0.0960134674364, 0.0487875834494, -0.012818972045, -0.108117537141, 0.0380510867298, 0.0929308354925, 0.156940579688, 0.584028673844, 0.0463083134539, 0, 0, 0.0526509488689, -0.152288076221, 0.225053670268, 0.227553676882, -0.132335449939, -0.884717783095, 0.0564185909283, 0, 0.767886468247, 0.0425514907114, 0.91561527831, 0.0569886800582, -0.827518975457, 0.179654699663, -0.132296425031, 0.0208686255051, -0.0192117774926, 0.165273867221, 0.00411077489345, -0.0355497263266, 0, -0.00403884652367, -0.114929505723, 0, 0.0626619018295, -0.0165597768561, 0.0366861329525, 0.324855688724, 0, 0.125126837033, -0.740341487297, -0.0258194001713, -0.0415880523946, -0.0560496483217, 0.197996999159, 0.0284256388899, 0.041833433411, 0, -0.0509898866911, 0.310150002087, -0.0241998818201, 0, 0, 0, 0.008863608613, -0.544860090867, 0.335985455831, 0, 0.165552446784, 0.0352016205288, -0.218986065831, 0.0538713062124, -0.995758097897, -1.17426803057, 0.0313243627334, 0, -0.312667552743, 1.7526434892, -0.0163689351218, 0.0598676686884, 0.0496177351013, 0.331050351636, 0, 0, -1.80977218001, -0.0766587172725, 0.351963537926, 0.0588990488983, -0.0128506592196, -0.0183827652412, 0.124188456942, 0.0282357941679, 0.0361940101764, 0, 0.0602185044486, 0.539046909616, 0.864247369628, 0.268179010657, -0.0477956410259, 0.00236246762211, 0, -1.05566407303, 0.34538978877, 0.0855833894032, 0, 0.300335018437, 0, -0.642600834962, 0.0517873522226, 0.172812269292, 0.0300121987047, 0.0256718711284, -0.23346882651, 0.0108309529598, -0.324645612288, 0.345988584508, 1.01654769575, 0, 0.158369215267, -0.503982441326, -1.08026297808, 0.0231676340083, 0, -0.00716038625084, 0.0425966918648, 0.381602471616, -0.040959822475, -0.0793067720566, -0.0365935073774, 0.264137836006, -0.679296994417, -0.181761433471, 0, -0.0434227483292, 0.375681546692, 0.327731650502, -0.273578081261, 0, 0.0362792757668, 0, -0.142954862748, -0.451885421914, 0.0535949847181, -1.18007782334, -0.0332188533822, 0.0503361013757, 0.718586120615, -0.224547626893, -0.0757310575497, 0.0310731965426, 0.00639581809903, 1.38403726834, 0, -0.0575250092849, 0.123969000489, 0, 0.289729202531, -3.3842681467, 0.91105155163, 2.2608179031, 0.450875185275, 0.0737927968823, 0.982799732743, 0.788124256181, 2.69792278984, -1.494989151, 1.13198568616, -0.227911362125, -0.447358065469, -1.3446634916, 0.331493443723, -0.0244926413982, 1.04253791201, -0.637233857226, -3.40021374456
-0.170022299263, 0.240380067946, 0.122944042092, 0.264523551086, 0.35171956658, -0.0215296320162, -0.0112381704815, 0, -1.47209627263, 0.0854765982766, 0, 0, 0.0236610643946, -0.0133154001185, 0.0227769740584, -0.65474525771, 2.68817821641, -0.147335144635, 0, 0, -0.860851614197, -0.0552770302597, 0.0305954765359, 1.11473920259, 0.0564473854696, -0.42795088893, -1.33484257881, -0.477220062376, -0.0543224523769, 0, 0.0802335155165, 0, 0.0490615882055, 0.0494352410654, 1.31387078973, 0.0296288210687, 0.0510278310793, 0, 0.237852962281, -0.213168210519, -0.737834890609, 0, -0.0393355092022, 0.371710150582, 0, 0.0216224138198, 0.0603511543099, -0.487488379223, 0, 0, 0.0301373592683, -0.0619053654532, 0.0241469426774, -0.0233937888, -0.159900616472, -0.152224443762, 0.194235007934, 0, 0.055874006674, 0, -0.736066998429, 0.263069454338, -0.131131677334, 0, 0.0867431404465, 0, -0.0891708451538, 0.0554759382188, -0.0208807264167, -0.182164246403, 0.134818237156, 0.287049343281, -0.670528710365, 0.646569244242, 0.0692222038447, 0, 0, 0.0564938603868, -0.139840391438, 0.249443171385, 0.182008764362, -0.511812351437, -0.907426666928, 0.0589190805061, 0, 0.8673700655, 0.0452073444198, 1.09661186304, 0.0592673033203, -1.10182610374, 0.565129349711, -0.224635232555, 0.0221836507616, -0.0192117774926, 0.172587381235, 0.127394943179, -0.032533722666, 0, -0.127950490047, -0.11834877868, 0, 0.0855274353285, -0.0272219362636, 0.0667675943764, 0.540468158389, 0, 0.148437672726, -0.635494897419, -0.0600069799737, -0.0444622335452, -0.0547469943315, 0.198991536943, 0.030259898423, 0.0436701539311, 0, -0.0481728455414, 0.310150002087, -0.0732620188264, 0, 0, 0, 0.0147296453165, -0.492293187294, 0.336993812209, 0, 0.376039654333, -0.114047659034, -0.190981734231, 0.0832122040641, -0.944489137251, -0.211403518856, 0.0341854620115, 0, -0.455427100432, 1.33485163988, -0.0118274998744, -0.0796888517661, 0.0391292305807, 0.338413917405, 0, 0, -1.85144107719, -0.184890390451, 0.390483647061, 0.061178107503, -0.00900748478089, -0.0142470461807, 0.180299861203, 0.0356369668673, 0.0380296951841, 0, 0.0624978637849, 0.532844373999, 1.00495620616, 0.261506510135, -0.0465572697977, -0.112127184617, 0, -1.03483852971, 0.390626478735, 0.144594557766, 0, 0.338642915715, 0, -0.341615890247, 0.0546683402841, 0.225631971647, 0.0309901693064, 0.032676263573, -0.170731614775, -0.0994361284166, -0.323701718329, 0.475631837834, 0.808938847042, 0, 0.159039310066, -0.511639464098, -0.98157847536, 0.0201385477117, 0, -0.00618604427017, 0.0435758939677, 0.408654106265, -0.0290712439441, -0.635702134528, -0.0351656533265, 0.396351475887, -0.614257537586, -0.180321681148, 0, -0.0306959270081, 0.594515516051, 0.322179649504, -0.27078164212, 0, 0.0394627672036, 0, -0.14072134664, -0.399878158542, 0.0470641401085, -1.22926626271, -0.0308157177082, 0.0528504115524, 0.910279356956, -0.245459022585, -0.0564290489272, 0.0337378562249, 0.0124634372648, 0.816594732261, 0, -0.0296751107546, 0.124528025508, 0, 0.430991136246, -3.6478082039, 0.094744356671, 2.2799407821, 0.761049354634, -0.0614219208584, 1.52184106133, 1.17134715717, 2.90716756438, -1.62037164924, 1.20345977032, 0.083500027509, -1.05517797005, -1.10958844177, 0.146091972727, -0.297659948212, 0.895023337581, -0.566274704568, -3.13685368208
-0.480799603054, 0.248864063293, 0.081914779538, 0.501072074179, 0.384508361907, -0.0184345783451, -0.00662673186113, 0, -1.40764665243, 0.0854765982766, 0, 0, 0.0236610643946, -0.0118158112474, 0.0227769740584, -0.65474525771, 2.96746942119, -0.147335144635, 0, 0, -0.850447088134, -0.0552770302597, 0.0305954765359, 1.05463557816, 0.0564473854696, -0.386343229603, -1.68132377458, -0.477220062376, -0.395776945027, 0, 0.0874752311267, 0, -0.0317892332076, 0.0494352410654, 1.13989917127, 0.0337485292895, 0.0555800159265, 0, 0.19148063202, -0.210927880429, -0.699424787662, 0, -0.0401519804933, 0.371710150582, 0, 0.0216224138198, 0.0647003963662, -0.417550624957, 0, 0, 0.0301373592683, -0.0619053654532, 0.0241469426774, -0.021110536992, -0.153583713513, -0.152224443762, 0.184861386659, 0, 0.055874006674, 0, -0.837867144347, 0.26633554081, -0.12437422116, 0, 0.0916795970633, 0, -0.086125383319, 0.0569858785261, -0.0208807264167, -0.168756510872, 0.178647494788, 0.373840489109, -0.521451306436, 0.646569244242, 0.0692222038447, 0, 0, 0.0626661166869, -0.13446043316, 0.249443171385, 0.20694298859, -0.507385545238, -0.89813318358, 0.0589190805061, 0, 0.930727689673, 0.0452073444198, 1.1934592146, 0.0650869502783, -1.06459390111, 0.640809208306, -0.206823554686, 0.0221836507616, 0.252769992568, 0.172587381235, 0.212088229399, -0.032533722666, 0, -0.395507005027, -0.11834877868, 0, 0.0855274353285, -0.0272219362636, -0.00359433889201, 0.537997441841, 0, 0.152347586205, -0.725899178936, -0.0600069799737, -0.0444622335452, -0.0547469943315, 0.198991536943, 0.030259898423, 0.0436701539311, 0, -0.0457222537677, 0.374210034215, -0.0732620188264, 0, 0, 0, 0.0147296453165, -0.492293187294, 0.336993812209, 0, 0.560776355024, -0.104221747392, -0.183988859652, 0.0832122040641, -0.874892112569, -0.706960757336, 0.0341854620115, 0, -0.455427100432, 1.38199368757, -0.0118274998744, -0.0739030625205, 0.0527856305283, 0.338413917405, 0, 0, -2.05952604068, -0.184890390451, 0.416557140476, 0.0662280102056, -0.0722023257964, -0.0824577911307, 0.179519056711, 0.038903153705, 0.0380296951841, 0, 0.066527312366, 0.53015798668, 1.50784326798, 0.249686249588, -0.0465572697977, -0.568218022044, 0, -0.864006601745, 0.470220353198, -0.121155108081, 0, 0.338642915715, 0, -0.0267142948183, 0.0546683402841, 0.224222357004, 0.0309901693064, 0.032676263573, -0.160815296398, -0.0959046844085, -0.323701718329, 0.578044852289, 0.634873840658, 0, 0.115045185701, -0.511639464098, -1.28556858963, 0.0201385477117, 0, -0.00618604427017, 0.0435758939677, 0.490447578774, -0.0255412525835, -0.529933638178, -0.0351656533265, 0.411842641062, -0.62043455184, -0.0828748941883, 0, -0.0284143418535, 0.585177680191, 0.322179649504, -0.259708873363, 0, 0.0443225031634, 0, -0.135640805233, -0.342051863981, 0.0470641401085, -1.22926626271, -0.0308157177082, 0.0528504115524, 0.997620649008, -0.252841758158, -0.0491578566322, 0.0337378562249, 0.0124634372648, 0.914366552194, 0, -0.0296751107546, 0.140215163334, 0, -0.247698202759, -2.65739333006, 0.297295753001, 1.84454615979, 0.611387272827, -0.481013765532, 1.38170080387, 1.36115362036, 2.92559365581, -1.45353240286, 1.46529941863, 0.0241452397815, -1.04876109813, -0.950223960822, 0.229539337952, -0.225654663642, 0.715714673449, -0.846860587538, -2.94523792412
-0.529893418992, 0.248864063293, 0.0938440103383, 0.453449360403, 0.384508361907, -0.0184345783451, -0.00505250174971, 0, -1.3796906889, 0.0370833410387, 0, 0, 0.0248822162641, -0.0118158112474, 0.0239074907829, -0.652901634305, 2.99157241395, -0.146212775079, 0, 0, -0.810396817855, -0.0535301417126, 0.0328610536765, 1.15691396611, 0.0645727548972, -0.386343229603, -1.28536479746, -0.425653986078, -0.371718286539, 0, 0.0874752311267, 0, -0.0317892332076, 0.0522582786044, 1.03237563866, 0.0337485292895, 0.0555800159265, 0, 0.0703212936331, -0.210927880429, -0.67623184524, 0, -0.0401519804933, 0.346647471017, 0, 0.0441889293346, 0.0647003963662, -0.475202588557, 0, 0, 0.0266557440557, -0.0607733664451, 0.0251931948183, -0.021110536992, -0.151683729925, -0.165298687596, 0.185666494319, 0, 0.0642914800048, 0, -0.650975725612, 0.287066366584, -0.121352508686, 0, 0.0916795970633, 0, -0.086125383319, 0.0569858785261, -0.0141710222822, -0.151488923099, 0.178647494788, 0.189363333179, -0.716029160204, 0.492813268713, 0.0881820269012, 0, 0, 0.0626661166869, -0.132646118126, 0.272822230512, 0.204671689848, -0.415643778135, -0.879844200363, 0.0618309180597, 0, 0.964882467102, 0.0479419343899, 1.28046422045, 0.0650869502783, -1.06395779, 0.64393147267, -0.187079301182, 0.0235174937626, 0.252769992568, 0.303473839683, 0.216860626541, -0.0293662549557, 0, -0.467200288806, -0.116030419273, 0, 0.104154161373, -0.0252717353974, -0.00131013279875, 0.4127226991, 0, 0.152347586205, -0.725899178936, -0.042334626895, -0.0423976417084, -0.053377627285, 0.209912560659, 0.0310526547213, 0.0444639740489, 0, -0.0457222537677, 0.374210034215, -0.055499692366, 0, 0, 0, 0.0026950464198, -0.413201461614, 0.349742216396, 0, 0.657061929156, -0.0735552661519, -0.182094644219, 0.0269340552077, -0.866805564562, -0.893062505866, 0.0353291388798, 0, -0.408088838045, 1.07555503584, -0.00799679511109, -0.0739030625205, 0.00346878403793, 0.325687292217, 0, 0, -1.76956990303, -0.168597824535, 0.352280788667, 0.0662280102056, -0.0649780965753, -0.0824577911307, -0.0120253349715, 0.038903153705, 0.0388230676772, 0, 0.066527312366, 0.442180973029, 1.54066288415, 0.273466462499, -0.0453307768866, -0.176650375498, 0, -0.866439353699, 0.470220353198, -0.111490858397, 0, 0.38580769135, 0, 0.0266953659017, 0.0577979046625, 0.224222357004, 0.0321327330749, 0.0294733976035, -0.163558493023, -0.0959046844085, -0.313317816577, 0.583137852996, 0.64446950671, 0, 0.147452909104, -0.653761929494, -1.28156579128, 0.0221522671428, 0, -0.00504772023549, 0.0447198966407, 0.490447578774, -0.0255412525835, -0.472998968113, -0.0335458226964, 0.421420971917, -0.904378598985, -0.0828748941883, 0, -0.0284143418535, 0.698450002786, 0.352804590735, -0.259708873363, 0, 0.0443225031634, 0, -0.135640805233, -0.33160922783, 0.0691203512293, -1.45215316293, -0.0298438244029, 0.0555594577272, 0.960573945044, -0.252071130216, -0.0456346386366, 0.034827211577, 0.000728301298913, 0.815219538963, 0, -0.0886868447889, 0.183023396115, 0, 0.0566526744848, -2.91972380343, 0.653313089415, 1.73959487864, 0.56955162074, -0.340503805349, 1.33915347396, 1.48784663137, 2.9562778631, -1.37975626571, 1.53515567947, 0.0806699338486, -1.09453181827, -1.11145880075, -0.336812076228, 0.277749319195, 0.731347949554, -0.829595713028, -3.41493083101
-0.529893418992, 0.248864063293, 0.0938440103383, 0.453449360403, 0.384508361907, -0.0184345783451, -0.00505250174971, 0, -1.3796906889, 0.0370833410387, 0, 0, 0.0248822162641, -0.0118158112474, 0.0239074907829, -0.652901634305, 2.99157241395, -0.146212775079, 0, 0, -0.810396817855, -0.0535301417126, 0.0328610536765, 1.15691396611, 0.0645727548972, -0.386343229603, -1.28536479746, -0.425653986078, -0.371718286539, 0, 0.0874752311267, 0, -0.0317892332076, 0.0522582786044, 1.03237563866, 0.0337485292895, 0.0555800159265, 0, 0.0703212936331, -0.210927880429, -0.67623184524, 0, -0.0401519804933, 0.346647471017, 0, 0.0441889293346, 0.0647003963662, -0.475202588557, 0, 0, 0.0266557440557, -0.0607733664451, 0.0251931948183, -0.021110536992, -0.151683729925, -0.165298687596, 0.185666494319, 0, 0.0642914800048, 0, -0.650975725612, 0.287066366584, -0.121352508686, 0, 0.0916795970633, 0, -0.086125383319, 0.0569858785261, -0.0141710222822, -0.151488923099, 0.178647494788, 0.189363333179, -0.716029160204, 0.492813268713, 0.0881820269012, 0, 0, 0.0626661166869, -0.132646118126, 0.272822230512, 0.204671689848, -0.415643778135, -0.879844200363, 0.0618309180597, 0, 0.964882467102, 0.0479419343899, 1.28046422045, 0.0650869502783, -1.06395779, 0.64393147267, -0.187079301182, 0.0235174937626, 0.252769992568, 0.303473839683, 0.216860626541, -0.0293662549557, 0, -0.467200288806, -0.116030419273, 0, 0.104154161373, -0.0252717353974, -0.00131013279875, 0.4127226991, 0, 0.152347586205, -0.725899178936, -0.042334626895, -0.0423976417084, -0.053377627285, 0.209912560659, 0.0310526547213, 0.0444639740489, 0, -0.0457222537677, 0.374210034215, -0.055499692366, 0, 0, 0, 0.0026950464198, -0.413201461614, 0.349742216396, 0, 0.657061929156, -0.0735552661519, -0.182094644219, 0.0269340552077, -0.866805564562, -0.893062505866, 0.0353291388798, 0, -0.408088838045, 1.07555503584, -0.00799679511109, -0.0739030625205, 0.00346878403793, 0.325687292217, 0, 0, -1.76956990303, -0.168597824535, 0.352280788667, 0.0662280102056, -0.0649780965753, -0.0824577911307, -0.0120253349715, 0.038903153705, 0.0388230676772, 0, 0.066527312366, 0.442180973029, 1.54066288415, 0.273466462499, -0.0453307768866, -0.176650375498, 0, -0.866439353699, 0.470220353198, -0.111490858397, 0, 0.38580769135, 0, 0.0266953659017, 0.0577979046625, 0.224222357004, 0.0321327330749, 0.0294733976035, -0.163558493023, -0.0959046844085, -0.313317816577, 0.583137852996, 0.64446950671, 0, 0.147452909104, -0.653761929494, -1.28156579128, 0.0221522671428, 0, -0.00504772023549, 0.0447198966407, 0.490447578774, -0.0255412525835, -0.472998968113, -0.0335458226964, 0.421420971917, -0.904378598985, -0.0828748941883, 0, -0.0284143418535, 0.698450002786, 0.352804590735, -0.259708873363, 0, 0.0443225031634, 0, -0.135640805233, -0.33160922783, 0.0691203512293, -1.45215316293, -0.0298438244029, 0.0555594577272, 0.960573945044, -0.252071130216, -0.0456346386366, 0.034827211577, 0.000728301298913, 0.815219538963, 0, -0.0886868447889, 0.183023396115, 0, 0.0566526744848, -2.91972380343, 0.653313089415, 1.73959487864, 0.56955162074, -0.340503805349, 1.33915347396, 1.48784663137, 2.9562778631, -1.37975626571, 1.53515567947, 0.0806699338486, -1.09453181827, -1.11145880075, -0.336812076228, 0.277749319195, 0.731347949554, -0.829595713028, -3.41493083101
-0.561683245844, 0.248864063293, 0.134814453359, 0.402819487151, 0.384508361907, -0.0157424830649, -0.00202289473157, 0, -1.3123293658, 0.0515453679043, 0, 0, 0.0263438099232, -0.0108571114169, 0.0252606874972, -0.641430850563, 3.35495242304, -0.146212775079, 0, 0, -0.828154921878, -0.0458481235873, 0.040747732684, 1.08889670057, 0.0829866137021, -0.386343229603, -1.02954961697, -0.495851912073, -0.414343745109, 0, 0.0105307095884, 0, -0.024610200581, 0.0548029466403, 1.08533912544, 0.0337485292895, 0.0610630632381, 0, -0.318011469654, -0.209896533632, -0.77426180138, 0, -0.0373413616536, 0.368105146064, 0, 0.0597377667922, 0.0668632389734, -0.453929178201, 0, 0, 0.0285047188286, -0.0607733664451, 0.0299239927124, -0.0200594264617, -0.142727420552, -0.157959554296, 0.171791094538, 0, 0.0802827135273, 0, -0.591284948326, 0.329951866242, -0.118598108968, 0, 0.0963178150114, 0, -0.0850810844009, 0.0613491404666, 0.00385336029796, -0.13715929143, 0.178647494788, 0.148252762314, -0.794475371213, 0.328384857785, 0.120316593996, 0, 0, -0.00543781165438, -0.237785910048, 0.299119888496, 0.28050909617, -0.378248150525, -0.870548979103, 0.0618309180597, 0, 1.06101179954, 0.0505068990894, 1.19049235544, 0.0703946789523, -1.02684337453, 0.679552456598, -0.157572086782, 0.0250761047193, 0.172998736909, 0.310890281162, 0.0909246031833, -0.026528985654, 0, -0.398745963956, -0.113546051295, 0, -0.0375803737635, -0.0182316664837, 0.000772666017427, 0.110230847283, 0, 0.157318402452, -0.761302602081, 0.00839477392212, -0.114561504951, -0.053377627285, 0.209912560659, 0.031961787614, 0.0453743270267, 0, -0.0397889409396, 0.414837707707, 0.011614197287, 0, 0, 0, 0.00796832939316, -0.400628445875, 0.349742216396, 0, 0.188523103195, -0.00958778763625, -0.17319092871, 0.0448155915012, -1.1419757377, -0.713828991568, 0.0367059795809, 0, -0.383695107559, 0.697717269201, -0.097469185732, -0.064942957972, 0.024293160649, 0.332247243971, 0, 0, -1.57160010821, -0.13824805025, 0.450627718637, 0.0723120138428, -0.0552511357395, -0.0802769738182, 0.0236244801602, 0.0405039104776, 0.0397329072782, 0, 0.0719020091776, 0.451742752925, 1.35298445024, 0.310813014114, -0.0438975191369, -0.211400448745, 0, -0.859677376827, 0.501392715408, -0.00986412222549, 0, 0.407897017117, 0, -0.262559412369, 0.0627090631137, 0.267123031543, 0.0321327330749, 0.0361862007132, -0.0987646882324, -0.0909381324595, -0.313317816577, 0.642709470339, 0.736566958358, 0, 0.181577603679, -0.638437702834, -1.24953494361, 0.0244119136363, 0, -0.00504772023549, 0.0447198966407, 0.574729135706, -0.0255412525835, -0.396166891584, -0.0335458226964, 0.568253527373, -1.22052174127, 0.0120470086492, 0, -0.0273639987536, 0.9134880375, 0.369260934347, -0.252561804716, 0, 0.0493269356497, 0, -0.130759358798, -0.269349461928, 0.0835362225335, -1.38832338989, -0.0286736183288, 0.0594001608637, 1.01300654966, -0.262197439684, -0.0424354937977, 0.036064503839, 0.00734030162773, 1.04699554301, 0, -0.0702001080532, 0.208051757091, 0, -0.467779192639, -2.17395736778, 0.361332075799, 2.12196685513, 0.343492044534, 0.179031594706, 1.9557965115, 1.30352145433, 2.96875668339, -1.669866157, 1.40862933582, -0.077343522724, -1.27649537095, -1.36956707163, -0.263835709161, 0.417644650466, 0.614295573665, -0.934051629581, -3.44157075787
-0.528455254931, 0.346003492461, 0.200254792966, 0.616778534508, 0.472673230918, -0.0128376884544, 0.00538969805393, 0, -1.2767028689, 0.0515453679043, 0, 0, 0.0301897344689, -0.00957444116472, -0.0347460483183, -0.620749575943, 2.24109392542, -0.142397590679, 0, 0, -0.892818883182, -0.0517795268106, 0.0342615753093, 0.918751637504, 0.0767989229423, -0.301788789881, -0.968573755664, -0.406294951615, -0.215077260015, 0, 0.0228239247354, 0, -0.0116793082293, 0.0576503305932, 1.09304771121, -0.0325240467787, 0.061690940299, 0, -0.292801911688, -0.207121860623, -0.865678332417, 0, -0.034317465601, 0.462535849683, 0, 0.0457148552609, 0.0687887728079, -0.40426938743, 0, 0, 0.0285047188286, -0.0484649166494, 0.0299239927124, -0.0168564084072, -0.122970917247, -0.157959554296, 0.213291450533, 0, 0.0726214108139, 0, -0.642122909978, 0.282095309608, -0.0774399710135, 0, 0.0969479095438, 0, -0.0844306815312, 0.0626411059181, -0.00136855913249, -0.0989210292028, 0.173126181288, 0.238378462587, -0.59141835529, 0.435201397304, 0.139031758169, 0, 0, -0.00374407788479, -0.229100455565, 0.319502079834, 0.22411860981, -0.262211150201, -0.847200703237, 0.0719194717707, 0, 0.669088983997, 0.0533581421474, 1.35432107502, 0.0710231421974, -0.905694396662, 0.726295010272, -0.119155905753, 0.0250761047193, 0.175113777096, 0.310890281162, 0.168578745597, -0.023154931787, 0, -0.390147400532, -0.115770563571, 0, -0.0176418817436, -0.0252296692092, 0.0472923667014, -0.0407245606163, 0, 0.165225177735, -0.72630958156, -0.00410956112254, -0.116423388551, -0.0478713693603, 0.23473518944, 0.0350509339677, 0.0480194326895, 0, -0.0328320587513, 0.433427122365, -0.00081792608944, 0, 0, 0, 0.00796832939316, -0.741438739763, 0.411002343523, 0, 0.0858186615112, 0.0273789140854, -0.154015521056, 0.0448155915012, -1.16966337442, -0.365008916632, 0.0409004331542, 0, -0.383695107559, 0.24180372833, -0.102436815913, -0.0619457447265, 0.0268653380115, 0.332247243971, 0, 0, -1.80525731527, -0.117880800272, 0.323248692497, 0.0729405975969, -0.042517453902, -0.0787540106275, -0.259761214093, 0.0414919642313, 0.0433033668249, 0, 0.07253056716, 0.413100777497, 1.25830869325, 0.292565396008, -0.0438975191369, -0.414871282849, 0, -1.05696374238, 0.53750927256, 0.0385769486227, 0, 0.446451423444, 0, 0.0164147844893, 0.0695621642348, 0.27791874957, 0.0360165699482, 0.0361862007132, -0.0864421715097, -0.0903197270376, -0.588276284044, 0.727639570413, 0.812960294291, 0, 0.226841244459, -0.519709356926, -1.60852480639, 0.022520603073, 0, -0.0011782968321, 0.0486086252411, 0.601597457606, -0.0175305812117, -0.441967622806, -0.0279071984421, 0.552566914623, -1.41265191507, 0.013502361783, 0, -0.0237553539339, 1.20661340777, 0.379424485268, -0.238758860382, 0, 0.0499540762583, 0, -0.130143411046, -0.206304596173, 0.0677746803452, -1.39996015833, -0.0250882235749, 0.064457212174, 1.16240551514, -0.258729078367, -0.00561542001969, 0.0406669884546, 0.00734030162773, 1.70911555658, 0, -0.0702001080532, 0.411743873917, 0, -1.23647588841, -2.00190287629, 0.985897012672, 2.09664917743, 0.400271353812, 0.274905508716, 2.4614702559, 1.06002838328, 2.50358326843, -1.69699474057, 0.875781630163, 0.0323598642479, -0.862847357103, -1.09566076956, -0.399432397548, 0.0999295852061, 0.32308607906, -0.816860472933, -3.00378761651
-0.464601233857, 0.362808025243, 0.252900988161, 0.782155703482, 0.497254866044, -0.0128376884544, 0.00794199105983, 0, -1.05183948413, 0.0681554242158, 0, 0, 0.0317708492161, -0.00197404930066, -0.033467766731, -0.620749575943, 2.52223153707, -0.142397590679, 0, 0, -0.850990678889, -0.0453917384194, 0.0364524005589, 1.00114590674, 0.084568607149, -0.28122735632, -0.786213156983, -0.304602493689, 0.0908668347608, 0, 0.0253660959913, 0, 0.00145793705191, 0.0576503305932, 1.16928656053, -0.0307300158359, 0.0627114386561, 0, -0.404613865098, -0.200208975308, -0.880111945078, 0, -0.0312797763605, 0.451352728892, 0, 0.0528875812009, 0.0779135897385, -0.375501455344, 0, 0, 0.0325685547208, -0.0484649166494, 0.0319007290112, -0.0105522760731, -0.104611929417, -0.14781075976, 0.213362282908, 0, 0.0805030084759, 0, -0.567896131741, 0.317441892396, -0.0737128352088, 0, 0.103015115473, 0, -0.0775148491537, 0.0717036082737, 0.00763962895755, -0.0754560620457, 0.228506030522, 0.00583744753859, -0.496225760768, 0.475098762332, 0.164562729477, 0, 0, -0.000979084198001, -0.218761714616, 0.342612227591, 0.246015538103, -0.233605555577, -0.824973765636, 0.0719194717707, 0, 0.643888049457, 0.0533581421474, 1.26520015815, 0.0771303340315, -1.11898108904, 0.862193026572, -0.109336496561, 0.0278310404752, 0.197373219683, 0.322105503104, 0.238887592319, -0.023154931787, 0, -0.322593240671, -0.113332115404, 0, 0.00572754882011, -0.0182896002863, 0.0525360310793, -0.513640635208, 0, 0.185335178178, -0.655759252175, 0.0345388054263, -0.11436554467, -0.0478713693603, 0.23473518944, 0.0359667776945, 0.0489364648986, 0, -0.0290984862926, 0.440305195009, -0.20120316611, 0, 0, 0, 0.0157374092261, -0.702072162198, 0.411002343523, 0, 0.0788576793218, 0.0679081553231, -0.136189863314, 0.0604260983451, -1.28452882597, -1.21853062774, 0.0421785180555, 0, -0.339566075743, 0.292048743798, -0.0992820211889, -0.0507255937161, 0.0708080147995, 0.342548435856, 0, 0, -1.93350726152, -0.0941234079728, 0.351846069301, 0.0787596242578, -0.0284255359272, -0.0763334193231, -0.234764129773, -0.0845642031661, 0.0442199666576, 0, 0.0792362372559, 0.612328560209, 1.11480703478, 0.31874015888, -0.0416711393093, -0.744499439646, 0, -0.760031926111, 0.553590149871, 0.0885930491036, 0, 0.549990471275, 0, 0.112509988335, 0.0719236095815, 0.288678067211, 0.0360165699482, 0.0461730746182, -0.0587442453021, -0.0851549697952, -0.588276284044, 0.800689018278, 0.68562438374, 0, 0.257983860034, -0.513814517454, -1.54320188169, 0.024733086794, 0, -0.0011782968321, 0.0486086252411, 0.608592177106, -0.0156654578229, -0.864001810592, -0.0279071984421, 0.573593993418, -1.50964297873, 0.013502361783, 0, -0.0170901130142, 1.10948816001, 0.246035107204, -0.226992255728, 0, -0.029026622427, 0, -0.125151123543, -0.295612544976, 0.0744641577997, -1.36798047499, -0.0239553365478, 0.0666265483148, 1.13981916544, -0.261033263421, -0.00188602006743, 0.0418559587025, 0.0166591438834, 1.48083032517, 0, -0.0552411952261, 0.433653855248, 0, -1.04049914948, -1.02130763146, 1.25867836248, 2.00623020588, 0.138206639006, 0.70815105741, 1.98666418339, 1.20145071244, 2.59346042977, -1.79404202184, 0.653657115507, 0.186728608117, -0.737551336568, -1.03510813667, -0.452488588786, -0.401584485711, 0.269944353238, -0.910846337142, -3.60974397957
-0.416857999208, 0.365053991896, 0.125261437059, 0.483552063002, 0.524618654676, -0.0073014898867, 0.0170435489919, 0, -0.971195540339, 0.0681554242158, 0, 0, 0.0337895602161, -0.000508368336464, -0.0318006600911, -0.784296566969, 2.62100278567, -0.136512131027, 0, 0, -0.800447900503, -0.0268199152849, -0.136722118005, 1.16313550431, 0.106629094801, -0.255957481304, -0.434986480209, -0.304602493689, 0.0507419569267, 0, 0.0467453879212, 0, -0.0593003103139, 0.0623673453571, 1.04433208621, -0.029314832656, 0.0655816134077, 0, -0.269888556329, -0.196982045286, -0.755356409399, 0, -0.0312797763605, 0.451352728892, 0, 0.0696136800174, 0.0800703883451, -0.353303926527, 0, 0, 0.0325685547208, -0.0432866514998, 0.0319007290112, -0.00809806288471, -0.0900657795529, -0.14781075976, 0.255065607823, 0, 0.102614565951, 0, -0.730343395761, 0.237110976136, -0.0537521120988, 0, 0.113323014282, 0, -0.0737652919077, 0.0731801279113, 0.0270109234736, -0.0482269381353, 0.22430389419, 0.0509967667182, -0.430669096967, 0.447344732111, 0.165731669718, 0, 0, 0.00662110366403, -0.208419235406, 0.343802167144, 0.189161667433, -0.224297530837, -0.98919963516, 0.0817000269619, 0, 0.791624020279, 0.0586321685164, 1.1281297315, 0.0800046502431, -1.0608993765, 0.963622409455, -0.0723234887812, 0.0278310404752, 0.197373219683, 0.322105503104, 0.335512329647, -0.0175148533951, 0, -0.437705769101, -0.110236590046, 0, 0.00687806885288, -0.00791269775852, 0.0714174508565, -0.364987071938, 0, 0.190636550281, -0.767363026308, 0.0484055152686, -0.111797738417, -0.0452920445505, 0.262365961332, 0.0371207820767, 0.0500919669593, 0, -0.114340970632, 0.466465850811, -0.187659529759, 0, 0, 0, 0.0157374092261, -0.801351631868, 0.435743100706, 0, 0.545008045295, -0.17102289491, -0.118152902485, 0.0604260983451, -1.19135458013, -1.06434647226, 0.0438805588063, 0, -0.339566075743, -0.564638387104, -0.0956010477637, -0.0434442877789, 0.0737679774966, 0.342548435856, 0, 0, -1.79416525075, -0.0929843188285, 0.415671206513, 0.081634408817, -0.0238623349043, -0.0687729353676, -0.233640948732, -0.0810071201339, 0.0453749238545, 0, 0.0821111588343, 0.612328560209, 1.26588742122, 0.333006616023, -0.0416711393093, -0.56934131777, 0, -0.542873054108, 0.597126442742, 0.149439422058, 0, 0.549990471275, 0, 0.263704011898, 0.0749236567344, 0.28794912483, 0.0412028395454, 0.0461730746182, -0.0331701813971, -0.072462427322, -0.563707180587, 0.327637427031, 0.481642907624, 0, 0.284981986975, -0.4930847607, -1.52723054723, 0.0276455785015, 0, 0.00374907758868, 0.0552116932626, 0.65993905946, -0.0142045468203, -0.610947043773, -0.0250861746166, 0.512348845863, -1.4988959926, 0.0858634759593, 0, -0.0140923873456, 1.02598268889, 0.267301553949, -0.290307117038, 0, -0.0261826576954, 0, -0.122334365311, -0.468850352188, 0.092012255738, -1.35592837323, -0.0224528288386, 0.0694882185404, 1.21253402009, -0.277566870687, 0.0126731361602, 0.0434393238505, 0.0166591438834, 0.837676793027, 0, -0.0552411952261, 0.47882120163, 0, -1.43676743042, -0.609695265889, 1.63340528295, 2.47654339886, 0.520703103432, 0.423506824103, 1.81061453785, 0.47164191293, 2.8346043739, -1.75965577109, 0.490995350602, -0.061753802198, -0.502544497165, -1.27248009119, -0.431554675931, -0.212027083844, 0.0222019482045, -0.879416798726, -3.51832131638
-0.411341750232, 0.410603850804, 0.192321680757, 0.397552541411, 0.565628022462, -0.0073014898867, 0.0212386756113, 0, -0.873732281191, 0.324692984556, 0, 0, 0.0337895602161, 0.00411627102275, -0.0318006600911, -0.752598722135, 2.83593671315, -0.135406392308, 0, 0, -0.773327084273, -0.0949095627081, -0.134635276701, 1.39748757437, 0.114540264113, -0.207822036283, -0.38097335912, -0.23360793142, 0.0828712325265, 0, 0.0467453879212, 0, -0.0593003103139, 0.0649203519115, 1.12652061858, -0.0275182390058, 0.0663446871297, 0, -0.398232138009, -0.194702832218, -0.73197294372, 0, -0.025238503937, 0.427571201579, 0, 0.0768677581524, 0.0800703883451, -0.627709214765, 0, 0, 0.0308854032707, -0.0421705562791, 0.0346754941588, -0.00577538998088, -0.0789405266388, -0.143066230843, 0.224866967378, 0, 0.111892936449, 0, -0.766455398276, 0.248472338936, -0.0429591145297, 0, 0.118277156815, 0, -0.071052938485, 0.0791811262783, 0.0366769045028, -0.0482269381353, 0.303015650886, -0.238021066054, -0.549810948092, 0.497625552999, 0.165731669718, 0, 0, 0.00867221551154, -0.258364853088, 0.343802167144, 0.206767554044, -0.224297530837, -0.98919963516, 0.0847557417678, 0, 0.599219752223, 0.0614845903678, 1.33684137869, 0.0807688253432, -0.988433051486, 0.963622409455, -0.0650311444951, 0.0313265356507, 0.255670210341, 0.325342271703, 0.407418442294, -0.0144350446009, 0, -0.358087306073, -0.107684647269, 0, 0.00687806885288, -0.00591247688454, 0.0896496018982, -0.518808845882, 0, 0.149914057471, -0.676840883476, 0.086553570547, -0.109699465055, -0.0437833973943, 0.263516696995, 0.0371207820767, 0.0500919669593, 0, -0.107524787345, 0.466465850811, -0.156026952909, 0, 0, 0, 0.0198151781967, -0.773559726087, 0.436913961452, 0, 1.05349700003, -0.146972666872, -0.107835985031, 0.0482131289092, -1.56973238775, -1.64633807621, 0.0438805588063, 0, -0.320264079615, -1.26396011423, -0.0956010477637, -0.0359699714542, 0.0500476000461, 0.347461891258, 0, 0, -1.58878429394, -0.0929843188285, 0.475713956119, 0.0823987084693, -0.010953001118, -0.0668924736536, -0.223678435554, -0.0777408878159, 0.0453749238545, 0, 0.0828754949255, 0.541347772915, 1.10490071121, 0.36327140133, -0.0386199431859, -0.931542098867, 0, -0.17356161819, 0.614770892316, 0.158273618194, 0, 0.538591598258, 0, 0.199739912368, 0.0796878671668, 0.303295322271, 0.0423284045464, 0.0504648261743, -0.189762723816, -0.0661133820775, -0.562647683732, 0.396639041677, 0.593056453185, 0, 0.359024911797, -0.484793958369, -1.75864538258, 0.0300237438955, 0, 0.00487043481007, 0.0563388361561, 0.65993905946, -0.00718951611864, -0.660035739503, -0.0234116008365, 0.550866734314, -1.46199583534, 0.0987577519162, 0, -0.0117711063101, 1.04749118723, 0.275321329647, -0.290307117038, 0, -0.0254265542339, 0, -0.121585497074, -0.438147060281, 0.0993242090245, -1.32800774252, -0.0224528288386, 0.0739937838259, 1.47392815636, -0.304784521966, 0.0292757118932, 0.0434393238505, 0.0207123176043, 0.72890904422, 0, -0.0536230412961, 0.486651859846, 0, -1.45384050025, -0.124282339502, 1.70502123093, 2.77753686242, 0.712823769275, 0.725809707563, 1.51922198242, -0.322372143573, 3.09770375242, -1.90140228412, 0.722883749286, 0.0168800734126, -0.382620999352, -1.46740416682, -0.368467913718, -0.387937039009, -0.112168178476, -1.1346640382, -3.62272152472
-0.401226699103, 0.410603850804, 0.185469926427, 0.503650465266, 0.565628022462, 0.00457979336326, 0.0225908354661, 0, -0.864003479307, 0.300980508256, 0, 0, 0.0350888355203, 0.00411627102275, -0.0306098809808, -0.719423569908, 3.15266917088, -0.135406392308, 0, 0, -0.740675040695, -0.0927053229074, -0.13218313798, 1.54498020429, 0.116168207705, -0.207822036283, -0.425718390689, -0.225917726951, -0.356908032305, 0, 0.0759561634859, 0, -0.184239407214, 0.0676292173621, 1.11010481245, -0.0275182390058, 0.0672242354991, 0, -0.428707090393, -0.194702832218, -1.14731738414, 0, -0.0222033947111, 0.436176547158, 0, 0.0784895804099, 0.108644558708, -0.649573533085, 0, 0, 0.0263331320074, -0.0421705562791, 0.0356722348977, -0.00577538998088, -0.0646091604688, -0.160091087985, 0.221337308899, 0, 0.114204925511, 0, -0.963490962342, 0.34909383328, -0.0339727917828, 0, 0.119161284777, 0, -0.071052938485, 0.0791811262783, 0.0387485371828, -0.0759417745304, 0.298100558139, -0.0922453575512, -0.637653530327, 0.537218652073, 0.177344987135, 0, 0, 0.0110091080454, -0.257139606052, 0.35826269124, 0.268822052402, -0.428372488778, -0.943878592697, 0.0847557417678, 0, 0.566721294433, 0.0644749870981, 1.30211852831, 0.0816496433007, -0.990097815434, 0.969374780888, -0.0363658071468, 0.0325316624853, 0.290504190639, 0.308302384525, 0.441680937552, -0.0942081929755, 0, -0.25415788248, -0.104665057556, 0, 0.0197625522576, -0.00359788702875, 0.0981201588775, -0.58185254793, 0, 0.152682315334, -0.639263944414, 0.10384517976, -0.107243675859, -0.0437833973943, 0.263516696995, 0.0409634605298, 0.0538794285455, 0, -0.090019802408, 0.505561355911, -0.13788698279, 0, 0, 0, 0.226735126402, -0.769551285448, 0.436913961452, 0, 1.1728749981, -0.204004004804, -0.0886052067958, 0.0183625898425, -1.51937381099, -1.74854962979, 0.0449853725185, 0, -0.311197681394, -1.19244963618, -0.0918500160219, -0.0347662332717, 0.0375115810352, 0.328937323379, 0, 0, -1.53618418879, -0.0798877355473, 0.569640748437, 0.0832796700016, -0.00752764701816, -0.0646856185973, -0.206668533278, -0.0777408878159, 0.0494929907869, 0, 0.0837564984618, 0.541347772915, 0.9134336194, 0.391832578581, -0.0375159317028, -0.649814634605, 0, -0.0655031543995, 0.546386746056, 0.237756719958, 0, 0.547731163932, 0, 0.361179832089, 0.0808061419529, 0.301737945219, 0.0423284045464, 0.0311967733448, -0.189882971427, -0.0652454072165, -0.562647683732, 0.2603997239, 0.652757478372, 0, 0.403811549635, -0.483260716755, -1.72850414616, 0.0327738520548, 0, 0.00487043481007, 0.0563388361561, 0.73572843912, -0.00718951611864, -0.641558257963, -0.0234116008365, 0.60694480803, -1.35087813503, 0.105071387247, 0, -0.0117711063101, 1.25609467438, 0.293839466317, -0.318813181859, 0, -0.0245550406645, 0, -0.120722323723, -0.411293206337, 0.100949677412, -1.48435051973, -0.018794097905, 0.0750352373453, 1.46042968184, -0.234351921178, 0.040497466829, 0.044516133496, 0.00321298818778, -0.0681332244683, 0, -0.077741210843, 0.368191594414, 0, -1.62983433071, 0.113363449638, 1.83988499039, 2.30130677537, 0.739767858597, 1.07459489988, 1.36201800029, -0.269826922846, 3.25130292014, -1.63267679015, 0.957909212482, -0.0296696467664, -0.302961727272, -1.7072016679, -0.433770696822, -0.591738999449, 0.00877858496186, -1.10459807279, -3.94664783704
-0.471185401171, 0.15301912582, 0.000218507125218, 0.674131552969, 0.654461428976, 0.00457979336326, 0.0293003168742, 0, -0.503792016583, 0.300980508256, 0, 0, 0.0381464247361, -0.0014812636776, -0.0277555659886, -0.719423569908, 2.81646686209, -0.121378897507, 0, 0, -0.627497536598, -0.0901585714704, -0.12930553424, 1.34449456675, 0.117974610285, -0.130976567973, -0.179047863655, -0.347919714509, -0.368648223122, 0, 0.0790825780131, 0, -0.178293547987, 0.0676292173621, 1.02164736903, -0.0259225724839, 0.0682248019367, 0, -0.00753979043303, -0.280256710906, -1.28961564005, 0, -0.012717789511, 0.466806206187, 0, 0.0802891895197, 0.111433889795, -0.881292432796, 0, 0, 0.0263331320074, -0.0316875418744, 0.0400899211554, 0.00119713070319, -0.0282635915067, -0.160091087985, 0.28311832386, 0, 0.11688724971, 0, -1.0282151664, 0.484342360093, -0.0126735460231, 0, 0.12016706138, 0, -0.066248932123, 0.0600875225999, 0.0411302034433, -0.0439223617949, 0.290665444005, 0.0309261433823, 0.154720415522, 0.657127682718, 0.217007825996, 0, 0, 0.0136958965219, -0.27074871901, 0.428073689673, 0.252677220587, -0.314931140058, -0.928776426734, 0.105405719278, 0, 0.065872487246, 0.0644749870981, 1.21418582733, 0.0826516541378, -0.790394381554, 0.8965045603, 0.00354107212338, 0.0339502833578, 0.297680586724, 0.308302384525, 0.397927654667, -0.0942081929755, 0, -0.202009933397, -0.1013646384, 0, 0.055002892177, -0.000957148688611, 0.117984000803, -1.38572546747, 0, 0.162399334448, -1.0054335519, 0.123809475872, -0.104421134348, -0.185608867389, 0.274325111989, -0.0868718610473, 0.0641837635328, 0, -0.0778734183503, 0.507603919702, -0.11788261142, 0, 0, 0, 0.226735126402, -0.907395540533, 0.4479114257, 0, 1.46297836753, -0.253737116115, -0.0528181748918, 0.0183625898425, -1.71252756718, -2.29240196329, 0.050403784239, 0, -0.304466743428, -1.56495508496, -0.0849178674473, -0.0537890192231, 0.0420138520235, 0.328937323379, 0, 0, -1.55746697272, -0.00757599732951, 0.624816089774, 0.0842818441824, 0.022965272734, -0.062120387, -0.188158348827, -0.0718993141767, 0.0601912083504, 0, 0.0847587204303, 0.534702109601, 0.873332726599, 0.414819553989, -0.0361921991873, -1.0015204044, 0, 0.193669911468, 0.559716907829, 0.256279683198, 0, 0.508515029341, 0, 0.55340885806, 0.0281723269973, 0.268427776689, 0.0587175779766, 0.0311967733448, -0.201596215848, -0.0642580078424, -0.552696330364, 0.374416382304, 0.884076500949, 0, 0.361053249451, -0.481559413717, -1.73241667807, 0.0359690568677, 0, 0.0189870005615, 0.0700239418645, 0.737818561225, -0.0010231727574, -0.275748868059, -0.0205265240567, 0.659142979237, -1.17865941584, 0.163806415665, 0, -0.00810778019577, 1.3600794541, 0.322697262626, -0.312750481863, 0, -0.0235636153408, 0, -0.11974038697, -0.417172407356, 0.102753333003, -1.4692669803, -0.0125387211575, 0.0852063268826, 1.24036969485, -0.233138231124, -0.0116511840272, 0.0502135789111, 0.00321298818778, 0.146834469591, 0, -0.077741210843, 0.403701333758, 0, -1.07036963328, -0.5723546957, 2.65893730365, 2.01414334954, 0.784793931362, 1.01711361904, 1.39777626273, -0.459002257645, 3.3630607554, -1.60839926305, 0.53951767982, 0.647163430801, -0.716677165743, -1.73533871902, -0.455548773839, -0.604074111698, 0.132223202324, -1.21437834825, -4.11858656645
